0.047843236432856984	0.3963717672276745	0.008250387869884435	0.19676185535136012	0.11221470816647228	0.20851544037694264	-0.06455739201977785	-0.390267608319717	-0.16089051805780213	0.22938973011401984	-0.4903065444363924	0.034733840137801786	-0.29755513310800075	0.03137148556871206	-0.2832917068116348	0.14475992757874295	-0.1042551787253453	0.30834917592600847	-0.26700466561341035	-0.3507461321570945	-0.09530253492721423	-0.1515142502826387	0.13510325304276127	-0.25918194759621094	-0.21733731231208883	0.2102713846466405	0.026502426056226925	-0.041726873150499125	-0.16033647934116085	-0.6202731725240285	-0.030153185627834197	-0.23381780791812343	0.06374253188632661	0.2495083611036671	0.15506958226640322	-0.11225857716344835	-0.4850143924801485	0.08348794437988068	0.3923521884601104	0.02661654853287136	-0.3293979999005897	-0.16749839767547622	-0.060821385378246814	-0.043503129358329264	0.11853405428872625	-0.42363506052047356	-0.35740654955505863	0.3920933117486902	0.07818316156554606	-0.059513761084158935	0.1207107151677903	-0.2538446491652197	-0.14553516943763029	0.09589683899037747	-0.21051880657581326	-0.6757406498213674	0.17669391046509494	0.0355923051764231	0.19232001915458669	-0.2359236063680149	-0.04210697854010442	0.387658796663398	0.25714920853282563	0.09525793775566728
1.0085994414005055	-1.0735104833068445	1.1516618025856873	0.37287535798201366	0.18541971693978399	0.2643225222153993	0.3913199962848647	-0.23641498647243106	-0.7398201090705274	0.668469183398918	0.26272326448319616	-0.3337593862088341	0.07297437178726143	0.2205100682195982	0.6428597896576174	-0.8021683803864443	1.183544824418967	-0.28035212318841174	1.1469490596571208	-0.7416370996768278	0.13302627272339448	-0.6479710777510233	-0.04490074035825921	-0.8481512342837206	-0.8259593139955038	-0.6486394267388964	-0.12585882765246664	-0.9568824141418062	-0.75963893798143	0.37996079912233155	-0.26719658786639	-0.014707674728110761	-0.4366355765293861	-1.1681601653973461	-0.15311278913244306	0.2399765154262436	0.39982605942340893	-0.45709701163893535	0.38041078813745327	0.3119387961231894	0.44384488347649753	-0.09283499728775202	0.23857796866395414	-0.10018801881537114	-0.13065925441595114	-0.42421512532007327	-0.47541448346761217	0.7800303112229667	0.3991698828373977	0.275782191750969	0.7497327199977477	0.3456721148032396	-0.4223999251320897	-0.010934167335708057	0.8648044485446409	-0.786370418396766	0.1871858668847252	-0.40477234698745235	0.8269700247329148	-0.37547251144575977	0.41707965369743594	0.27248362742127696	-1.3050578530888213	1.940228910984524
-0.14856169008322687	-1.2839684940277245	0.6812184286943523	0.5180107130557514	-0.06829807087050786	1.0046976231250604	-0.09774589543117643	-0.5009563084970541	0.9655024179984573	0.6244741990748399	1.723359641294317	-0.160042468737005	-0.5246108509401336	-0.8949656255980519	-0.4240193157411607	-1.2460098889921092	0.04389210288314915	-0.5802041574113138	-0.14539788372187107	0.3010783315056605	-0.6319083752120349	0.3244872543400531	0.36748536813657	-0.579944168685672	-0.7952068747291592	-0.30138906762300005	-0.4483382365989613	-0.5186847167013418	-0.21834167260782095	0.3199286470726322	-0.1863029519653039	0.03365007622509296	0.4676655445031873	-1.031026387542943	-0.20734255045831101	-0.08133887165891687	-0.11194534385239807	1.5403282852856286	0.3491260948043218	0.009503515420460577	0.11031410014864561	-0.5584330031009451	-1.0516793658541712	0.2242878452663892	-0.8147098442204208	-0.018763887906261673	0.1928555346677362	-0.46547350523692904	-0.9419662596739505	-0.8832276567543691	-0.6921554742326148	0.003927584763163457	0.0701894938389362	0.4346701405289908	-0.2593978633798519	-0.6136420870520015	0.12779371826024058	0.3577165477522446	0.36076839628618373	0.6685461423554138	0.003651824594756282	-1.0424364498328873	0.18987039983529577	1.377080009181641
0.4940316034962688	-1.038803946388371	1.4196641351681039	-0.21947451437765714	0.17211565038458151	0.12782561068481266	0.5842993620657604	-0.15458221661921215	-0.03316773891936618	-0.5442473002600622	-0.025360610664110692	-0.56850173408156	0.3048525195547255	-1.5908650934948174	-0.5658912145025548	-2.763621278809614	-0.9462401776253523	-0.05981030930505364	-1.383330140531742	-0.6340734912575522	0.6139473804902532	-1.240698167364912	-0.12126042818380178	-1.2685348006552708	-0.6572662932610313	-0.8225528397600153	1.224560986653594	-0.4079967782728777	-0.04234374356705474	0.7762230620014301	-0.1369884690873467	-0.5322730219158127	-0.6984845194471239	-1.7175990642417422	-0.7123079443949241	-0.17619123609430992	0.2206170962812469	-0.3831493331996498	0.13864095066239554	0.8382548510652448	2.160435174199544	-0.9229568610394006	-0.17224692342607192	-0.90998148080633	-1.978002780477855	1.146030955032601	-0.2088980674471019	-0.05313878568966928	0.5088208937546311	-1.9460425369079712	-0.2633470697888798	0.654435718373572	0.9848503555039785	0.43219830228110157	-0.09307232406672519	-0.588127662037114	1.0364916905511348	1.121562518103751	0.7164011695667551	-0.4821326947552576	-0.4377453616895162	0.3538452782762632	-0.15838168075730708	2.7881837350485927
1.0175690909836517	-1.6898054352262526	1.7361451150174427	1.165288035821514	-0.5518901812353901	1.123265156788172	-0.7454396148002077	-0.0619755566943193	1.317046493411415	-1.0465783272018725	0.10899092626429265	-2.3786714968584315	-1.0924998180127565	-2.7691138137453795	0.8530053716989539	-2.381028128629889	0.15872594439926868	0.3873001305578317	1.3677388531414225	-1.5781303676211371	0.5085923629837825	0.29233603381055284	0.09567430501916753	-1.8963885136790095	-0.6158348702438836	-0.5025898777154204	0.19175040715091285	0.009378780954278704	0.12460136455675261	-0.27051832357160704	0.19245774106304547	-0.7411257659815916	-0.2826387465317044	-0.6826446042748823	-0.6176923788723389	-1.3838880975180048	1.3167112850004854	-0.27367421388728624	-0.06910121290842239	0.12759288110272612	1.2668193489649444	0.9337477943387775	1.1525569695986413	0.6634796901409186	-1.1061245543279425	0.8892375723473579	0.35662313900639186	0.9289599088299285	-0.549231038557611	0.6402379522359524	-2.27998243152207	-0.4460337476899208	0.24161266705772766	0.19090151389433493	-1.3326838833559	-0.5795884911473096	0.6434092366380959	0.7502180297779515	0.27138450522152324	0.6051474179643818	-1.089962200738209	1.7070279383283542	0.11382321992103508	0.9590425460128713
0.5712011395079556	-1.0721183875441969	-0.19115664275133856	-0.12810617604600014	0.4216361177682258	-0.4987390285247527	1.0739661293408909	1.0438205437811352	-0.30427884822502715	-0.1542119400600653	-0.37040774312630914	-0.11555279712296125	0.46957086085512645	0.029097257164531737	-0.09083070039270495	-0.6192115568064451	0.5116402157078328	-0.2560441228512663	0.6299020909813431	0.6837392259643185	0.35357055158778594	0.005650905000210995	1.1179985866467332	1.0214745780780854	0.13264165844278103	0.4406558812555585	-0.8898074075456122	0.37420795780221555	-0.38289880030197887	-1.0002041228574443	0.8055530330568317	-0.44626776124888534	0.22925199343741748	0.22379889080775922	-0.042523471923706105	-0.7827088507950495	-1.0091382758762166	0.521331113978452	0.8376777911795297	0.05645641986943211	-0.817386303695597	0.663339704999273	-0.8824188899701907	1.0413531103552125	-0.5113467273818331	-1.4215168460301675	-1.1224584603149228	-0.06355562900142638	0.18030700534527996	-0.0790557311972564	0.04089185843834403	0.6112082786324926	-0.23490453936302452	0.03289689314375955	-0.5096242989274632	0.08654655858017549	0.24912978630875465	0.1672043884100906	-0.841908890951159	0.2519618093047849	-0.12389967125809634	0.8490540280045638	0.324951585370352	0.9951683832466766
-0.028857389439445276	-0.8578991549736628	0.4393467523977026	0.6614119467949139	0.01688748132694732	0.9202047162663476	0.19115621124686372	-0.039038029492315426	-0.23225673887011364	-0.8484564245568215	0.08434608156436693	-0.18110822164380636	-0.3476885023900104	0.4812813067341541	-0.16908631054139858	0.2880764204028145	0.17808761863733535	-0.6304226246697826	0.3590081552049273	0.171276645422954	-0.15707537328525825	0.10345820136440304	0.37837567385094717	-0.6731194067109681	-0.5762409995195787	0.18849793300379525	-0.10891512252532341	-1.0014082652219953	0.2318703118178065	0.3339024899393465	0.6747123268723101	-0.7249669284120477	-0.7123766263231898	0.46754301021558814	-0.10090650451770491	-0.16696355729510723	-2.098575398798104	-1.3218985253754212	0.24344002088118932	0.6643696523520942	-0.7153910849140163	0.2563053001638072	-0.9444742721902593	-0.8864194804591384	0.22996890337525547	0.4352207355390994	-0.3474275458088746	-0.6913029093742535	-0.006168275164482752	-0.39897038557018594	-1.406234898892607	0.32464988663733896	0.727241132847768	0.40043828404356463	0.26658874807351624	-0.44764041294282086	0.21833577345769656	-0.6594410888021964	0.043092275164202824	-0.5627877761393464	0.502634439493812	0.34789967986058484	-0.014366490366177717	0.2745698845792308
1.348041291293752	-0.002700664271071299	-0.19265736686052648	-0.5007241979508855	-0.4839034580174918	-0.054318395727843784	0.2186840224478545	-0.0027883132962790843	0.14196205842042292	0.10537807674653597	-0.9930209250203548	-0.27910697539330326	-0.03514807537873279	0.48298639118458525	-0.02431876321138473	0.003634461700065938	0.07033473331990864	-1.098718394087529	-0.4724520431835003	-0.9552352578006921	0.422757843811383	-0.47753870676118654	1.1057859213631684	-0.010302600184734003	1.004105034335467	-0.09775627202031277	-0.3568889122400009	-0.05681682315623303	0.047253735567857016	0.4279051912290053	-1.1520832335218005	-0.21979232980375352	0.5315888405525985	0.6781059044336308	-0.5353891095372615	-0.8038301881001323	-1.1686309082331323	-1.2684191478816496	0.6504561379508775	-1.5064136559698948	0.01820259484741844	-1.9193253383272078	-0.5944795601756988	-0.25621641492475683	-0.6999471507646142	0.5886454791012272	0.15845495439593055	0.3142330186035935	-0.8285105290610187	0.4309878221411384	-0.06112879089348948	-1.2660585919462777	-0.47463593853232555	-0.6599999320266396	1.421086216745894	0.33006028246090097	0.7685164657152188	-1.369365016106299	0.19817385531111018	0.546242812736371	-0.5895857615554699	-0.34631977433888633	0.4075738521270417	0.06952946945066713
1.6646610010886993	0.3152594573255842	0.08776725034634113	1.362423106617562	-0.010816139747191707	0.31117205452229024	-0.08026661654936773	-0.04250521179456515	-0.12512574112096359	-1.01236060912067	-0.18488395847713884	-0.323607087312158	-0.23909338895812993	0.251270852124056	-0.018489526437666225	0.4934551385818089	-0.3445379355019169	-0.10144243809793066	-1.2277346731140637	0.48963453236894205	0.06956254025990759	-0.08565626731275514	0.4484722270359059	-0.35339024970449634	0.41860176758103795	1.3896922237167455	-0.8111797773659789	-1.0226912964093604	-0.8799605944382892	0.37333078938147146	0.2762786592517061	1.9260020208267972	-0.23041134306261682	0.12699205907186453	-1.0928937491402535	0.2164526070470118	-0.647852229714294	0.4195777892040528	0.6116632360061072	-0.3549417527373529	0.2897937650784992	-0.3995799003634156	-1.2765860792665464	0.905489242373062	-0.19741380280874335	0.7346767861537321	-0.16688040633125611	-0.19266316333828803	-0.16443472077198978	0.5289389132076242	0.6727381793371527	-0.4150227013368807	0.7497429517646035	-1.0754558768987443	0.10246640777848821	0.0903685697358995	0.37159577591672366	0.9015361553125363	1.0785968435069706	0.7917711489322394	0.07756652828581591	1.657040018562089	0.5796877603755977	0.04073645302839178
0.7846309088235183	-1.6717802618276532	-0.10037752137191402	-0.7109934976905552	0.05263507704189662	-0.2490963725376707	0.1821120817814162	0.5855711391812279	-1.0133890313037037	1.4053904437242952	-1.2890202249172937	-1.3118416354249114	1.0592247732959912	-0.8902067526643246	0.09821348966275294	0.48757316177378235	-0.899646026180497	-0.5835983075154993	0.0804360098970484	1.0777739226016803	-0.12222883940221571	-0.36272497378800644	1.2315938719135204	-0.569634943001237	-1.613654822180416	0.9135333051740077	-0.671240542209262	-0.5127530712057532	-0.45711838009152167	-0.05402846435886515	-0.4188705462095272	0.369390791921895	2.334751161341823	0.3538108493724058	0.34405549912938727	-0.24812132800751166	-0.2806844586236094	0.6072530366974391	-1.0026879697619968	-0.02117304036078104	-0.12058646784363193	0.6911529444627842	0.5177729914816834	0.18559826962890663	-2.013594023304219	-1.0320163888949851	-0.40222482764593404	-1.2773016184236177	1.0173042029051012	0.36530759240723065	0.3464528105862517	0.8655918003892888	0.10364968751966802	-0.9225687147945214	0.38675924954190044	-0.4026848335714559	-1.250075260029489	-0.4633693185679504	-0.03197409133724376	0.17458916456557844	-0.9108063341420394	0.9982217614662434	0.6208014842761929	0.22130905044787388
-0.9578871357268748	-0.7631639792233188	0.6780336421653675	-0.416696380994827	0.6967645027771048	0.8447379548427586	0.13500758888619016	0.06718033668277053	0.6701919502997288	-1.641485318165863	0.004216143229709445	-0.3303881241528337	-0.5584810475512559	-1.1190550879699073	-0.33063658394543904	1.1502989808105266	0.5374819508885416	-0.1668693835669388	-0.8532344830064185	-0.15817360415944035	0.029818381320875706	-0.7651963473868544	-0.33988699119007537	0.11220198166349431	1.0163651487948855	2.3825714218650256	-0.7289766024716611	0.08819106540326703	-0.5444439376162229	-0.4264695371747012	-0.5229398700965014	0.037448372645539414	0.872810843553952	0.8261001612953707	-0.5383693259302087	-2.06697024943511	0.943336091585182	-0.6590078737374687	0.6625336502833812	-0.779415892137219	1.2537678646104755	0.023776699416037467	-0.6720313319561423	0.012652041013929829	-0.09820091916778984	-0.04409861538651349	-0.8587350339227082	-0.7756660226425323	2.0565348936383043	-0.45474983232227295	0.3104600809214096	0.1816466134612033	-0.829123175027302	-1.0887337664341588	-0.2773196681577597	-0.4102958672548921	1.1348970192597032	-1.0530841478481023	1.9787805175791608	-0.5900544280915262	0.576729684536504	-0.5234035049203742	-0.0296100817344277	0.39295644252887557
0.48913982849056886	0.9747513810709307	0.46481015453086677	-1.3513995982128209	1.205798126203741	0.5387391429082746	-0.22244813436431504	-0.5512603718058584	1.0616615765876698	0.17891207758406977	-0.8746923033239218	-0.3975964687472353	-0.6197049842078061	-0.5112713037274681	0.9392868166391359	-0.12662339074735587	0.22877979057108097	0.11153497371205409	0.07627421815806142	-0.6402551036581988	-0.47674113701404697	0.32864740756443217	0.41888794356141945	0.9323787111165455	0.3973376551753024	0.033651724057069426	-0.09990962413609912	0.06271644780393817	0.4648764049371399	-0.6620371028510066	-1.4917991136618862	-0.5658955246688993	-0.8677960228372471	-0.8015067703949705	1.9437010711894998	0.22636372597090784	-1.7222064844023353	-0.22684284781920835	-0.5259904479146401	-0.12191031003078967	-0.335313800331977	-0.47670937110344647	-0.9855894739158778	0.2778459308704611	-0.4019355754197089	-0.19251470107721547	1.187594944677703	0.1421725969545732	2.066696883282473	0.1980870848519128	-1.2447595954882311	1.0369646064598323	0.18732425983324688	0.6711267987225052	0.7367496115798317	0.6439097469317537	-0.5776275371428864	-0.5985531004320577	0.9328232206207987	-0.551506601315014	0.07494044516873764	0.447736940621904	-0.09815823071001342	0.4504448674271823
1.6428848887334677	-0.35309892026298195	-0.28053616618916427	0.41395355785642707	1.312384276198418	1.161583300655905	-0.2643839757273287	-0.3809802589144289	-0.20732969092650624	-0.3492334369516684	0.8259756907787292	-0.6390046588235117	-0.19264070910149303	-0.6170204019106104	-1.9176441661219734	0.15399046360209243	-0.3507905931436801	-0.16248948034740499	0.8883794201760327	-0.09519029366235669	0.6515398879832134	-1.2048730185250383	-0.12068149124267036	-0.6992354839514723	0.568286010471117	0.3957880644868661	-0.6886539781395059	0.08675470948382565	-0.07572743367108703	-0.6380391683631769	0.8518675814369465	-2.2030967372044437	1.3526906799859693	0.06859669130805016	0.6462652219910755	0.9295721702500275	0.750346833666721	0.19004139528241742	-0.5933385910085993	-1.294695649282969	-0.7691261671441023	1.1318825543107258	-1.074276224474226	0.39956910448588356	0.33073162974128784	-0.7553760890333062	0.16234686740586432	-0.7371516901142172	-0.9758475535243482	-0.8308264536970739	-0.2127354243700479	-0.5905503008230318	1.6763709196889742	0.4282958759541381	-0.10399634140861867	-0.2834188306963082	-0.17673505170350756	-0.3645883632037731	-0.4808123778879783	-0.6871656765471019	0.8628578530126684	0.7640474781880712	-0.533594065833336	0.697868636087363
1.2214309043609362	0.25848921419281673	-0.9185544073244879	1.2527066967630052	1.183903658138475	-0.07201237622837842	0.33373515098789663	0.36673628706487565	0.7193182014135558	0.2853818169667406	0.14002273531946824	-1.0383335171651753	2.08281863067532	-0.13316557673330312	0.12542143363328137	-0.05861097537931945	-0.655533143811462	0.20033744717845614	1.1897081531066966	0.9182350303626646	-1.7244004964481143	0.9276349547437635	-0.3142392076822077	0.2286197722776161	-0.32686110141694	1.2018579361841257	0.2533090663838082	0.15441183407463327	-0.7986420395091698	0.7332347866860792	-0.29540579236022996	0.48256870634602633	-1.37468682231949	0.4138693815334354	0.9549783031948352	-0.4983569636855904	0.16147492670598498	-0.1211593432299023	0.698915762727938	-0.10501922157977273	0.8594439143786948	1.0992359663502902	1.368521839911195	0.5625902610898839	0.4556946291241148	-0.05200800617896301	-0.4313024138090782	-1.0638981843540438	0.5366982258350066	0.49840169767235387	-1.9392031642434497	0.12352772522471449	-0.8042176766416105	-0.9760882468721862	0.7510244622521051	0.1382082010146729	0.16618990827227945	-0.6074137681580677	-0.1213381494196384	-0.1405872431271367	-0.04949971271984838	-0.22155279477617537	-0.3710017543478185	0.6868189034698602
0.12507978310783097	0.3154843559631785	-0.08568497718114218	-0.9030857087535179	1.3646863938301241	-0.9346366674835804	-0.8978256332125774	-0.6032825860315134	0.9212326628461018	0.5503088789725313	0.0063805330602848525	-0.6658646595263958	-0.024192596218493886	-0.123649727497558	0.08192566148305941	-0.20388383832228685	-0.07357896349527596	-0.41831327655131956	-0.21082624587078957	0.6918223889886792	1.1145648641529748	-0.3682473923631756	-0.4638538574631507	0.5282113203051757	-0.6126679422066245	0.6439340174914008	-0.1602657629967582	-1.4617932605778876	0.31922450057850815	1.0352927451030385	0.10803982378746875	-0.15267806048025628	1.9418949226814421	0.8447525535721698	0.23085935068024688	-0.6120909203913502	-1.4530321716558834	-0.46479863343413214	0.018456359929856937	1.0369872158894964	-0.6634376135770879	0.8557230765971772	-1.5847115990686076	1.1263472024870433	1.0837108342951587	-0.6435995183679893	-0.4750691593808734	1.0911887381274614	-0.5094786208745403	-0.5002606386627965	-0.011211678768467938	1.2768617346531381	-0.6891086499175869	0.00865987757947397	0.09059582988065122	-0.48637560754642345	0.33369731213188597	-0.08162300226788402	-0.393966545244415	1.534277508951234	-0.8203048428569817	0.8260731487041493	-0.503436373164913	-0.24574249927897004
1.7640051837302049	0.7048521525982767	0.14506604439937676	-1.3711886883934665	0.1010743074136026	0.7850314415491229	-0.6950959784585036	-0.20346746922611833	0.6906303691261452	-1.0735981538394987	0.2962095166342703	1.1577819643244285	0.7645340003009864	-0.38024571233114424	0.7932581440405612	0.29072501931739436	0.42542362952716745	1.5178252634549418	1.767618885707644	0.5012173099917455	-0.6322359265752728	-0.22208389752487656	0.495722494742759	0.4457517459170333	-1.1849603822083787	0.6790257878158438	1.2152834694908785	-0.5770519806010632	-0.39401174402980715	-1.651096132798308	0.3433363275179445	-1.605009286715332	0.5587970545219921	-0.2657582855941005	-0.5155684514336051	0.19299484219962532	-0.3381749165390619	0.8248099674479422	-0.6645446564835908	1.0427434358124303	-0.6896340334606095	-2.1885651143862725	-1.2440489913672896	0.8101566980484366	0.16867847951834322	0.3047382119891792	0.8756832460068813	0.6011033028788036	-0.05276067598359003	0.08579234450231545	-0.1379638009838486	0.11818102760063005	0.9381819049415786	0.7007574044270704	-0.2218415789252893	1.3365262278290833	-0.52868102740116	-1.0493675523921926	-0.25100922931450104	0.5680397833958751	1.8642071772441275	-0.013206121670849487	-0.40995462130553617	-0.5737698694233128
0.8332606283612446	-1.2920392362391435	0.5010571957362632	-1.2559317870288316	0.5922088705331942	0.12692370548336324	-0.6988139681328808	1.1279602504307389	-0.5777921045409488	0.18273390054188546	-0.11986153724825738	-0.49277980715381875	-0.30447937509071554	0.4221215210916677	0.8601200433620928	0.4554112025732973	-1.2092075848953832	0.5530854733087861	-0.7333500985173578	0.17825356706559847	-0.5763547902531186	0.3856148777208129	0.6868360758479963	0.38509261893901187	0.20107708231317642	0.8955654077799827	0.7663929149659282	-0.9405049181099396	-0.9208488947745918	-0.3818152352745983	-0.05512650679759927	0.49547699821110136	-0.44298768052427906	2.3628569925547405	0.7120195787056461	-2.095890283145475	0.10703926893275052	-0.1876545689481098	-1.6445316900205087	-0.18631741825451312	1.7628490877872272	-0.019397035459303248	-1.784070355715975	0.4774095426503605	0.13119057916096602	1.2491652986410886	-1.8488991400780537	0.7599832526087075	-0.88210961013593	0.2696728612514948	0.7423955608677898	-0.3630336647774228	1.6020173398244824	0.5135128376993175	0.4442225114356494	-1.3432377243259903	-0.8080891600076918	-0.1992048167843363	1.4997928112328296	-0.35348135604512226	1.0549652445396298	-0.6848793579143047	-0.299508765876735	0.3827714298950049
-0.39291551564013855	-0.7778607213317635	0.07897418822258448	-0.4280837997354647	0.8846192217385636	-0.8993492777795382	-0.3465999493051279	-1.815975410400236	0.37421187773822645	-1.4487780821883798	-1.4586140564297552	0.041423945779174236	0.17487568681066276	0.05915923900285556	0.40867109244834693	0.8767404747374549	0.5160372547402832	0.3828939420559388	0.04145749734472202	0.7761904180502589	-0.9010566239809261	0.8068291085718327	1.0009730917671218	0.481813900247914	-0.6957819116636267	0.6099907278487456	-0.7838608324711202	-0.01368852066270045	-0.7727561605879479	0.3442965615022422	-1.4299437049611075	-1.105917975153362	-1.5248787649325284	-1.6062356677955885	0.9513153265986751	-0.3311156807533784	-0.5394809900819985	1.2749981641310828	0.1484382669285344	0.2427237695020543	1.7750382856398685	1.821475879787071	-0.4534474369136604	1.2827304864189457	1.366506597310978	-0.254495415265221	0.2058056809081314	-0.5799401842839009	0.003574549685286687	-0.32977243425050395	-0.24338796411423563	-0.4784894390048924	1.547696887832147	0.16882908941792932	1.1940705696453295	1.4365101087818426	1.7373213281221436	-0.580842237264411	-1.53792099279982	0.20353499610847992	-1.1242085491262799	-0.9724256103484109	-0.44530628083469864	0.5607044956190944
0.48256154713839444	-0.6498623922463519	-0.4662468463989596	0.07697602171054664	2.099606724750609	0.7684470278633024	-0.9596942359319319	1.2692149608955083	0.8590261634204059	0.38027560242142683	-0.17372735365729422	1.6861548534199748	-0.8361438028197198	0.3079577611218019	1.1948621148975653	1.0513644754220681	0.9380246892954602	-0.10595099112748453	0.2939529649902501	-0.4592301983241892	1.2024971665903228	0.03488808200305015	-0.749691422927639	0.10943762067210505	-0.7102332440233583	-0.02534356083322176	-0.058672425233210264	-1.512999295095162	-0.2054502669075865	1.6766704424929657	0.24994159757051795	-0.3911279837237708	0.8270991288636426	0.2763363877463197	-0.17433696345523497	-1.0188431773698823	0.15698937837562932	-0.29488930854630463	0.9058770253292011	1.220533272393916	-1.199022663640606	0.18418064552233673	0.22928303380192114	0.12888426195044989	0.4219115510227978	0.24678836662143605	0.23110684650880467	-0.8198893721556271	-1.7342918319827996	-0.6377400872710979	-0.3622539482495243	0.9619471342855263	-1.0802653976269323	-0.1624216946425652	-0.21834200860164346	-0.4789863080016947	-0.3316391091238855	0.271603467579842	-1.5868599777999808	0.9793267165732361	-0.4369236463202148	1.0574487592294393	0.04025873024684456	-0.33084812300014343
1.2578152031865153	0.07753696273505026	0.23223450691620762	0.1618123388062443	-0.04284979255304286	-0.8686486766701513	1.4758400840419448	0.01912489264159895	-0.7752818901000448	0.9184737382127379	-0.5187047732053882	0.9267510521695839	-0.7264293809182181	-0.6110342843523179	0.6495587310907759	1.0103227687863356	0.9401793490896193	-1.5653155841538484	0.14960273373770225	-0.22869441189738357	-1.354292219380157	0.058477252796235286	-1.1416804210447298	-1.5030911869772134	-0.38606944512484936	-0.14251252236485093	-1.1443255228991065	-0.30933186992551953	-0.39559129020050154	0.1967558879617854	0.8585664267131011	-0.7672072182567479	-0.368798714252123	0.03779699511869399	-0.19769889129212892	-2.766537173733503	-0.11075262252492887	-0.9596842458771756	-0.9055964519612936	-0.9454032171035169	0.24902228541732369	-0.170812519821289	1.1408412512430188	2.9871624400221863	0.11821157699839831	0.3719652357369326	0.6608579664711218	-0.12909180940461104	0.30603372947689467	-0.15359632797982553	-1.471583060529302	-0.16859310091622454	-0.6095971611882487	0.4768547361197985	0.04243309618116	1.1833524060461271	0.1073466973724002	-0.42552740135108386	0.1918863752276922	0.8860646053482084	0.041569285283829964	-0.5008914857230671	0.08890222108928814	-1.1479656182208207
0.976547255279545	0.4158778826531289	1.016146974758512	-0.07651653884824851	-0.6689661033281599	0.29951453131237893	-0.19036494249403418	-0.522053390359648	-0.3189335068432061	0.9607928818954767	0.1690561232197421	1.3763078259185757	-0.10053196158138937	-1.717321956813002	0.2028860692984296	-0.7905962352734592	-0.5374910451000229	-0.7869688197411164	0.4779419063420861	0.8809407544736954	1.7708755538094931	-0.4649935961987893	-1.5585334541891704	0.7972955711379976	-0.6739537069641036	0.7103585096665266	0.12133071077885707	0.3040186090021917	0.3758854023009728	-1.4568778097171198	-0.2265527848010091	0.1564811146884592	-1.0954552528141779	0.3140113830520913	-0.16606231300662863	-1.258319359184676	-0.34761628690309015	-0.20192255706386886	-0.14248421638084033	-0.42423706996624333	0.6742740888782908	-1.228385062819632	-1.2116202109454306	0.861292593651424	-0.5765952688243168	0.6420593339622523	0.3633443623538234	-0.22616231256179561	-0.2791717232537882	0.7257479676567699	0.43640776861372704	0.945841610352603	1.6340506161879496	-0.5566219685529601	0.7543613440085252	-0.095783218343373	2.157863933969504	-1.1251400470404813	0.5356147140697756	-1.4296601422712931	-1.8026553876509048	-0.9038654159255701	-0.1460429744281525	-1.2135698089070668
-0.4105271897345101	0.8990343572566786	-0.4702733543784931	0.6175626737501739	0.5961936448169683	-1.3081780255635336	-0.23240851471059157	-1.2948785381064503	-0.9938939913357332	-1.7274076218484529	2.3097778198010217	-0.35165976928707954	0.5045429714397841	0.024356875401424987	-1.0964098862160678	0.38789403143833406	-0.286375822864719	-0.9440401609556751	-1.019372300794921	0.6020075654266636	0.5185411628283868	1.1450889292426722	1.298598091857971	-0.8060345580522063	-1.795328566714599	-1.412184171737533	0.1772004023381787	-0.9419328421958997	-1.5004521988425386	-1.1337549710841612	-1.5201626252973268	-0.22774803676203578	-0.3329153776887068	-0.6577911447213074	0.6664154339946543	-0.6932717322028985	-0.3984420499307035	-0.5678237823089921	0.3523355707946569	-0.22990168885685267	-0.13058694851992325	1.624689710613889	-1.0841662287495277	-1.6007198384966173	0.35872187927267785	1.6977558335803604	-1.0706557226059659	0.2937785125487639	2.513187630843367	-0.8185506101168699	-0.17713605883266215	0.3664307432581389	0.25698497026542955	0.5782498173796794	-1.2265055592389111	-0.11070658331630152	-1.8555895108830747	-0.5174534363176773	-1.0215780820238758	2.3130282099021597	0.6626879583780687	0.3070805549835796	-1.1940289520387586	1.4701490903006245
1.524708372781634	-0.50469376043976	0.7937706663610847	0.28727800502929474	-0.36675063003966574	-0.9909562923411053	-0.3746040002215211	2.2442088143272945	2.4337471731609526	-1.059386874878257	-1.6429051329522502	-1.2974754305389662	1.4560537382145595	0.5604174642267907	-1.8725968253151708	0.3063886518185238	1.0353018599718808	1.0318464032413823	-1.5538693830069399	2.3485811476717493	0.34912438843635724	0.9523513725312388	-0.8136272089665889	-1.5375411226663904	0.3550077257788156	-0.0786135050839571	-0.5463317973571412	0.04680513448224686	0.3431591211791928	0.028622775412937125	-0.9030884317765387	-0.4031721299693383	-1.031616318285744	0.6023615386920529	1.2100055375584415	0.10506347436217865	0.17755072423731044	0.6598144128645921	0.7910709918131874	-1.4342340088126342	1.3223756569137373	-1.7904425923963418	-0.7308962749176775	-0.786353493477019	-0.18859535527542912	-0.05396112021588511	-0.32983370794396105	0.37291484294964894	-0.022300615318853186	1.3563994967869906	0.6451224514383165	0.37430704470731624	-1.1275370429203437	0.7574738764996992	0.3231978532576516	0.01753165014356839	-0.2229856725426877	-0.14529230856349826	0.3578802037934952	2.252675735037163	0.7999467497579447	0.2311442212245833	-0.6227347010310879	0.7347231495615614
0.5261003557514005	-0.8739721010476977	0.34845808638254067	-0.8294143190353698	0.578688133659815	0.40059290222801486	-0.0001681935732600087	-0.487347715888652	-0.4336437343554346	-0.76150558230837	1.7422016138903955	-0.08216457267188178	-1.1483528343458254	0.6676591647833339	0.8874140997914152	0.040918186049548756	0.4666947794461993	1.184944067633168	1.157009336861568	0.7958042547093312	-0.1948390454966954	0.2910656762145057	-0.46078264302488847	1.6110350882922841	-1.5988462900815703	-0.7403297603991531	-0.7965878251656235	0.5636083460840312	-0.534014672935572	0.9494423225500628	-0.5283160751494291	-0.5404094286474609	-0.12337810148171331	0.4452313938984491	0.44345596254289493	0.0752978510144966	0.30117205951660875	-0.9229916400438726	0.5504521997557659	0.3731112920454652	-0.7147242454780071	-0.108359199797251	-0.5552115122245868	-0.8715822327490343	-0.8672035228241328	0.1401676817117533	-0.8038531546401126	-0.18894870350007398	-1.0855706477041238	0.15148613529757002	0.4685292775258814	-0.14705190024191886	-1.2634865571943905	0.04728253079188556	-1.371760563838838	0.8915144043585378	1.1362612402327403	-0.7065453270925277	0.28234498546314785	1.2253743654272653	-0.06275002770190555	0.3880414235333824	0.1618029711516949	-1.3718999765520439
0.3703629979206643	1.076847744360397	0.7435120350210809	0.08464054124393532	-0.5034876136181672	-0.6744468196281724	-0.6114923744337181	-0.5378065852482184	0.6488824002851961	1.2556435646167006	0.36955726101436565	0.5742369032796824	1.0846428607402245	-1.402391190395404	-0.5676590001593873	-0.508957070946631	-0.5666598469051387	-1.5884770178292804	1.8239023757802824	0.7726568861763544	-2.2916297679153126	0.04472907486128235	-0.22039380761825358	0.46536146340150525	0.15346762796179306	2.0893250183828838	0.6891062531263935	-0.49116899670331843	0.3050708366120732	-0.7567519977339947	-0.11103485507757141	0.06807780473927874	0.20307354542993622	-0.21063374813632316	-1.1574919273007689	-0.4225282316067014	-0.4166760298650638	-0.45540920195536955	-0.042633603135049644	0.4326929205357408	2.7200655129550015	0.0008697660633092156	0.640335630721911	0.6115409732695888	-0.8790025561223891	0.6412256436521008	-1.771628430556266	-0.3856722625492161	0.06527632652299871	1.4154255003542133	-1.0596030907120615	-0.5413964846575049	0.0993260456531292	-1.2360675500767697	0.5902656898239833	0.9087331146367087	0.22552042724732163	0.3045770391580113	-0.9441953457378389	0.13275848716355054	0.21500107088351625	-0.2862435940684378	-0.7029664515312959	-0.18184463151472877
0.6871009925127486	0.9705167503288412	-0.2023673125874519	0.6020156013430871	-0.5808452459211183	1.2578062437364774	-0.674506126619427	1.3995345764201743	-0.7321514864276928	-0.24211250642230223	0.5567574507489854	-0.16775173853027275	0.09481500105371972	0.12131240167326353	-0.6530032284232742	1.6145798220358498	1.0604438542189525	1.132353688268007	0.1462137567784824	-1.056531466986752	-1.2045301615363824	0.20101170402335006	0.3467723177483243	-0.5532855446746318	-0.4511713741917894	0.8833408903576864	-1.4963153114466587	-0.6766880684429473	-1.5977859163033237	0.5477524242669555	0.17829618377142253	1.2508038019035215	0.3416696226104316	1.0180597793615753	0.3946670166338369	-0.35255483106520125	-0.4971283001834629	-1.1956464439804597	0.15343210379831584	-1.1049607228260685	1.387031103275974	-0.8865055607489165	-1.7927639288989647	-0.5910542815803801	0.14637056526719383	0.7056146834424215	0.4040537706830395	1.3248772884524098	0.3411933218472385	0.663851816426672	-0.38539287856750465	1.9159513215924366	-0.8430530396872501	0.9684836488596265	-1.1049391362495207	0.7015205464815035	-0.21354013939129873	1.0195658122317846	-0.4236345611397568	-0.5338045167644424	-1.330940026881618	-1.200733870268995	1.9026172367462857	0.8395611130444426
-0.6016752702269615	0.19500759811920818	0.7759918549374027	1.4464689308032737	-0.7607185313127645	-0.5680159244144716	1.1742635063137026	0.7408256962558044	0.2852716029894437	1.208274171902991	0.1092149042583863	-1.9655194242406981	-1.000269636444517	1.624581990486982	-1.4804355788964607	0.31743389580867315	1.8356249331985914	-0.8926916597898009	-1.482113283031831	-0.047725537963849866	0.8399098937405285	0.8804255220536944	0.025149578253098073	0.7170203813923137	1.3848569353402775	1.3941698136581189	1.6403358020195258	0.3943886401323678	0.6358033406991639	0.0278191854765031	-1.538533710765719	0.22258832814850443	0.9933492294152828	1.564699321964619	-0.3359961364499796	0.0540289010323916	0.5268549355843399	-0.21941780491111074	-0.6097733615677555	-1.312726877984171	1.620643723143232	-0.4464501407960603	-1.2716811906916718	0.2777666688195193	-0.9613194730177955	0.7244206075470698	-0.32148899163306655	0.8514082512327771	-0.03623486812682794	1.6637332113674226	-1.6349793256683438	0.24824380735029597	0.33211759888837106	-0.9916230726433194	0.04782433447832999	-0.4064342179530855	1.8492371447150944	0.48149372530085843	-0.3740774402571285	0.09690383737858929	0.518383987206771	-0.14986926034605652	-1.3819231010570914	0.14714829235595747
-0.1754104361717846	1.5809644995254262	0.33486927493964974	-0.7259017813465823	2.5469419233133266	0.08665671074752995	-0.6505682540533136	-0.1880943493908434	0.267600445557973	-1.2995216726994196	-0.9226870395081874	-0.8993138097483708	0.9828160757863986	-0.2481783573819781	0.43616414356178745	0.35379131771872024	0.8336895938338986	0.7270299705745001	0.9679306011940769	-1.309277773815582	-0.7712336243057397	-1.2353640672733779	-0.07707751103802488	-0.2567436970039284	0.43437569123751296	-0.5879379760124451	-0.23816316681177727	0.5062824406634991	-0.44797586923152155	0.12899058039921588	-0.5445830819859969	-1.2995610617680131	-0.9751385589498369	-0.04782040222443728	1.4024361684879771	-1.0313062528457109	-1.0640995946793805	0.6086443659547748	-1.0742436084989253	-0.4467627743637378	-1.9539864908421887	0.37436906486920485	0.6259308400433707	1.1334722987196204	-2.3685768079568	0.5450500936374099	-0.14763683509927586	0.3408949255138206	-0.110857433694079	-0.024494263390353967	-1.3529645583134247	0.8580123019945681	1.1117472583211625	0.4545414095631027	1.5454838461423628	-1.265153230005919	0.15597550001750896	0.821731366545099	0.2299729395691087	0.13589549258972583	0.257512627909484	-0.7447708356260324	-0.8669661777532726	-0.25615543777999855
0.9226663440910569	1.4955011196093804	0.12356514391671944	-0.39687975275126613	-0.30599436474718367	0.26846918024456373	-1.55300631905156	0.7614375340958572	1.0173019421583023	1.5083770971034882	-0.8580522311108457	1.7273854172063514	0.34578973111574873	-0.2414834733819519	-0.7416585455374662	0.026671766420099798	0.2931157738526284	-0.9714959045587191	-0.5921575773961738	0.6749698294773437	-0.003906578021208209	-1.1533297182997595	0.41994883905213326	-0.40498421901592563	-0.4723766716677687	1.1926175286819796	0.5933882099960117	-1.087052010916678	-0.43244569268774785	-0.0680553763995977	-0.4692771306986522	-0.5352214520119205	0.6998856789832871	-0.028935127976130137	-1.2201173592761414	-0.32255432342984375	0.1121963851430529	-1.084649683053325	1.3985194107883239	1.4651325737230894	0.09039450194045275	-0.0969472788546244	-1.798468190696983	0.6178178547316069	0.07572847566412905	-0.08136278276137514	-0.1809577413821012	-2.1758605613203343	1.0866943202624881	0.6047999188253788	0.49772191819962	0.4193246460691455	-0.35045996392517437	-0.1764235202269794	0.3002964825519829	-0.11414999711795018	1.2938249578044818	1.128483684194773	-0.23630185147060817	1.0118261288336328	-1.1520503080656894	0.02873808248109602	-1.133342666211458	0.20807243322707467
0.48896307496813296	0.6108033714529247	0.8006041100227301	0.5496129331784715	-0.14485432290642333	-0.6561588986716032	-0.504002684627703	0.1461283702735102	0.132181538747509	0.32734576601229676	-0.5022022392904183	-0.4833559814823409	0.5825240862776291	-2.161178182762981	0.2658212821266863	1.0617878478492921	-0.4090130917703507	-0.28217531506383253	1.6364814301698858	1.2884493767018825	-0.6408105281830508	0.8199125881950121	-0.694860352441898	1.115192140702486	-0.14387383164447254	1.5450039122706303	0.045656392122819585	0.05434819889664355	0.027138962573054884	-0.1502762052396849	-0.01926340684592945	0.5177105011767902	-0.5635617627847535	-0.21404857110238457	0.33773820373690805	0.15952361619907385	0.8288267598137466	-1.831010487218906	0.1221206839520111	0.8091286883080372	0.3719723701881302	0.6116825543914604	0.6313223543599786	0.8110218874130524	-0.9142029391216306	0.5547144132068216	-0.19556549760878622	-1.754492055532833	0.1037596741459701	2.6133759042050912	-1.9926155377442638	-1.1028997576487045	1.1218098754727084	0.1890056865460996	0.08410187328695846	-0.22852064945782372	-1.5146055119316457	-0.15098173528704995	0.23949101851595114	0.4969239247470008	0.8321713815573726	-0.1979479843950133	1.271967639322047	1.5073724696141497
0.5264672540187317	-0.522119292680251	-1.2828842171610417	-0.40278098395546885	-2.326727854026008	-1.5963306040426104	0.35789561487895505	0.23370513099383525	1.3662792480929837	0.8981829429610788	2.083202942586439	1.1339965711358795	1.2862984650246934	0.05115010382734189	1.9069318066373098	-0.5974216592721223	1.1629247480314162	0.2816567448460963	-0.5440257788596876	0.9052912139284042	-0.33810811639315946	-0.5132030841403686	-1.6090316496405037	-1.390198985723506	2.270117783118726	2.229429253640135	1.9410647340935134	2.3779845706089446	0.2822965773303132	0.465490299129704	-0.6779371056594404	-0.21097129658783048	-0.7082543164379599	-0.5039072052139388	0.3162791235280055	-0.15219362762618605	-0.7494492772384251	-1.8822112220323577	-2.07032546106982	-1.920609544819597	-0.3405552579461883	0.8780895420648712	-0.15783917598702207	-2.069176991863721	0.3833374899193538	2.328700575001897	-0.33045980048264606	1.6585971406737556	-0.17865346519042644	-0.8774567460843624	-1.7994939649517803	0.6708647930048841	0.9345673646152921	-1.0762494069721729	1.2918137838264871	-0.21389508861749826	-1.5623345152713972	-0.06005626292112968	-0.05194184603891977	0.03343464181801866	-1.633739121530949	0.1184366043996442	-0.6291126067356606	1.3132039077822506
0.05703591071424148	-1.1569323625832932	0.4256342714823413	-0.539110018642025	-0.5490126994486559	0.6426206442749589	0.5765565401528376	0.949089430791616	0.8079208540726485	0.5683712581678735	1.4173989993283929	0.3938814519288876	-0.899163358720101	-0.029824242810424097	-0.8102145631296014	-0.5716805250902122	-0.14933848121475876	-1.188879096522612	0.70341960097382	-0.08308676520885186	-0.01657608848251664	-0.3821114406782028	0.46001418003762534	-0.9338050340080266	-2.33760045174447	0.774555693074554	-0.4132694957828765	-0.6392298405397012	0.22266148033463115	0.8327011374324947	0.3559453528118644	0.1687732061227132	0.7935201839214167	-0.5540681949597864	1.18674913610049	1.6078758822645192	-1.0316902238227468	-1.8642406153529338	0.682386671451552	-1.5361746347104814	0.7027805480526977	0.17990332114013485	-0.7791645210071179	-0.2493676720990374	-0.5594806738685559	-0.5978366071688803	-1.8633626564461803	-0.9215705750490656	0.15483957445341986	0.4625430596441864	-0.2805578731384418	-0.3441953412878312	-0.009179333486477448	1.6943823271826042	0.42721387083187284	0.5180160386125537	-0.4292427444114349	-0.17205273849008393	0.7621148533387807	0.30751254541629	0.6498725823897505	-0.36950782211167693	0.6520903816163139	-0.6122331215640955
0.9804708610169874	0.7371898732186518	2.230390822880422	0.34984973774166983	-0.14349048656279553	0.09575570596323481	1.5476318267263645	-1.078708948809226	-1.4852164735074986	-1.6092575493803032	0.11676876777768443	1.4963267147905648	1.4254749494796926	-0.9384750394833181	-1.2546376580120846	-0.22092866810029022	0.894224409210407	0.9067268510354024	0.2214739785686838	0.5244842231638994	-0.4350752559996235	0.567076593114977	-0.9503673329266504	-0.05850875748694911	0.09945624658167251	1.322649699500448	-0.45649530642823416	-0.2570045504643859	2.0602339253589017	-0.3196085056827387	-1.1160159930400877	-1.0211473952116215	1.0596867995001669	0.3712095336297985	0.2653595011974339	-0.5016856300532702	-1.2918113321089941	1.3278928146521962	0.7153882666961122	0.8413917810647353	-2.2403707229588026	-0.03106752463163826	0.3718006562699296	0.35807011415175727	1.241706599303771	2.024029219494363	-1.510143886747521	-1.423452544622297	0.12301937951580462	3.052492064873516	0.5520237933124851	-0.7806107623417504	0.027385757421334006	0.12682571788372154	-0.32838868540799443	1.0520671079301023	1.2416590162244023	0.4478588055395116	2.2212808370074684	-0.3660747955284962	0.4605639517417246	0.188847464445978	2.4152026965075777	0.6637089268288974
-0.5482690913696278	-1.2718875651760064	-0.37128643313333826	0.09504414171543296	2.2273356268050484	-0.35087575185966846	1.1126019051300136	-0.8029275942549616	-0.41588395572068876	0.1237520206769526	-2.1931220526838886	1.2598186779928364	0.4048235208500085	-0.5785534132720043	0.2950359173339962	3.298563143044912	-0.1269436223952387	0.08652026704498897	0.8335667775417611	-1.1610435111380493	0.12399408764140724	0.44734496566001986	0.6048348991120862	0.18328357814087187	-0.3586662827142365	-0.7557619202301078	-0.40271153089247336	0.39742329929911957	-0.22565846981564522	0.12732053497649795	1.0124638526054144	-1.4170154849463412	-2.6668032110490807	-1.781958789240259	0.8631029277144172	0.1590237324514629	-0.1371704008339665	-1.0465827237450651	-0.33949532187620934	0.09730507413819946	2.214333213073942	1.9138507336948554	-0.006539507728721433	-0.44268718859239703	-0.40648967467643443	0.4581366446639203	0.5623037669221925	0.39558216115099193	-1.4585067374585137	0.2512191253409937	-0.6246518860601072	0.9158078037264211	0.5878933333707568	0.18779199964962862	0.2390030345678602	0.23372447036510147	-0.06770365766408898	-0.6119107180779074	0.509191172891658	1.5914201494871376	-0.9743880079992896	-0.28460240614428317	0.06291941544893086	0.8836431628477867
1.0970189956779757	-1.0453866705251118	0.8881927451314758	-0.1489262043889639	-0.42828195483009807	-1.5371945559398144	-0.22780625168816407	0.08125711006257641	1.4493315688676676	-1.170678506403804	0.31178135317608063	-1.2706468027175737	0.5490873000565797	0.4260355564375018	-1.8371870660527867	1.21475074353601	-0.8325663479403252	-0.5789809821166993	-0.8365970820874989	-0.8492988311569147	-0.7731475464825613	-0.023987571143357502	0.35164723553406085	-0.5273736846193757	0.2261310535755265	0.7122219847914749	0.5954987356275403	-0.2750435398588758	0.30361705141236955	0.004867333366124241	0.20316949141149043	0.17235427585537752	-0.9177654628036515	1.5052030420374505	-0.8302278145009114	-0.6725236545308059	0.3983973212323808	0.6078791186534629	-0.6326063925295835	-1.51461355932076	0.7914590912503727	-1.4410760909737597	-0.012738149555557627	1.5625567366514608	0.5255779289036236	-0.1684231676353877	-0.80264495497385	0.2632616418698227	-0.09456995674091793	0.5276923046801868	-1.2831570661085763	0.7887399361785228	-1.9434413520378127	-0.9661393597110405	1.0336306390957584	-0.944708428788685	0.02302628458568228	-0.2885507962428866	0.09188298626278797	-0.4869407521177428	0.022503802564495558	1.7083949494247215	0.018692810669720623	0.16512405648270034
0.38555321779844853	-0.7263022260243813	1.3029860973498197	-0.07251507473918582	1.1719713380629833	0.147194532990291	0.1540566106725962	-0.2427300310709393	0.024764226330990194	-0.666108026969819	1.5312690393127217	-0.2945823155281239	-0.2263984397612268	0.3494216785778054	-2.0273894141654734	2.229028537459822	-0.20478982635588716	0.06223877955658675	0.6650910711319178	-1.2129474184064377	1.0793266692291792	0.026970440022827644	0.46729950156581274	-1.603496396570985	0.26478811384047435	0.12014986148373469	0.05066179924715822	-2.3296999710754855	0.127570717823645	0.4313954643351202	0.952313642020655	0.3141095708095638	1.530142474434918	-0.7549194841070004	0.9329140392824243	1.5151456201619167	-1.5425684120561365	0.20436136439582733	-1.8945782757310863	0.25518050056150154	-1.243794302311437	0.3000514010577894	0.0024187799181272095	1.1363089651179938	0.08668340713282684	-0.6580773936309594	-0.27745162527697054	0.8640309466557485	-0.5943336721566302	-0.44719213902101207	-1.75448406544961	-1.82153725507487	1.0586831453692227	-0.34971393244279586	0.6216478922020521	0.8920279149741044	-0.4257451091673859	0.3747513044079929	-0.8279539545397551	1.0264564271244603	-0.05577308507880889	-0.5815244358743042	0.16380658017906308	1.2413136541529566
-0.8793784925877808	-1.2279619175692875	0.3745106144465419	-1.5370137799343155	0.249558312530578	0.2182035951536975	0.4628402550120087	0.30426919282164094	-1.1857625475206592	-0.747239038693376	1.1033346077876232	0.08174770039081905	0.04622911009428647	-0.9751012068119591	-1.2594301387792972	-0.13229884798010666	-1.0146132527819072	0.6289649986091999	-0.4163134373946047	-0.6898501988894116	-0.39719017704912174	-1.0351908985785128	-1.3426412883149588	1.4629146443648853	-1.4356102108717395	-0.06858572421758764	-1.343264017401667	0.05364571646817717	0.3003215230697721	-0.37742877429229765	-1.0224275792293414	-0.06091475177320106	-0.7444498836647022	1.0086520277335027	-0.12837117819200597	0.2405222832297023	0.019700747951749087	-0.5537578782602417	0.8178585729246287	0.9216792868188116	0.7198137843530901	-1.67742119510133	-0.9913835748743869	-1.0358726843303645	0.0025235563786510716	0.9931050817102796	-1.0769023671764464	0.7644437684336536	-0.042631457726189335	-0.49721321172802574	0.5455341713685965	0.7242331004319575	-0.7261925413878387	0.06743681286504194	0.3596213086272093	0.21641997904121468	1.7589404815709946	-0.026810252514292005	-0.4334444844891156	-0.4771976010538684	-0.860889373554591	-0.3483694945114952	-0.7699138184036699	-1.1896699604863983
1.4814402805269111	-0.9189347353850428	-1.1029433615974282	-0.6904560903100507	0.980755058071317	0.3302141194038439	-1.0945129629787451	-0.20625055190452035	0.1712362674674844	-0.3724088546591128	0.11738670444830086	0.32648641612087526	1.069819704500115	-1.998472831783989	-0.6422728970428073	-1.4869541181208	1.369443641395719	-1.1132418096629746	0.02967134992014537	-1.6693020995842498	-1.2595436927639854	0.01023057797418372	0.9821984904154699	0.1409108081102735	-1.0537439249843599	-0.16931274498413415	1.7746964753670074	-0.7193518680672444	1.6196664783917827	-0.08264603964462922	-0.005288153684214148	2.574863529988471	-2.3106827652598865	-0.8879669544515962	-1.0340935626567622	0.0193119735412096	0.05215339007493472	-2.1872338029967953	-0.5722986302323168	-0.5261249697603696	0.45446738732289726	-0.030700063831586744	-0.7626913776336716	-0.6898545202770685	0.28333991571220046	-0.8674678600045367	-0.6287760661154078	-0.34642223546604395	-0.18004409621902415	-0.47977017794284504	0.7426574105663981	-0.03109827383872083	-0.4137020076856902	-1.2906799736081276	0.14764531607056555	0.015427772004630913	-1.1196309655556973	0.24684799601079957	-2.5459735710346476	1.5401953147796215	1.2546319916565587	-0.5830548119394757	0.7790137363905252	-0.4993994300960711
1.8595469449649398	0.18388290858354628	-0.7570883121146652	2.305578777299317	-0.3547730774535361	0.4546012441259091	0.6575592118217862	0.9045658527505737	1.6804230847946289	0.2885627285050456	-1.6222359872799579	0.9523122800804881	-0.3082309620785254	1.5530987082583483	-0.5559381033761682	0.1550451185544413	1.266667338896009	-0.07671195720928478	-0.5669059856530345	-0.5161180354878104	-0.14815440495855253	0.9262001848625555	-0.7702901723044738	-0.23035386591447896	1.0901308957945437	-0.2518809034428035	-0.27226772277755174	-0.8550513670317089	-0.10573290276416468	-1.0875555293410977	0.2772263452434753	0.6515704404062351	0.5857639881485677	0.6683531473824236	1.1236547054647532	-0.35464413949572804	-1.0796606995175924	0.8926748563083925	-0.9084563032216356	-1.2102061269775308	1.7086767285317446	1.2244817928389695	-1.5676876449897552	0.10673824652222279	-0.14675767122199204	1.8952043252133757	0.17224120479930882	-1.2802507899955098	0.4354816309070189	-1.0470534488690717	-1.030112718660283	-0.003924807664438824	-1.3705306169989397	-0.6277264749900221	0.7560768928629366	0.3532183660844749	0.6216475411492247	-0.11132786253109239	0.5575797624136584	-0.44608512125150973	1.1862108574658068	2.077947730815751	-0.5529329338580107	-0.4233974726803506
-0.9234839015403591	-0.08561618110903198	0.37321100698862564	-0.40805685307999373	0.12144160195886543	-1.1754161317108314	-0.36699159952464094	-1.3162445194114287	-0.6285368561724216	-0.052082689764266776	0.9674648855643505	-1.593176745965651	2.126123246588424	1.1030535130798365	0.6975068320824328	0.9857368668257078	-1.068146356089126	-0.9499272750401553	0.5772648982564159	0.44580055977191135	-0.7291384376137433	-0.41637082603326303	-0.5533650721273197	1.0735223648229297	-0.3480915838027824	0.26125886841965296	-1.0830707698477484	-0.16396479952683002	-0.49054710397865653	0.4904933180121151	1.2385913936990987	1.5542291635599221	-1.789220022009603	-0.2691128509443041	1.3074535072792728	-0.9789843141718408	-0.03302839664919257	1.5971025909535717	0.09675504159443075	0.7527917913598882	0.2813597229286293	0.04991138555381209	-0.48957248660514996	-0.6878102965467344	0.7188157843484779	-0.17335894131874538	0.013618209660599461	-1.667702546066158	0.7732283271838049	0.11399227645281691	-1.6634753381520946	-0.7066691393599476	-0.7120158547063056	0.7485743745873193	1.1785296970166694	-0.2837156628438386	-1.119342713849206	-1.806294293047296	-0.9520417345023593	0.7664904214284006	-1.7212994668456965	0.2244296069823988	-0.40716999803029585	0.603055099203968
-0.1565757133783266	-0.3071289118278436	-1.8172560597259992	-0.2692463258823767	1.4372308743283253	0.39268019932319936	-0.6636412002013511	1.0890095429604099	-0.23412116213117676	1.1580109264443157	-1.130547194246399	0.2636521327017238	-0.40472575305837355	-0.6764442729690696	-0.7844450646818639	-1.080491927368195	1.1118186243796169	0.19851976639689067	0.6725677021729077	0.27575981920833353	0.33337207538955854	-1.4496526966375765	-1.799037273257735	0.5119524823979644	-0.6877078660507432	1.1812654023302056	-1.9693532902020008	-1.1834490390557078	0.19248237286476458	0.24911412439756997	0.5834182989509289	-0.9372133084116518	-0.040281272407664534	-1.0287659410931267	-0.2861385151055818	-1.2958438904076184	-0.6500016949121009	-0.4764427327815534	0.14655515397018112	0.8705496811411394	0.14365007973989438	-0.21987460155990377	-1.2283524568138051	1.3606947252435895	-0.0029603253009297054	0.7927958728664591	0.731465417119949	-0.010072987633594032	0.17296522761706987	0.2252619878927089	-0.40689907098880174	-0.5100085519147914	0.07302931766229029	0.640000016809639	1.0544767552273082	-1.3698357268244175	-0.6734330744003711	0.94309695386363	-0.7691281629639889	1.2034774453203738	-1.0235022928450457	1.7360730473669277	0.38109870535769663	0.5550810090906488
0.3527354968407604	1.1366967982887732	1.137315937827289	-1.3363697004491564	0.21769496777029534	0.8459652484285687	1.387215125187681	0.9177863460829625	-0.4913399529571788	-0.8860102606273635	0.2017820744292978	0.28396188556249774	0.22576396799906168	0.4920993215004246	-0.2046571023878927	0.3842050341391676	-0.8885191809188984	-1.8715827130247067	-0.5413053901806668	-0.7303671167910064	0.5326935831270736	-1.0870167376542197	-0.47644492180621945	0.5482687770525259	-1.6899072879539403	2.1974539083281353	0.8244880670973228	1.038000831777208	-0.2550640815157101	-1.626183593722657	0.066700780685995	-0.1400263852991196	0.6984237734429389	-2.4210172410647224	1.3461301072110217	-0.14157587613228753	0.5684845456889532	-0.5511091432083329	-1.1388549940470463	0.41840956202147483	-0.14441481500275133	-0.9585684115513503	-0.6859095176965241	0.899146953884831	-0.5547900420212459	-0.9031594705731562	-0.503492571452383	0.4250396829387683	-0.0674198315494281	-0.4212269629427147	0.6605119935021333	0.9018043674011957	0.3741904526094467	-0.33837869949063115	0.5027787127534497	0.13733344697466765	-0.2651938730768556	-0.07581079547787778	-1.4444932998336493	0.6110364327584564	0.4504381375734868	0.5891996053625236	0.3573822056837399	1.2272174965022817
1.4070585812719838	-1.1565640565601414	2.4923071720626226	0.5071421141958956	1.1413033605501062	-0.2636722915710017	-0.5409392410156342	0.20749693726645452	0.2945408827931588	-0.06023384283305967	-0.6287173553849027	0.14291457120694132	0.5032523775609172	-0.04574876553321912	0.5967821225051558	0.9749383445125005	-0.3605031538167775	-0.8371816538783333	0.9890175768078907	0.15372367505506424	1.6838801485428159	0.01649004147904765	0.19453895470406266	0.5604598927129016	-0.3791542236517816	-0.20402333523919114	1.0361274632583362	-0.19686902439548506	-0.17515729219662743	-0.7688733330537739	1.0787634792284724	0.19633479534640194	-1.6685150361581298	0.6841441794201722	1.6226648363049887	-0.34431162211486316	0.1371826581834061	-0.1590060163901352	1.095161682616527	-0.7675621467467469	-1.375821126793953	0.23377210464683948	-1.220404721135379	-0.0641214979247625	-0.1458294215005233	-1.2249768302423902	0.8435700418216405	0.5520522862834315	1.2087986593676967	0.34191146994337684	-1.5731044654968287	0.013996692409228314	1.2217104614624017	0.5550534153819633	1.3392900953346276	-0.7224953488371131	0.736101520674224	-1.4441468387833258	2.390816694642172	0.1994687736376312	-0.8240920875020832	-0.6401896707238894	0.9343192942529694	-0.838292746051879
-0.7127543770378606	1.470253674470211	2.059047229369055	-0.16070264371859155	-1.3978634286859375	1.5065690645200118	1.3639391274170194	-0.31471095239737457	0.4329097713568364	0.6916563895623493	-1.6124684389473447	0.0837770258076941	0.7155821797859636	-1.5327884245003747	0.2991455340498055	1.3643365156258846	0.6665981063726684	-1.358001412443985	0.04343701528639382	0.8565093291669273	0.030848739180287323	0.05448524780037728	-0.49052994269110106	-0.06133150402970328	1.0820450640029116	-2.2348660640272064	1.1403593276597546	0.1217267827763605	0.9588056860343939	1.6778979668533958	-0.1639149143487386	0.3408382164453316	1.552761476607087	0.045018279381587624	-0.5523891769269688	0.7825228930837173	0.23623454085085036	-0.21796581909130036	0.7591226157417384	-0.6189197471862636	0.19521455843947327	0.7815599659451201	-0.9462909757040152	0.9114341747652014	-0.3773015176454278	-2.108994822520056	-0.8847080600189355	1.1026579996057992	0.13607022480355094	0.6387023054525082	-0.9036900619633104	-0.10152339405940111	0.29498672869304327	1.7593236523693947	1.393836306749003	-1.588177662229431	-1.2791215504223195	-0.19440170553265834	-1.087612292787065	-0.7353609414899991	0.3866273913437353	1.2457282636392182	-1.1111505702334241	0.13548295560163875
0.02710584489171805	0.48300304623587	-0.5628087674712777	-0.6907523338577205	-0.05923403229266298	0.2975520440594069	-0.21801925331495497	-1.269091133074061	0.49763762170008186	-0.787347449311455	-1.4019419104434188	-0.8735130590459689	-3.2092500625395664	-0.5654778035652849	-0.5865262458776906	0.3405181001533885	1.1112249218310564	-0.38732617669086494	2.241843802213523	-1.5375614900889778	-0.08978196562239357	0.8573983491596939	0.2531784315487513	-1.1428593890249303	-0.94034124099051	1.3521951353872095	1.5144547377657351	-0.642636363781926	0.3179592879888131	-0.4103117883632425	-0.30593036598590667	-0.7847727020574387	0.24175140769309683	0.5085415400055122	0.8123008104003168	-0.29927136818016714	-0.2913000758656967	-0.36636278459181604	0.1335640922388334	-0.3503593388369905	-0.7893650854241864	0.6178613497295284	-0.639439117401871	0.8154564470479165	-1.0904317381969557	-1.9011896861740034	-0.23941123410669787	0.22778439628323593	0.26218089142466966	1.0098076471985906	0.24262007587130968	2.1854009827312106	1.575854011959037	-0.5245725538813582	1.7976802289000136	1.2615136746369706	-0.15370308946376623	-0.6882727132073532	0.298849961262923	0.8132150640938439	0.34566888433726445	-2.4545935319021805	1.4544398225790227	0.3403431135674622
1.0213042880192265	-0.08300983554484892	-0.9428969801263404	0.17781585148770623	0.21556371934975485	2.9754157848430314	0.968575384610666	0.29742493998622394	-1.9277546920881532	-1.1598680604611602	0.692803476141131	-1.0176716479241648	-0.5580787881689465	0.6865625088623878	0.7627226508170453	0.35463027700638006	-0.05411658693093356	0.48290423311406167	-0.2622241590928982	-1.1868763191225067	0.6083355897812893	0.274811889474092	-1.5801744153162218	0.12504713841898632	-0.2730771746254879	-1.0379894840589199	-0.9351804450517206	-0.9541085204650185	0.4891057172073212	-1.7529376939503631	1.1257510240808617	-2.2781379828418533	0.3500764945515818	0.020938266772510428	-0.8502008860929587	0.47252352886433374	0.514665592399315	0.39698083748826984	-0.11913991060454811	0.16926721000986908	-0.2582312724943205	-1.2072314011408543	0.6286682410207279	0.5642681622251327	-0.2666351641264158	0.9501104978370949	-0.6163499265373886	1.4948685756193725	2.886244469717133	1.1226843388469405	-0.7931219995612642	-1.2644469526935547	2.040258543916237	-0.706187288811141	0.8897955771013394	0.8324095751135717	0.7189583756889576	-0.17197978568496286	-0.8496762021952199	2.3400657975252392	-2.1049324144949884	-0.27713480121597917	1.0526126165885186	2.0701376004971963
-0.11952290747737983	-1.199730402385416	0.4888006337419221	-0.06733236024554311	-1.8668090664945431	0.792782592695715	1.7820225458236676	0.19296955406539973	0.7954590696112213	1.5856226607802968	-0.4463554350993913	-1.0044548604604138	1.064658760506854	-0.9871018860471327	0.9227669288156988	-0.6928618548336286	0.854333215133295	0.8422071101140649	-0.6572874891411007	-0.16880640647871176	-0.5919093116771712	0.449127900031447	-0.03522729225582727	0.05560114637393864	0.206659743805576	1.6562273234926377	-0.49355129397383085	-0.7764676540270061	-1.1785404004839755	0.7024207121306311	-0.9103882875626659	0.36334672576507815	-0.5050863813001676	-1.0729133540751343	1.2598886815452937	0.2590315463676052	0.5537139173235343	-0.3959787648789604	-0.07814210602914345	-0.12718655276152216	-1.7345478073265734	0.6946532628155755	-0.6335833989170021	-0.07187433347659004	0.6562895916850283	1.933780956500866	-0.19219549801706018	-0.6875122716897543	0.5397539472309736	1.1866062802460557	0.8712132851910522	-2.4307576018943307	0.6362300515144421	-0.30362797574512496	-0.07064910881494904	0.3920561393671541	2.28431224871761	0.07649172850067236	0.033131114369256455	-1.0188172552711605	-1.21422899706873	-0.41986746549391957	0.5088608811717071	0.05455691177735304
0.8408998361612308	0.25442403770300126	1.012630950687598	-0.8031624734674424	0.842233754123821	1.010254827727553	0.5559955179299175	0.06267262500258175	0.1979869818606134	-1.6062312617555268	0.4225196841667562	1.6351716229579267	-0.7650453979885885	0.3197231651710305	0.43034878776915014	-0.29598928067240216	-1.594879281268684	0.6240708603989543	0.522790372191909	1.3216011502786398	-1.4096503677475805	-0.5740567034711935	0.2757764067456542	-2.1659483258341226	-0.2235056169177671	1.1194307065328466	1.9274805984318673	0.4983806100345267	-0.38963358391206304	-1.6757320037996795	0.5407491712276618	0.17165993469149726	0.08914724703157051	-0.47080251994279787	0.8955827109646564	0.9614997965130306	0.38869833045060787	0.6367598798001366	1.1213918743838107	0.2043195292960846	0.5718408909698822	0.823378393646975	-1.6381211744411108	-2.137243696529598	-0.5648214644512181	-1.4237750450196391	2.2761162070779273	1.593928662622064	0.12940404044957046	1.2897526814071654	-0.22801557031817124	0.3496786357368175	0.08975389900910502	0.059040934230901655	0.8069119783265833	2.078955297956201	1.0291124544891421	-0.12488340347247467	-0.16456489493722226	0.8390328892001931	1.7225012739705066	-0.0524481552097924	-0.5002363573924582	-1.0619759603481578
-0.19252458805538533	-0.70051308170538	0.4324320183954581	-0.5343669513669717	1.308517746055676	0.5112017023620348	0.3073225768152006	0.08089923037010134	-0.11695572598354896	-0.08311459654590082	0.7933866173906087	-0.07884265472988862	-0.5772687874655977	0.8220282953254111	-0.13864442828590887	-1.7614278727389492	0.1225360981667466	0.9075821566636025	0.8569328326630028	-1.1583587723663018	0.06417164864072329	0.607717361434835	-0.5210979573962313	1.3808687265365962	-0.7279015707042572	0.21877409709194404	-0.7772215933475451	1.488642771138357	-0.7637220468624945	-0.46809798786926743	0.7643561402629085	-0.4556593208916982	-0.6044790093170477	-0.020131002668426212	0.8741395694093894	0.23013796673777606	-0.41375459155692856	-0.020513536338369127	-0.2201663520328745	0.71975233818126	-0.5110820678446868	-1.0928872143208948	-1.7287387880881893	-0.696741685514949	1.2504331607436994	1.2445967059164351	0.795543003476298	0.33744357187697	0.13055012806024252	-0.21009950910166358	-0.35263220160127157	-0.913225907806931	-0.5671216958303323	-0.09043307264037137	-0.42915168013053	0.24683609150422423	1.0868095249390073	-0.526002473376191	-0.1529975260239838	0.1734934878131871	0.1979868753537402	1.1605415773955927	0.2334944240491511	-1.1635012376095681
-0.2649445964100736	0.4230717846056163	1.8516778837292667	-1.4952038760648816	0.5013863254996852	-0.9078062707042416	0.28299328978281607	-2.843379076186937	0.6375031406803268	0.15945184904948703	1.053813760453331	1.2371680071620204	-0.024919754118980394	0.2232546411329665	-1.285973039015816	-2.0314506243443127	1.397164973435885	-1.5833347196167975	1.4078853383489478	-0.0067433520735402696	2.3585561022082198	0.7346320109600407	-0.3964619418423678	-1.695102190842423	0.6187584704443625	1.00910028258055	0.8534448657570555	1.0556654113472297	-1.0970860525280175	0.3292531538527233	1.235145062991825	0.9809477590714056	-0.10312867820476138	1.0020087904765789	0.3918627807491186	-0.029199191076843288	-1.208981544943698	-0.7319526444875907	-0.06577768660694662	0.6791039223227204	-0.051880791478392016	-0.2664567041615291	-1.252566036001516	1.3379942245164984	-1.8696100820300754	-0.09241048081316021	0.22358365289743723	1.2654855676838221	0.9997953543882864	1.8333759915146384	-1.1615664250314288	0.4311153400003664	1.0634694423199262	0.8980558864858476	2.0812076014134764	1.6106880382986406	0.9830562772684011	-1.025295222943091	-0.3422291646300412	0.4148172326782043	-0.7215026920991024	-0.2819747208719059	2.725767359778557	-0.5211739874823066
0.9603339675057241	0.020718575522044032	0.5505880711062676	1.00278332901002	-0.2878273519918821	-0.8307065272153844	0.9575932198763148	-0.42984731976764384	0.6023105542607903	0.8513193929297456	-1.238840388868405	-0.864569751330318	-0.7690219887477839	0.7108446783291934	0.2019679652532556	-0.46808303850761895	-0.10895580362260783	-0.7598833651341171	1.0214237944367537	0.026258550506354877	0.46320631590094274	-1.0915329046154862	-1.064772447965373	-0.2993486224864345	-0.02505799704484216	0.6319834203439401	0.874957615750603	1.7597756893628917	0.5455893382859631	0.2542239308960999	-0.763206154936064	-0.9093309960700834	1.640410566828971	-1.2956150042593801	-0.24030069270296348	-0.12008658357335836	-1.247434140803399	0.4237630554184974	0.0623323775861613	-0.7827013386483759	0.810568591459997	0.8387076067002828	-1.1709806137989578	0.5960259298458633	0.16605743134919693	1.3692131073299896	0.35134265366365014	-1.168284437298519	1.744731471987106	-0.17913144994500038	1.3680887880244235	0.4883215279721079	-0.9881722646268059	-0.11819369533505011	0.6585691111865868	0.7578411451095933	-0.10290777775528293	-3.0532803362886627	-1.6521312186466328	0.5981531704114104	-0.15017902521350546	-1.7147500923270462	0.30719446645987664	-0.2352365734991057
2.0190675730431793	-0.033547583938593015	-0.6179307236991288	-1.0954708260044288	0.8843209448522299	-1.046672065901247	0.23811963720416077	1.4939681943704606	-0.348274073150927	0.13730565238939796	-0.47488008586479147	-1.6007775579052688	-1.1743763448239843	1.1259620444422755	0.19145680636156123	0.4438663984848156	1.0682516930518164	1.5163101168948185	0.8099678373004598	1.115441541675035	0.20872580563778756	0.16288336785788335	0.7067391521445696	0.5275152669496163	-0.8918881048904295	2.6321515749848095	0.07544340904262162	-0.9424894096879145	2.6745258995460834	-0.7351077725377648	1.6793348487260042	0.38605747659335765	-0.7155248083169246	-1.054918034991072	-1.1233624496007548	-0.4673514757377275	-1.7602169450231975	1.4050382893695907	0.3419711911394038	-0.7629230934452047	-0.2650383335593081	0.06850781748985085	-0.0760910579632802	2.173836601086529	-1.4449287457582447	-0.8305912381409454	0.5924020449152995	1.6934066325026333	1.1312579925414468	-0.950474451766074	0.3138740511310128	1.302425630266243	-0.5258875858954933	-1.8102755246137343	1.2302357452360928	0.011375848417640581	0.1818562837317453	-1.9648026540020849	-0.26695104918774376	-0.21535416741089952	0.79050893621604	0.6630727809600279	1.857100002619829	1.8067624946919183
-1.6513350271978982	-0.4138503368278608	1.2441600017564292	1.5841185534827562	-1.7108768764598232	0.7804363585742388	-0.10364016449338571	-0.6483124738077344	0.9968070994005908	1.8018948015780731	-0.2950832094550657	-0.23903187436581871	1.043325049214163	0.08155856500136274	-0.6323965532877269	-0.2527436927622711	-1.6604071902308577	-0.06409239578170181	2.5825513616642115	-0.32664238265838247	-0.504062256774486	-0.9461900195421502	0.3499023950021244	2.312681508534212	-0.6528069853156964	0.2732185897670552	-0.9522763033318411	-0.6206209285371782	-0.05199228892744101	-1.5023570185194433	-0.3084531704994563	1.2667430746023909	-0.4309958356931133	0.31989474633495885	-0.22777506730075164	0.20773721226084216	-0.9003655468091845	-0.482968006132674	0.8759067523920486	-0.4418866797967049	0.7730304512680779	1.4443374266128683	-0.5860276098663909	-1.1580327935449222	1.2899477918659952	0.39812531709413773	1.1382076582925187	-1.0275387721728872	1.4669489934042759	2.1389452774637814	-1.1357815406249026	0.38117753959704254	-0.21516611062990232	-0.5655495398357717	-0.013330002799211047	0.7861316259987003	-2.706548290000294	-1.8664042460711958	1.3483161453193735	0.6746251707863683	-0.7086102953116026	-0.8034572973545642	-0.3739125469972665	0.3129050565051152
0.24521168778691818	0.8807210245987191	-0.6421249347320473	-0.8293921830695902	1.275707310836476	-1.9893991457944344	-0.2901869184422127	-1.0086610397783644	-0.9459143175026912	1.0080112798894711	1.2442832361839642	-1.8988793277176197	1.1901604547003335	-1.0835401448674244	-0.3378432752858195	1.1231769384606736	0.16869026610930465	-1.2149216362059891	1.024277855640098	0.842486453947456	-1.5670588454458192	-0.04509966210840727	-0.1314611197685248	0.9090190421393299	0.6760804281417471	0.627467219167744	-1.1822044668168277	-1.4180566493696363	0.9952507734448688	0.14387464269062955	0.3657645699421078	-0.30994236308754103	0.5576323375616143	0.18076561476772007	0.20916663025130888	0.06526618560697556	0.5227396398598738	-1.6823961352718846	-0.624057582958944	0.8990516274638037	-0.39326591328891075	0.12529340399771838	-0.5471439301106076	0.6079468922135786	-0.7945747024483228	-0.1411818540200154	1.1874448384883762	-0.8464876246977768	0.3841094555483555	0.4034328384247368	-1.0240855578487833	-0.6711244666122189	-0.20671271342140568	-0.9174543490292131	0.0054090237376522585	-0.8218645007820212	-0.1499003272799352	-0.07610211671007065	0.6197391467481371	-0.37567696092259767	0.4147006746303567	-0.8259761345174331	-0.6560215410564125	0.7348594532518916
2.471663779693952	0.35511950121774494	-0.32570052226146845	-0.25448964616836245	-1.937529329919697	0.3228562996199111	2.335992055076936	0.24227703838921885	0.812045303419105	0.4589152529598758	-0.7426375507303612	-0.7372144598209236	-0.6698255364307938	-0.36660038664855105	-0.3539010988010034	0.738426435912372	0.43816799957091357	-0.6405520358693267	1.6937491475145299	1.6316850736215367	-1.1518060473864764	1.129623824088905	0.02850695360116238	-0.05405154552476608	0.23722643204192528	-0.356039561867661	-1.7304159853547436	0.20591539674542644	-0.3735774463612965	0.4857161282148254	-0.3187563848080432	-1.4149071970810603	1.5136676222945262	0.5720154542238688	0.257921597102544	-0.1266114829985354	-0.9988304013054191	-0.32262932199032174	1.287560121711077	0.8502667316726817	0.22216745662954318	0.5334097675973334	0.9245710354611375	-0.061664599009851946	1.0544630343699415	0.43905715557398206	0.8943251980570648	0.758360549833657	-1.3363903182851602	1.0882455363068861	-2.0066778716106053	0.7288489504563437	0.35336214326292403	0.8136943980971371	0.3668247698593607	-1.3337014768894104	1.1339706424023328	-0.3018874529793485	1.0241116996158468	0.6731867937105088	0.3730526711779895	-0.9232116804506136	-0.5341968670577911	-0.46839309703555704
0.19626407271789797	-0.16188412438192498	0.14380018974769776	-0.5674435653628422	-0.8997249698193848	0.2547279544396484	0.18696813830100492	-0.22811911343415195	0.6268108612710719	0.7451076505462529	-1.0938864512112794	0.6184047359850628	0.2390973390846755	-0.6144012288571115	-0.5891264260013904	-1.199918311755894	0.5504577334095117	1.0484988156613502	0.5826677316702297	1.0952698463900943	-0.3608309551021826	0.44663386204993727	0.5028184382518146	0.07657499490967956	1.7817672943483809	0.6269028991665366	-0.41643575705863156	-1.2028878073107843	0.6808271182844218	1.3388822412496246	0.740723873446626	-1.043753126184541	-0.35628032365354595	-1.870071071175668	0.08815458956300118	-0.16343599918302176	1.4208492877273398	-0.7792173187199892	-0.1852872869480545	0.5296023348640224	-0.12546752634017574	0.30320185113131853	-1.1709008645373924	0.32702329603870295	-0.7289588876807626	0.04369190885082471	-1.1861254472667466	0.2056516443967537	1.5217682929045482	-1.4769057717959575	0.0887865728476559	-1.7182876618628846	-0.30741955868746945	-0.3905901085399372	-1.3152467351395203	-0.0024199009409825905	1.1318709823682835	-1.3331669845629208	0.5127667250907636	-0.4310918418172821	1.6647126958021137	-0.5492487983059847	1.4004945158099313	0.008659219972423238
0.17666138470378637	-0.46325944881302394	1.3060550473841637	-1.3974561720196492	0.1521256076537114	0.3718994531697321	-1.0999849332171687	0.34196479345139735	-1.100684367701561	-0.5358590759688105	-1.6884037352287533	-0.2607295816103037	0.04391665326528437	-0.37243621097818846	0.8135827158006719	0.6653027473643796	-1.0480670545212905	0.44594848916324864	1.5829386071206502	-0.003058044276075102	0.2825161190584987	-1.6037951386687819	-0.048067652423126966	0.14413845848763568	0.22710923360435065	-0.5942538696644132	1.3085034140134983	-1.249663463541599	-0.6799916465392223	0.3150827664992653	-0.5465828508187421	-0.15599963246161624	-0.024596683838403913	-0.06088935507559561	-1.9763148292473363	-0.7029162130653723	-2.289461285982039	1.3790261653295761	1.8750920153867803	-0.10728789549766049	0.8004639141519735	-0.8379332255647148	-0.6070854890368086	-0.32275294929519355	0.5258154499372352	0.9379302369195986	1.1139777617529905	-0.22190854893254106	-1.0245285733747427	-0.7615943659613841	0.5214729362821897	-0.8948577643590603	0.29176410270420733	-0.36886316911819905	-1.1073651570585679	0.1781712832750819	-0.04883531746550892	-0.37074927222395404	-2.093286037816071	0.31023073555471214	-0.5588622710461902	-2.643897537637195	0.6381345775725787	0.2249290960394757
0.24671961148912774	0.11285279338015948	1.8272623109037807	0.8156516299337336	-0.311075151058092	0.2811527767912998	0.3244228101606447	1.3171297765885426	-0.7297118815951122	-0.3898278111888246	2.4327256261601864	-0.06809216777714709	-0.0010528741462508871	0.20889222192734644	-2.2025725901577577	-0.2678909834202204	-0.11478140484965917	1.3428320113052752	-0.5425566281834768	0.15413978710898077	1.0287840528375687	0.20550711325415041	2.3815864489257246	0.2338415288242461	0.8923997167862425	-1.8450273103998516	0.4152748175084049	-0.4799951559005499	0.029508422849437256	0.1751964223245677	0.27714792080979656	0.26765722258192237	0.0928282336376864	-0.7157934281866116	0.4800142031782659	-0.980446359028397	-0.9656126508283497	0.5601461665600391	0.3474151172390637	0.35464220551779346	1.0909069431480198	0.430871069166847	-0.4205157998869068	0.5825030535918567	0.4509615884200339	-0.9584112978984495	-0.8901002713425684	-1.8670506337388095	0.015296147459276105	1.1426779833305365	0.8154692106339478	-0.6189676868615274	0.09943397988149373	0.16582522929248994	-1.2037586131767617	0.7079002928674899	0.4025423241110244	-0.0846195465529166	0.13822345480718595	0.29698160151257497	-1.9879129043871253	-1.2449904242714611	-1.662475446826527	1.2771224805707668
-0.6167108196780309	-0.6707622634510341	0.10529977394295922	-1.8490554601281548	0.6912638733223232	0.6459750234336691	0.9425575059982981	1.2202331251892804	0.1988431906536821	-0.7939841883201232	-0.7455891508789463	1.0509381489199385	-0.2920838030136267	0.6747681745433063	-0.49837137484734517	0.4134579051804739	-1.2859370579101137	-0.9762208884774365	-0.30371533131583195	0.3204635806654957	-0.2814302368472395	-1.2851069625167655	-0.8893031295261032	-0.21618303548469683	0.4940178401080232	-0.8487114869643294	-1.755668919674791	0.23598897575102637	-0.3344981219593163	-0.9159987695636593	-1.6960655185836981	-0.0933593102189804	0.24385102336911516	1.3864151960157365	-1.9270440051375894	0.17681857939740994	0.23473699882959062	-0.6966645335190135	0.2864003383529085	-1.1463614366595152	-1.5948143836544852	1.0415242754555096	-1.0727794274391829	2.2802008431981142	0.2633076533166127	1.7073812235948085	0.20023611346214992	0.37355108071530174	0.7999383183103196	1.2048698925157066	-0.8899739270956379	-0.7155613446565929	-0.25067335136980956	-1.5928286592655485	-0.23765695013160731	-1.1644205079378405	-0.9529466956870265	1.7908453912521345	-1.519999466371235	-0.9123446829036836	-1.4425204570023342	-0.1812995709682652	-1.3879887425296917	-1.2210686389147967
0.432177706127521	0.1286770542074563	0.9923543807258203	1.2482572909900038	0.23620593694899503	0.028682547206220592	1.9708557855918822	-0.9663901376865157	0.20269660730863037	-0.318313047890638	0.11065824204108156	-1.8716620932453218	-0.42869314668000746	-0.1261628738258241	0.3628316809038342	0.0003711139673523325	-0.2107196318027485	-0.8584289442162364	0.3743558947530258	1.06740458521095	0.3958784400346153	-0.8353677261279908	0.7545462111141691	0.37094729497320744	0.1489979993411951	0.4729364984205591	-0.5704086033528406	2.0415561847399033	0.5151622493394413	1.0792615351967711	-0.9169451945774444	-1.5959822190983146	0.922093199274844	-1.6919358228489187	-1.5102251020971038	-1.2764950354260134	-2.038308084592897	0.41076073779000777	0.5412758033007198	1.2361812143212858	1.8068828721702475	1.5912098780534052	0.42478535039219634	-0.22631568531139734	0.5798688254003269	-0.37202020323786156	0.7526279795517185	-0.21561821188205554	-0.281509924412899	-1.589761211408922	-0.2583432552585847	-0.686202197705485	-1.1094305630698311	0.761783020951833	0.31406563190177705	1.1243132355478047	0.5181387552422593	-0.6811922588014814	0.20280718702686001	0.9053594710611886	0.4059748689067205	0.08001350929617895	-0.3109450835977582	-3.0171850337291892
1.2228034273329038	-0.3288677936309119	0.7737463104331418	0.8246222813218502	-0.6082499570267629	-0.02821789710011046	-1.693143350586291	-0.0582089991103265	-0.1790295586122902	0.2014045701809076	-0.10005566336116872	0.02847732086608795	-0.4546198200673388	-0.7088188147562527	0.49567576577184513	-1.2874755611992021	-0.33881324147650416	1.1919833085077187	-0.42838293139254935	-1.133088068212545	0.6142532830818905	-0.5207256382754152	0.39298741943080695	-0.5047442253778938	-0.3084058771567546	0.5545487029406068	-1.884272398616275	-1.0138037588457305	0.20342757089673702	-0.530846289963077	-1.0053866453461888	0.25405333885914777	0.30522801482187734	2.2783855787874496	1.3514712945952596	1.3385834848460323	-0.45798876915236997	0.4052724888837445	0.4879465101472088	-0.19817256354011425	0.3047241660054582	0.6349663541315058	0.41023233002534654	-0.06709009816716036	-0.240589354542381	-0.6804653178021611	0.5458115598612059	0.4857572694542693	0.8067169082379564	0.32282039679375807	-0.7239572919279179	0.9384812947474941	-0.09878750666758043	0.6050025140999543	-0.701207847978891	1.5831864345269713	-0.15496306635655405	-0.9941652401833236	0.0018906746621016875	-1.0405359769740137	0.02360837322805078	-0.34244735540692806	-0.7195741343137557	-0.3807054538565507
1.3780447241191611	-1.6437159155931946	-1.6813452746282929	0.10308566976955795	0.8456579930735113	-0.3961753129692508	-0.07255721628703558	0.4163882270955537	0.6268600128470784	0.3780486180911506	2.3978288692248793	-0.30609946955946477	0.7059107971780106	0.18853008054691298	-1.1930065773540839	-0.5716578487669491	-2.347066934040823	-1.372729897761304	0.5673293839374782	-0.1819863343719492	2.0215325553257317	-1.5347986287599773	1.1385273235577988	-1.4508940366907928	-1.090494963814447	-0.6820991902309652	-1.7310148397412926	0.19686641282708045	0.9277738390773544	-0.6948124040720327	1.1022140479422815	0.5242960802571034	0.42862873996998213	-2.1541952668974447	0.5290102628914578	-1.1772723800852178	-0.43799993199184667	1.7274165472704184	-0.3567874862577447	0.18576945906089834	1.3783863181677405	0.40114100351872517	1.2290549217034656	-0.836495434779747	0.9298216807631388	0.09196207250591566	-1.5181144890219047	-0.24762076437894986	1.3522450934096828	0.9845364497281581	0.33347990112518605	0.024425963467003254	0.903910434881981	-0.202989884667128	1.320548489741889	0.9667319324896845	-0.9259609606557555	0.24003340180945743	-0.5995001579062434	0.30235775200201376	1.4280764738374572	-1.103433240991872	-0.21077384548024813	-0.7225867396417165
0.4919448877534824	0.41819924956044974	0.5407483068903408	-0.548601494147659	0.8249101798968336	2.0077634662583983	-0.9467959641185499	0.7234482101802843	-0.23923937764627878	1.148365354649458	-0.3132929550031384	-1.377335515718013	-0.550570802096446	1.5622425242574856	0.11023732435314783	-0.5496337267367535	-0.266858727105872	0.1737476760570111	1.5544462730886757	-0.12617340070516336	0.33908422738294663	0.25583259670704267	-0.8225404895054388	0.018454800201753337	0.09727047113306717	1.4546112068027068	-0.41693019562695205	2.1662278061019307	-0.5088889915177691	0.27760718069230916	-0.9174674349850623	0.307651257452445	-0.4323661143738154	-1.760621081670931	-1.2664141529672297	-1.2920408386257998	-1.8090882410360372	-1.4133337881747408	1.3183087787592336	0.4166908230466825	0.436991052979659	2.6542821120819773	0.9947765776828433	-0.28339398118303916	-0.24333357234005298	1.4790652518271927	-1.1679362356308398	-0.8868071078957082	-0.5809561937102918	-0.9234114427388895	0.5947853471724401	0.20635259476232728	-1.5848247843217245	0.16671268260460473	-0.7979753830025724	2.4231398376730637	-0.006372290543861421	0.5851865191797713	0.8365258756581914	0.07396343925591627	0.1650815319210515	-0.35686082650525347	-0.017845152181347235	0.09177961469683014
2.0554417351637357	-0.10364545203987612	-1.4141334228436178	1.1051204684934286	-1.0291848383654711	-1.7298258559379722	-0.14599177501173435	2.0634321221984324	0.16903790799946197	-0.28816402914232847	-1.3849060632146748	-1.289162953910327	-0.016522646406830484	0.178778429888731	-0.5094536689578731	0.3851063990925649	0.5444423162947128	-0.8870987983479371	0.32605839012962046	1.3745692590424206	-0.06326706791507257	-3.1042446414475116	0.05581218441610354	0.8577542988403202	-0.722354952967753	-0.11853823181163235	-0.18264761106056793	-2.3247348006293636	0.27302005624024583	0.8967591891953711	-0.005912346552375947	-0.11815471405390501	-0.08013200509647046	1.2287407291120522	1.549573027433899	0.27162282764785795	-1.336972889708893	0.8773186021596133	1.5083811077274398	1.5837804174661256	0.24741571276244406	0.5480055550482877	-0.3452287303916386	1.307556197358323	0.8752779872668727	-0.46339948811508413	-0.46283596120235926	0.31362553326738374	0.19047480477686438	-1.132943939705291	0.3710434873458265	0.373304824222945	1.1780526347477136	-0.45128751301590353	-0.3074488876039222	-0.5211393143325292	1.2307050936514192	0.6998334791348424	0.26868262888533734	0.8435740571974855	-1.3561788119724965	-0.339948378077447	1.4656429457340132	-0.1261492951457489
-1.657490682922998	-0.6368117222268387	0.9175010280221485	0.8052739794254953	-0.8895062539267261	-1.0915868972709215	-0.46299156587718243	1.2725442559516231	0.4846011820374234	-1.085794238273588	0.47067914945402933	-0.42868982261392474	0.264350498715726	-0.661894394925213	0.10408278137686028	0.8273340529145881	-0.31293731399035213	-0.8228680178547623	-0.5981109680585363	-0.048298272926267774	0.6897663314157749	-1.7890040935890286	1.267455384193496	-0.9197498530179992	2.6459129536755626	-0.1747970618805319	0.2562852716910496	0.08155034686369342	-1.3756064446901404	1.6299288668482195	-1.7196480575388373	-0.48067493983939347	1.4382694185234832	0.28730066940855165	-0.7082029842294417	-0.20068249984689754	1.1654920010322924	0.3507329922824033	1.4898767112084135	-0.24404432301141493	0.940031120981768	1.5702337296756168	-0.8275823853596199	1.090688252260518	0.04733913223057826	1.7619444882460955	-0.4971299169179473	0.4863836528463777	1.714297820737503	1.187349940013176	0.37217401129088645	0.42667073212700296	1.0128642964881402	-0.8028364802506924	0.6708434191569808	0.563783872664055	1.497879093497387	-1.2746438036999268	-0.17453157057268048	-0.5864715896595376	0.3956813974719329	0.8947302183702719	1.3582286960699306	2.4003997836769737
0.5483885180011119	1.2846243912477031	1.0489559337185892	-1.6819682097550497	1.1413482325574071	1.2245423097165906	-0.16405022024204505	0.4589690455582564	0.8256601383435397	1.9983263049854043	0.4604118775431115	-0.3037530569791798	0.6297204549960066	-0.3564116987436849	-0.6745781895002007	0.49124797005352167	-1.2028312582804526	-0.9831767303204253	0.23189567267896055	-1.9216041394236991	0.2311601658768348	0.5696903065048293	-0.8008713253679625	0.11181570966910404	-0.0909190400193418	1.942620199261843	-0.7648294039223156	2.2060208020379375	-0.1365111975308354	1.3590782959050436	-0.2047245319680753	2.339937338492328	-1.3847906145421218	-0.5239513961273147	-2.4179399680565616	-0.40662409250955744	0.5614631580348614	1.012958953550867	-0.32579144395287035	0.9818615790207185	-0.010883699992074511	-0.9931626603983876	0.3395357649794869	1.6986095138723294	-0.06185530797615617	0.15554046968956342	-0.4346684081419613	0.5573343267025144	-0.7981474417200778	-0.8597593333347144	0.7908705354127872	0.919537963860585	0.6210210348632343	0.002511943096854062	0.0065178268448047175	-0.4708188367918484	-1.5547839600748183	-1.2466825941743873	-0.14868164281938376	0.4787240140190668	0.7302710055187848	-0.5230884391386624	-0.6692072998478937	0.16407846696416414
-0.9087156234603914	-0.15124199773938482	0.9262326102170045	-0.5903441051245347	0.7067749809608489	0.5499167746382039	0.4660930362001275	-0.495688761573776	-1.3601433824426221	-0.6794340956917715	-0.35353728361000497	-0.48441123626260113	-0.9575193234611542	-0.25807934164216034	2.7768347832147464	-1.5032523804862539	-1.526326414606453	-2.4251826539344	-1.5539988071077477	0.8766521242619859	0.6849797431756075	-2.072552169093213	0.3854819629420515	0.6060803150512307	1.0723563917154957	0.7480469195346896	0.14318202826143508	0.33374974772985283	0.7973445136199373	-0.7892974486026922	0.29712338309498915	0.09727297540682395	-0.5717920661973415	1.4151512067857082	0.7647220762173254	0.35805409801736526	0.2677981686350801	-0.671129584872087	0.2574943261632736	1.163420516792799	-0.017991716550404303	-0.20211465543759988	0.05740613487497363	0.4043937825494358	0.6042618506474661	0.7425900891492614	-0.2942154210361433	0.07473428854005464	0.10563449712480674	-0.1895588723879859	-0.5164842050717737	-0.1384071158952807	1.1632221535616687	0.9446447044642559	0.5383933782721997	0.037578912957001685	-1.3903940368688243	0.551851197841487	-0.4971461971994068	0.6905293269162786	-0.7338792354458337	-1.4298218516923213	-1.0210877223992985	1.6416392378854914
1.0768981249949345	-1.6460138099503543	-1.0792247206526298	0.6109082835337708	-0.8947374185432487	0.3965520017860086	-0.2816707080097489	-0.1194087556453733	0.9324243435079775	0.6621002021994923	-1.7809611944775876	-1.651992059428961	0.1887705268333361	-1.8593009542786196	-1.6990268579638323	-0.17889343380142758	-1.1792467835056974	0.2080301309260189	-0.0326364960522475	0.48839680496420873	1.2989007030438324	-0.17039708959114327	-1.015449744207468	1.3793282278233248	-0.9772500578728106	1.040354348766545	-1.555448086185426	0.42052441587173744	-0.6682006851120563	-0.36553976553905465	0.06074719430115604	-1.4270800126755636	1.178799971500777	-0.14757993404794853	-1.0245891782920278	-0.17677024922863316	-0.38442321315952943	-0.1796977570624796	1.2072127395243308	3.3715626412406747	0.714104861129086	-0.5955415929611405	-3.0778223460858514	0.853857114333247	0.325693025691684	-0.2025448597661544	0.6834071036413032	0.03943953515619694	2.0484799539941205	-1.070920015878269	-0.5385972571855155	-0.19092247668891668	-0.29585968586783307	0.42457917978254817	1.9907413473629496	-0.6196984521560055	-0.7648364967326414	1.5642460035991312	1.1323216233622024	0.5885948460642317	1.0345156073518595	1.097173183179068	-0.026239762386379702	-0.06006035105407236
0.8951291364190223	-0.3200914857652322	0.7831025582921439	-2.1524204694792752	0.283888838454568	-0.718240251699391	0.33865669533808607	0.07933511893567342	0.8720447050389116	0.6728017588636858	0.9299458225682542	0.8703203556754268	-0.2810037966566189	-0.5470884822324399	-0.20173321705146652	0.6552454982990636	-0.745627493858658	0.4368401654904002	0.6970493119019745	0.2335436691425419	-1.2170775517927408	-0.06434601387963386	-0.40441517124893733	0.43933735973674076	-0.8207859480314718	-0.6924441253064813	0.48134562882538084	0.7481421952123274	1.2679094564686808	0.5642997056734979	0.8924244282003315	0.550080872518418	0.27004518813172235	0.6889118029846716	-1.9551051716808492	-0.3709387009727642	-1.3845066132569261	-0.6557009164505265	-0.39053885942983196	-0.5561566271740462	0.6352747460003486	-0.49526642013627653	-0.2237338284185536	-1.4677700929467306	-0.03830327466126311	-1.7961992748765745	0.0991963576878315	-0.25346588675793585	-0.8739340878903828	0.6139729816894062	0.685514978654397	0.18824271080794627	1.1501656652509695	1.2321721449509322	-0.6166635127299109	0.8895673295428447	0.5746342532180575	-0.19500465711428835	0.24434064860942292	-0.1380108356901614	0.1258250834780262	0.011302470167365498	-0.9686886492735418	0.4983184091004912
1.2044556131680162	-1.5812449240852495	-0.433987044645413	1.0273244460098536	1.7350212878133187	-0.5069436364632446	0.35755823482060645	-0.7914318943309308	-1.1067360669313746	0.4521859307188434	0.8359767485481421	1.5725143440436464	-0.9206734943255268	0.25204128221787175	-0.1517499008239393	-0.01898175699075964	-0.029367587268404043	-2.4466478692603255	0.03916027410063809	-0.5417949787862073	-0.26960717178908256	1.3770369315785542	-1.7233859608902973	-1.0922898777445282	-0.29406561997560804	1.2882924614722726	-1.1525950423230757	0.5657628626526767	-0.7583685210822688	0.10640249213183564	1.178397905030206	0.12858722328604358	-0.8064334800883571	0.843287948609269	0.7109176614522867	0.291596611796008	-1.2760660243501707	-0.7813122408213424	0.8561610677283183	-1.1455801716905503	0.35906128502951246	-0.1037602803610882	0.29108045605215527	0.07153041482263932	-0.6487709417502117	-0.2971852739011231	1.0733381327116145	0.40926648387709597	1.6692783287051618	-0.6815984083198087	0.6614207512579466	-0.7798787695505519	-0.17911501352949039	0.2201275365603699	-0.8654950510011089	-0.05946658082141382	0.8165178866946895	-1.5118048585568977	-2.455457704124825	0.06853852491103264	1.058358366552808	1.166623065024653	1.8197126723269614	1.4891469851166355
1.967211386426256	0.356928074846444	0.27141721688661674	-0.09632347417366356	-0.00923589049118644	1.094461798079374	0.309501043083922	-0.7523107924518239	0.13186227852987198	1.0473628408752678	-1.5136444172847934	1.3849767790883158	2.3668787685500834	-1.0214224880188902	-0.44935107890446635	-0.6349160389244659	-0.3451860085904724	-0.5501772612644436	0.18132611036402652	0.4860614547043513	0.25011853653587157	1.1594076918111107	0.8211334180267531	2.116992165393616	-0.4920934206189103	0.6399204956539392	0.9661716144029652	-0.7299017195032272	0.4759866534095374	-0.7798204624058499	-0.9201696491095874	-0.6069964280052972	-0.37737462983633024	1.2660230874181833	-0.8513124709924578	-0.7499791862193496	-1.1349784454272351	0.40497130311685386	-0.6226514319581902	-1.0293460485288324	0.20427042034837942	0.7318083804471216	0.5414349085880534	0.15631347715387192	-1.3028638648020658	0.5714321015537606	1.132271991549356	-0.6589066017935575	1.1408477673474937	-1.677062323885948	-0.3670891042403658	0.8379121357015249	-1.8021693630117752	-0.2545099403165715	0.38875855068145493	0.703807607183651	-2.060121956316107	2.17510833052932	-0.015931310813111246	1.9265680660521505	1.3435574567925592	0.6005742547017046	-0.5285943389440153	1.1646889752546856
1.2563856695865094	-0.708170647764062	-2.2665660749472285	-0.295880428811521	-0.10985519861834595	-0.042488695869030604	0.8756530703968022	0.030097190298240907	-0.023952534973731555	-0.7313155835915367	1.3438074544959242	0.04572313386840774	0.050216424194918854	1.115301898805721	0.6644997080522567	-0.49556634175684294	-0.4986852245056965	-0.27374885233323604	-1.1527561040711702	0.4208360285576621	1.0055419907821443	-0.7640146451050277	-0.025651402178624955	0.6859110964469209	-0.3077001854699805	-0.13064919248873313	0.18716744865867083	-0.6980143091429271	-1.4426354511938813	-0.8121537419572548	-0.3859371268567058	0.3815503712299483	-1.7067428241744353	-1.0820232808080825	-0.3319771217338622	-0.1375259544583894	0.15923119250284684	0.7121558570153904	0.9270565200724536	0.10145039148184447	0.5394390288297247	-0.4012805356978859	0.018775068629741674	-0.9664570856862045	-0.3964315012784734	-0.22494922939881878	0.3204093215963955	-0.7338044614027119	0.42073564177625483	-0.057130353450227656	1.4139189563926822	0.18089387061011628	1.3404466414742764	0.45600377451869895	-0.8826234905326802	1.2577106442590307	0.015307958941707943	-1.0126515693977023	-1.319615407465699	-1.297250887080096	-0.7169061784649255	-0.9911190559066425	-0.9043783962548885	0.30053724973833573
-0.5452327513987313	-0.9664038499667746	0.558963024216961	-1.6614504356239723	-1.732435448525307	0.5633709763993622	-1.1478354124514596	1.025427060544007	-0.14122903199458356	0.32180455297304755	0.6428213601091892	-0.5658293324136859	-1.1120626764513668	-1.26075374256561	-1.016584712270207	-0.7921602412331207	-1.3997887302884402	0.13772968061772128	1.12339082377948	2.4880899662584413	-0.20516226397248605	-0.7809219346177291	-0.24940250355660326	-0.9556036340658464	1.0621448766772779	1.6494490633875187	-1.6389237229825606	1.6712161030676105	-0.3001801343302526	-0.4247652824886838	1.3371217152538142	0.13139018737117664	-0.3048820822488727	-0.8654829680607027	0.1248420392114714	-1.6681789502807383	0.24310205428534093	-1.7501694352640382	0.27027947144744613	-0.4875469276794608	0.34050097197210777	-0.14156214677979165	0.4549123354455482	-0.31388493439257836	0.6702644323769344	0.7465750906158714	0.5339797566591263	0.5463128383414969	0.046937330225642365	2.088531846727861	1.9946694899334503	0.748329168214901	-0.23194601600816964	1.0657860689514993	1.057409216693504	1.422147367420452	-0.43904386900172043	1.434848785401901	0.7335464692012302	0.43320528751031456	0.16138556824184952	-0.8715742128979149	0.5826822960394034	0.4458821736509716
-0.15149019776920386	-1.1098791464095343	-0.18837680327207387	-0.03664681767551056	-0.8906079190583767	-0.36625230926323465	-0.26935893281022033	0.9770911890505541	0.3483599523496125	-0.14289451898492397	0.9209895112404836	0.19409477380282192	-0.22508315450808952	-0.15786480428581143	1.4664178019126564	0.540911863481932	0.21659077004347665	-0.6932347260441105	0.3798749858781558	-1.1164605808926344	-1.1362430009350437	0.8113640406257556	0.5282314454764075	-0.540448768807161	0.12304691453266615	-1.0835486314033898	-0.6596079539881564	0.5714563317482442	0.9090360880303587	-1.1137720007493517	0.034003980023517906	1.0518986918092732	-0.9198021799511746	-0.46967262588041775	1.0046000880022161	0.8538425074515871	-1.9263905573789748	-0.35825557862665913	-1.729816449680569	0.5782302361981769	0.259469648566457	0.1346741705792187	-1.2101546591364687	-0.7717392223421218	-0.5061982795329818	0.41410261601525017	-0.7234648058240905	-1.3843113785024364	0.3732308292229308	-0.43366804535563336	1.1993490220834222	-1.02039604255667	1.6238326510351346	1.4099831953013973	0.06013805821119758	0.9411300160159317	1.322416788708145	0.65376406520973	0.47585669664558494	1.1423661476217595	-0.061536257086575764	1.0835055451325954	-0.7427868562887787	-0.7521263968812301
-0.7609564865234663	0.15582439567370135	1.0194773412149025	-0.21665001979260334	-0.2781511277210726	-0.8349285891718919	0.4307446757172025	0.2279985249356812	-1.3385412858038919	-1.4688518748334798	-0.1605865930759359	0.4482334514997729	-1.6050311061875027	0.37340222782455496	-0.22537600745874212	0.5633787472970689	-0.7922904232570146	-0.2892412444013796	1.2154302211906256	2.431405929961676	1.5634350945562934	-1.615793971392335	1.5500599213741817	0.4359703992145359	-0.292128624568216	-0.8154954273139178	-2.0071105871567148	-1.0734797030001193	1.2035935150977792	1.1366873921258749	-0.7862772953086291	-0.029526540504478706	-0.03210383887095313	0.7791095205147934	0.18925841849135447	0.5236670654711648	1.182080234906034	-0.9493206839616943	0.02507997846894722	0.025009969373185597	-0.9498958350583421	-0.3412501096726308	-2.4136891007588837	-1.756435681907599	-1.239527539487829	-1.8627406319153486	-0.5091070189370862	-0.49296743395993914	-0.3257855555904097	0.035847709647193096	-1.3633471719944021	-0.5771450671793281	1.0441867728008742	-2.5229611800165777	-0.6613961185024791	-0.11486484904615357	0.09465714375890841	-1.2062945811064305	-2.2192037933401445	0.40482951364202086	0.6335291456572042	-0.2647379498088556	2.0583883279279513	0.05571452900617706
-2.0085504880120073	0.09596591295469617	0.7997983254781402	0.2510017001032693	0.4416492045504268	0.8271067376586391	-0.10903529306516745	-0.13885709274477825	2.363638908931965	1.1297461638604285	0.08267230648277077	-0.3290740618295497	0.2714353519556015	-2.1027407718649207	0.3091065215101378	0.5659026147567214	1.5064415102091133	0.7262355053168982	1.9409212728872316	1.8731807484718832	0.33372904256986813	-0.44143243327354964	1.4777913522252202	1.3180512288972146	-1.3501896603502221	-0.25122403843919056	0.18840252830070467	0.4078029769277949	-1.7285122746944515	0.13178149728449495	1.4129001896000954	-0.6648898165224713	-0.013133090910328556	0.03430266155996105	0.4168001568733842	-1.1327710274878973	0.4539226312852651	-0.14378882675875837	-0.4687781291468816	-0.49399541828295307	0.1854380896575153	0.15330449681589015	-0.1775768161049558	-0.4649499935283931	0.7047583796379748	0.3317770512359858	0.9542000002591896	-0.4722064664451526	0.9491324093071987	-1.3728182228095906	-0.9192547847422503	0.6493201240978559	-0.5131010142743664	-0.6980746245619514	-1.5327004312950612	-0.25866051256934025	-1.2482032446924514	-1.5720743927585128	0.46972662467043674	-1.9367731506067483	-0.1565402521677809	0.2592404196251924	-0.6607867982675092	0.08285557732355811
0.7106510927482856	-0.13237801777944255	-1.3865955355499346	-0.29334828504958305	1.09571608705247	0.09633574018078604	0.5470656437801173	1.91802215804116	-0.6004314054421144	0.26089141377863045	1.466510011450542	-0.22322163495222747	-0.21903700169594753	-1.6820615090749842	0.368524030355419	0.4849986269089209	1.8738722227023716	0.5280094564563623	0.8191462462728603	1.2104453224941867	-0.543230081911363	1.5820970102296013	1.732698993584458	0.5969347836127187	-1.468944086214249	-0.8771549002653857	1.274234198203529	-0.9427101959527997	-1.505505852444659	-0.25282391041296504	-0.2320289757427951	0.12451180126283666	-1.3446576525516198	0.615057050598955	1.248636040002447	-0.00019448429675634346	2.27713369052672	1.4933401078195836	0.18861440387892817	-0.6215320159210852	-0.09233671334474565	-0.3366853490645273	-0.11165063273503721	0.6679144753394057	-0.3810203029553124	0.6589014626160209	0.7690163516326269	-0.8553047470632443	0.2092419523873874	0.20210695401076392	1.116979004052439	0.6343533950378896	-1.4079554283260556	-0.038986446869948614	1.259360788332627	1.3619943518154316	2.123830568774168	-0.11923025498116456	-0.507925111681904	-0.3417736858866418	-0.28506839395431893	-0.5523744106928986	1.6924318600215598	0.6262759495480711
-0.652680019924597	-0.6995027939546545	-0.9119932097175166	0.34522853082553384	-0.9717032768856491	0.5538336405105599	0.3783891781908106	0.18437478064513194	1.7228576902787598	-2.37037120453381	-2.2237365534082896	0.09149689699611473	0.6668018390970079	0.2869154980667497	-0.1314478654156537	-0.6456364408480822	0.41068190835607477	0.38705812910950005	0.23310890585047203	-1.2690735362303733	0.593572141749538	1.367220806463906	0.6816073834982159	-0.9268868843469187	-0.6621889812901135	0.6206248836882382	-1.3810295467158484	0.10338062811722772	1.5268233164709915	-0.02849161102654838	-1.5442972524674377	0.9609664689358819	-0.9660108471270055	0.019402170155761667	-0.7798280529991706	-0.32997059431781794	1.1591647712944995	0.8383909522843253	-0.40582675363809617	0.7185211652769337	0.9854990958578869	-1.1339850591686196	-0.8613361468298726	0.5474322030834173	0.6157819354310471	0.3131168851245435	-1.8316060465566883	1.2409635057471813	0.02377165401741363	0.1474041442108692	1.0066826720068176	-0.30566368488618306	0.34973373642772787	0.5209755804301962	-0.14481689037788606	1.3952165706118083	0.14141750140258655	-0.04339922833536607	-0.31871766562973536	-0.48423266758891803	-0.24707953344892403	0.7142141830927784	-1.0701894523599833	-0.12093004384458904
0.17166713927773558	-1.135568184483615	-0.4332198319500002	1.1616503020888564	-0.17318561568892932	-0.7402478834992543	0.8319144773521853	1.0818999043575843	0.34840987209474134	-0.8489004726226701	-0.6853147997752913	0.5338354755251877	-0.44073333532370756	-0.5114505495266853	-0.7509828179867231	-0.15554535881942685	0.625582854846623	-0.10090059992405971	0.3089527874179474	-0.6795622261658049	-2.0025706809618695	0.2751651809430239	0.37592006941961564	1.5640535417015249	0.6176903632116022	1.4122826642007291	1.3772629560102503	0.1575192549590971	0.4342769048083039	0.9622734293331874	1.509419709639419	0.1956946829133891	-0.9588555908851207	-0.5026202737005109	0.26237934325658735	0.9644273876822311	1.126624649088068	0.3903155632657927	-1.4759252302267842	-2.2818364219675917	-0.8619420149856059	0.49556943603749165	-0.5900316814079888	0.21960651942957682	0.4659557985092538	1.4542984313543932	1.5235598010869444	-0.6827145999344676	1.49588529062295	-0.645205214219149	0.39872501524981346	-0.6119660575440071	0.3174359526307699	-0.33464529897258216	-0.2794749915395176	-0.47500624159907195	1.946147082086508	-0.7306804903749645	-0.047240721490323705	-0.01167957664447152	1.7023058964617332	0.6462586009516006	-0.11995044419953857	0.7368209123312738
