-0.3548417545745212	-0.05020700355279696	0.27360296800256756	-0.6078341223179208	0.32107862382643426	-0.25627870650220735	0.28280382930199527	-0.23972173034117802	0.24465551233169944	-0.4255852983524698	0.23542243131790055	-0.25896536561218	-0.34253815552421696	0.44488878802787707	0.2703981941012005	0.3357532343659989	-0.35413515682721186	0.244863928162657	-0.21439925881094396	-0.5533453143296136	-0.06244075038954771	-0.23379295002548559	0.45698623490390106	-0.0011458111319174018	-0.11126232411677303	-0.17531415141971593	0.23100640251175608	-0.08334334415510372	0.4607890792061514	0.23051022115700193	0.3069094515420232	0.13335683015975072	-0.22074274048707626	0.146966892144415	-0.027959820292153142	-0.1887413482522521	-0.05954826861876045	0.2216702410177676	0.05767809288840226	0.32523331893269625	0.028547017538927178	-0.32068617000746136	-0.2626150573563312	0.007030611558853807	-0.06773924261370291	0.33882121804527676	-0.1967689263424036	-0.43496770625114267	0.9184148266655894	-0.019415372261141598	0.08824913404314842	0.3336002439127372	0.2564037802026625	0.32010250509176186	0.027034426953346086	0.129210266202187	-0.12803509706704938	0.34127582070476625	0.8118198050649645	0.22485561717335428	0.42951865072294937	0.02374220808529789	-0.7490216169717798	-0.0724813218834689
-0.8875204602492668	-0.6143843967318611	0.29623791644697767	-0.13357481279161393	-0.5455169890105633	-1.1843279237177657	0.5116634745240521	0.38421144248208744	0.661352290521973	0.40707010092786444	0.01307036790840877	-0.40556830943700817	0.992310433160716	0.7060222790048557	1.1290605231540172	-1.1858818983671928	0.6400530333068579	0.039958739716606295	0.2575095858688973	2.017116824522809	-0.4717199805536013	-1.6856429950488294	-1.6120645781136183	0.32093648287542703	-0.7293775315033876	0.18900235036668397	0.18258185197509838	-0.01874528642738916	-0.8966221426591428	-0.2136894935666146	0.08822533035395286	-0.46000185779658714	0.7398472463109739	-0.5090049420979019	-1.7218901849577761	0.18767833485634267	0.09914318135974169	0.23865470981890685	0.08524728035959071	-0.4348365517041229	1.549685138899564	-0.2712655064558546	0.5131469577845564	1.1701659160259121	-0.7895747793009947	1.792808294096682	0.16141643326356947	-1.5304737904798582	1.593312961294603	-0.22958656832392965	-1.7683980424425245	0.38340719052718913	0.5769045736720715	-0.2584415756512884	-0.8877593347462448	-0.9284270591299288	-0.43968741371158604	-0.9436717566598646	0.14735370600595293	-0.16020707186796843	-0.9846737004841855	-0.4636055704683907	0.751621164821296	-0.10068593537521313
0.2736961937147646	-1.764459215288415	-0.3033918958729751	0.8775793548377318	0.4552590999132126	-1.413284362954904	1.5569193055819885	0.4869155829106888	0.396609094184631	2.0369796375950475	-0.5231387745135965	0.03088888442400616	1.1578666510018947	-0.9002335993451578	-1.0119336091046822	0.4947494313030573	-0.7566341310195093	-0.0888441131911376	-0.09294777843780132	0.16501759652551307	-0.6822272910190577	1.2602716769053586	-1.6466457714965284	1.9366530655444714	-0.8197519945886086	-0.7078895336696139	0.688173678626032	0.1681237377127625	-0.9528347524528465	-0.2344301287734319	-0.4902095133246858	1.1026270261041926	-0.6965693062926203	-1.3053617249034222	-0.3842194501537431	0.4237738788095016	-0.702310812999334	-0.040824647056102184	0.7085312807180774	-0.2819751201412542	-0.5993363890608456	-0.3282259385006234	-0.37165480968325787	0.03487503431775245	2.124288835985047	0.5160322925375173	1.2321965585532968	-1.7541018184995505	-0.4207919210754645	0.5970194237694981	-0.18704385264106416	1.1893604493509862	0.3845641637723452	1.226736607166691	-1.1802565749542024	0.36633537483826567	0.027888114230906695	-1.3216738723205714	-0.17621957080972742	0.5312143136286455	-0.33570335119760625	-0.05568450119125863	0.7939767610927435	0.044733613756850955
1.4025347968614827	-0.47077457648926296	-0.32598586145757086	-0.5672671301397577	0.49082087782732103	-0.4290695526515975	-0.5871763368625474	-1.1888482958036717	-0.03054337620046221	0.4297529385615147	1.059277030022225	0.5484975316169886	-0.8399683452236509	-0.21299039030577965	-2.0296511634696484	1.039451197354807	-0.9827625146785239	0.219588911353873	0.3295611989245266	0.4569194899193719	-0.8222935711349899	-1.0005816398220166	-1.7194082584300223	1.6516926999443113	0.969603595027067	0.27410979786069073	0.07597030105495381	1.033488438497029	-0.07662514962893266	-2.1917143165804673	-0.010561525163351664	2.1405834375215935	-0.08956326646306147	-1.8952261140321105	1.151023058713975	0.0698587027171151	1.274501536171217	-0.2986953765643296	0.98761704287645	2.63682310649368	0.16468619863007367	1.0649513000031354	0.02554969691882143	1.8324731284108395	1.131650308932695	1.3743114988068972	1.2280071151341525	-1.6049887952689463	1.7446939742245633	0.11625869640172232	-0.7432014143996309	-0.21154746482854253	0.0904177237315619	1.6892168771349663	-0.1575379905524646	-0.5509496090163807	0.13874556214861217	-1.3385778447537804	-0.518406319952972	-1.5192891042992702	-0.7227185473205348	-0.11202645366237618	0.6717646547883095	1.1090757619363025
1.1337917683582055	-1.3622632969608375	0.966818221725916	0.607445712987695	-0.4691737145038726	-1.7947200951190696	-0.7761389884937819	-0.7678197418952296	1.525778064768258	0.18701044370989103	1.0913610265968163	-1.0775984702076298	1.7205003098655753	-0.8700272820777858	-0.18114968221716066	-2.026331225028908	-0.5854294815334679	1.8385788314387905	0.476277745610459	1.2061699546991786	-0.799001648887886	0.28127429663962855	-0.4128084927968773	-0.06216019440872643	0.09353616463831756	-2.4799528963799222	-1.4255028814955781	-0.5673685110854283	-0.5026126728476147	-1.207832115688708	1.2028404862562951	1.6317671132390834	-0.8891712900937464	-1.8628427055507317	-0.30729798695209254	1.6767239235462328	-0.12700768482829033	-0.5079673537515738	0.04172687247807327	0.04607878265129947	-0.3709386305430312	-1.4111244423987706	0.6218311705823253	1.4366623041712305	-0.8107090876771981	1.3093161624668923	0.6086431281291406	0.009436256291713258	1.2721591988151286	1.056993671742131	-0.979456811925253	1.3337459676781032	-0.2012809924253368	0.2744519500873975	-1.309209647730594	-1.150014810346065	-0.3552899374073371	-0.9644880511366193	-0.7400880994257365	-1.7690308469005132	-0.6463778045262913	-1.0920179480392007	-0.797218027308682	0.07346357617779888
-0.3071103074811486	-1.1878691439643816	-0.5875814550967583	-0.524546135347748	-1.2680458330669686	0.7483178455926575	0.9658490769755369	0.080330068852459	-1.1770382344002506	0.0658296208863831	0.037712399922738046	-0.8354008335564493	-0.9967788153493359	-0.7667889780940059	0.44311673481609287	1.3222616695361633	-1.8512939656204923	-1.0217829339393576	1.4175535271272977	1.135405188731912	-0.7909617723928627	0.8745666572804812	-1.865193340903661	-1.533738727099889	-0.5784739435529259	0.5445544725583736	0.43388979003409445	0.002479555026197781	-0.020987661699155485	0.10637830473706798	-0.4821257721998318	1.364232845348473	-1.781676261951674	0.4771052207388041	0.5743641031936596	-0.879814574853903	0.7779229427274988	-0.3809422054420767	-1.2116915714153007	0.10652856167880394	-0.46252403292524236	-0.16481432117840233	-0.6130909809901645	0.580595722575164	-1.43264921069681	0.17879275917700452	0.0024620005490300005	-0.30601726447487493	2.140804000278916	-0.27498107152226414	0.46549337874746677	0.04344341131590495	0.1244372817197809	-0.48413376897308225	0.09374795705209309	1.23169016034024	0.7622548687981547	-2.001982453865008	-0.7655076275832599	-1.752847362029579	0.5692733370380244	0.17398980177312162	-1.1734991454674886	1.1183059362956524
-1.4256766150345341	-1.4634564069385079	-0.21564549252773105	-1.3972584359017763	0.10809077884832938	0.6024119942646406	0.8071078386978463	0.3301989906600028	0.6046057995227011	-0.21343046433753965	0.5998058811666378	-1.8469146423403864	-0.11861285128230539	-0.834045809780411	-0.8205120997234373	-0.16102253144850376	-0.5195139812316008	1.4796274260927378	0.65401903623023	0.06875230915205935	0.15431384618906502	0.24498484201157045	-1.3285639816191097	-0.4535320096028557	0.8613061747042169	-0.86454789413949	0.7141034123557819	0.046352075337611404	-0.4854161337010471	-1.3710670422396765	-0.47209146189452744	0.418309869802614	-0.1948013321671288	1.7299934262536127	-1.0943487245996186	-0.12811656619131354	0.11504754912968555	-0.8338992759124474	-1.2989843182571155	-0.17697465680790211	0.8075832683664489	0.4928338813804221	-0.3767869306930686	1.5534198864875353	-0.5007087510880976	-0.21583513383011507	1.199302177259507	-0.044190922930175236	-0.11685032389901905	1.3453686346674365	-2.5109131416532313	-0.11488242113125875	-0.6184672122985926	-0.27272273867968677	-0.7979822954994338	0.3386724348979796	-0.11827178764251431	0.10417597617100384	-0.2995436696449705	0.7544501427893209	0.9238791814605338	0.8119730518121553	0.322112581773604	0.6560258288017747
0.4990164369394882	-0.7584250131043913	1.0006899146434205	-1.9969950283136446	0.687244699435893	-0.35393233921068573	1.774057652665786	-0.9145241680237581	0.552224066514244	-0.03385942882883939	-1.290486079520973	-1.3684816354184222	0.410250204555919	-0.6685102279402361	0.40750381617425213	0.33615327972430775	2.224323163506843	0.6687660921193654	0.25580126513020357	0.16961824969843164	2.3325462214835335	-0.29213512386264634	0.8077007548938255	-0.7831256958920988	-1.770665671625064	-0.5211163909153936	-0.6520233852615257	-0.048117200285831496	-0.3278899258370354	0.1691767551728792	-1.2035943037697612	0.3718808787452015	-1.0123748964958048	-1.3936737800613401	0.6914165863002633	0.09722361093205076	-0.04281447226745011	0.41340788761071884	0.7153130702844587	1.3688565119444263	0.6274987526693556	1.2993124601367654	-0.02016541044711715	1.1072014318316459	-0.18443444487337063	-0.6778597612680415	1.0145962991644646	0.1363282388625485	-0.2725910895029662	1.2979269846359702	-0.5593787320678684	0.5417128689823988	1.4865443345351246	-0.21972473296746814	-1.1343214616821646	-0.39473624740680685	1.652729389389574	1.5947797972560014	-1.9438506824125388	-2.4658430989933997	2.076228530202615	0.45651218524632825	0.29708712522896186	1.328771591649192
-0.07966787166903858	-0.5695390694200131	-0.42967968476381574	-1.2064933579487072	-0.549609903883801	-0.6876113265710632	0.4632144668650141	-0.8069457997289138	2.0584410064909386	-0.6835125864075966	0.07267240746784762	-1.4346582919228519	0.11352545963029766	-1.0577086385340124	0.9017047865201808	-0.6813168567350412	1.4029470863122007	0.19650040905932548	-0.6644783205670785	1.3799884140217586	-1.5883687079228115	-0.24991147112619885	0.9821148633645889	1.580790636642783	-1.1186188328025575	0.016532486800467518	-0.8295340513581722	0.022917598481268245	0.9118856627671376	-0.06540522351721606	1.055353094944667	0.9170922725182897	-2.6269990649284547	-0.18875565013339435	1.4313904039518435	0.13895196765467957	0.1376216076552735	-1.0608238006876765	-0.7420616552189631	0.1795404336671402	0.6561704040258383	1.1019394395906188	0.1557640412753312	-1.417588535286679	-0.1708919154125364	-0.0013911114199577738	1.0851510429578943	-0.5241368279496397	1.037715910554054	-1.5319640557303082	0.8669370638598737	0.2808709571210726	1.387502789015393	-0.6216686296097609	0.43468392340017176	-0.3823121915213192	0.31120420031825624	-1.27562977756088	-0.020786706571522234	-2.2904035337565345	1.535493854176829	2.013832739055189	0.795908399125357	-0.9839553021436617
-0.5310458115851244	-2.351665258653363	-0.4527571257719058	-1.2148241878503625	-0.49988271923302685	-1.1088706058583322	-1.160863936525168	-0.01472928625316227	0.20352614571913435	1.2523006523598965	-0.46631694845030064	-0.13063633294972216	-1.5495723370000618	0.9625432998464671	1.1524585369213503	-0.502246714649603	-0.832268681024213	0.12158761336157968	0.8650931772668903	1.799722561402703	0.35774550608838324	0.8070812957342341	1.6584305144361884	-1.7792163634150797	-0.058648655904606675	1.5588783811389233	-0.394094054057925	1.2911521540760504	-0.6048750405397404	-1.7597528070447055	-3.135583782407094	0.5112641090400146	-0.4684469479396859	0.9315295636260802	0.8113141235564586	0.5584575715815472	-1.1284394295513485	-0.8765365825051925	0.1286664307764001	0.33559653757313046	-1.4318810896551493	0.15388724851968102	-0.9052942092321637	-1.1066160919972865	-1.8459201478280216	-0.9536553939617192	0.08091885117376123	0.6549152693355172	1.8058925103693975	1.7678749435413927	-0.16655444226494556	0.9597533707925153	1.999087132667204	1.6747604838624606	-0.3538099151843453	0.873804954240537	1.1123376856608211	-3.0182816861843844	0.931479196835362	-0.7851441432115734	-0.14042398049632443	-0.3025142305719003	0.6196753456616316	-1.6829521723081733
0.2665173000752184	0.2060719862443345	0.5182008766552011	-0.15022141541419057	0.41029693273123063	1.4637265122238556	2.624326928467469	-2.521091373248286	-0.4798778775279248	2.0461808976636413	1.0715709986371078	0.16014025768601528	-0.30750161856565156	-0.1699161701550424	0.9602630374962187	0.7630453551058348	0.02499841121080407	-0.63627828147983	-0.2336267311709106	1.9701814752292905	-0.06690670840990862	-1.1427260071111291	1.0976369422883339	0.7887808728909294	-1.2062436884329546	-1.2578723635202043	0.28103782579841496	0.12905217813004638	0.6408436455350343	-0.49727288044036455	1.679782737440984	-0.6034802439588961	0.04091564168435194	0.2117383779230915	0.494145817798193	-1.001371959797211	1.3719540622480983	-2.059499498007762	-0.058978997061083754	0.19218934829089002	0.1143266205199772	1.0929861478303726	0.40485084549318107	-0.770161695403375	-0.6934281886196838	-1.2539936663945952	1.7440228606511858	-0.20953651006402677	0.910493694677934	0.16328985783932573	0.04594051758701301	-0.6744228366146849	0.9068493972549381	-0.43206545476124575	0.3005900841576128	-0.8526714769281759	0.42594143689969505	0.8211744094355363	0.36671809151745466	-1.7635260067688874	-1.2356545670347021	0.6040371641532263	0.4422633708808328	0.4477376643546117
-0.5157590264370725	0.7181821365613256	-0.7990625493178073	0.11155212061657101	1.5567148795444605	-0.9317018142040927	1.219212172866232	0.9819292980876708	0.5338701514059735	1.0045081785644039	0.8043048285596562	-1.687716833664589	-2.0341857151553544	-0.4444642631652898	0.9594784161431975	-0.920407347786221	-1.5190064223160378	-0.7105321332319421	0.747125924233836	0.9986516188568532	1.5208822268650384	-0.14337832580429827	-0.4994533643469739	0.5570068877664243	-1.3091829782036353	0.008558923630570587	-0.9064212970899551	-1.1291074379721964	0.5903378835934469	0.640822148726077	0.7790418781270871	0.10796630168138867	0.1972101564152974	-0.6330411872590546	-0.8459085261847343	-1.0052365571742616	-1.6787544607472062	0.3752355280351735	1.7252914720416037	-0.790387685013182	0.6486736100323351	-2.2324940745608775	-0.8878226987816198	1.7627277085944513	-0.1629478510534215	0.2158010576328258	0.6781104983603035	0.08962127174040434	0.4554284452494131	-0.3449137122171706	0.5137577002690243	-0.6566715898380711	-1.3059494860398493	0.044464028239348606	1.5158692084719538	0.43586525385605646	0.8739247283578274	1.94191774780951	0.39959761711236497	-3.066148833725031	0.6083719047219062	-0.7622076369764089	0.8072929397229798	-0.1134107738515179
0.3064640866509878	-1.0437585645326677	-0.12518374736698884	-0.07529142325313462	0.06643166165282707	-0.4240398002440448	2.1079996903168654	-0.12221732279220814	1.5511321325676966	-0.7916383999654987	-1.073964192713193	0.6819707753415369	0.14604605187504396	-1.4361790726498227	0.49749883757811697	1.6909852532953489	-2.0370703470346183	-0.2828170610704553	0.21879747256031767	-0.04494129830387832	0.21991687794523415	-1.5103017145398856	-0.06276349336867679	2.1884830445377847	0.1706671239051034	0.09970029394810555	0.854587238074736	0.1380189424602959	-0.5758746902631237	0.10511796078188457	-0.917696052968349	0.13523478176644943	-2.2599561278809657	0.5577559906993473	2.2915072247451236	-0.4912175022472071	0.2661187868205432	1.2918260917970568	1.2717776236217733	-0.11136606307213577	-0.03746890463342408	0.6862727910749764	-1.1730925661190275	1.1596901102027695	0.044309690694011764	1.5923224933728282	0.49715653101449203	-0.06278911052015825	1.6468138727956294	-1.3018095042595546	-0.44849913511082135	-1.5485735292578562	-1.5639980594646565	0.43474167621655546	1.6164923796326542	0.34174413751830574	-0.29785779890683056	0.05175777994883337	-1.015898463205727	0.5332786066629471	-0.39352263053486825	-0.8230122809387188	0.8555063620503693	-0.8559887456335911
0.5313702375011111	0.8309564754266587	-0.35046501388579243	0.6587137090380312	-0.8272023900516925	0.4195471512769137	1.9546152463547948	-0.6418432974904135	0.8785729087986045	2.3332045192141466	-0.09177969798852807	-0.30931822923232233	0.28959235739087946	-1.381657804124661	0.9246603460450982	-0.8818617264234874	-2.172630588504632	1.2578305839837762	0.5730612871395714	-0.030624965813018143	1.934448327058171	-0.46770184705704315	0.08230891625981356	-1.4645153196016096	0.2263592060958763	1.7610946661507958	-0.43789248975032563	1.876270004255828	-0.44044864753137025	-0.8861707638624997	0.413858577265034	2.14988110901964	-0.7527742212099617	1.972351212807283	1.5611273584121648	0.33778525981584895	-0.9475991788129389	-0.6250190738471626	0.32556059375323226	-1.2724036309829256	-0.4431647557848064	-1.5350425646261725	0.6353540696702723	1.9163029268244456	1.1821042367415142	1.9610407697835843	-1.8748256499389993	0.16290370815877592	-0.49449734827578207	-0.09603444719506862	-1.0685594193266654	-2.0282535762539693	-0.08011319651421296	1.4973737289640263	-0.09024453436370827	-1.2398551932577069	-1.2674708978758884	2.571280551173172	-0.44064295965168465	-0.74988800704789	0.15079477769126506	1.400521189807305	-0.2369284293451373	-1.2045106211906897
0.9360999784476854	0.11388840153054908	1.99163506986111	1.5971785434993857	-1.147963838687185	-0.7289051116941239	0.9629913493270242	0.4142960255405632	-0.6380507701998299	1.378787997559045	-0.5261787172752597	0.7851156639893703	-1.9907124617080951	-0.6036432777437403	-0.046137388890369425	-0.5759085316911282	-0.17202373820560385	-0.763543185915948	1.9525431814433263	-0.7629451897952778	0.04214407213390177	0.8015573751961638	-0.33355937290010745	-0.15350651362239862	-0.6767190938006729	1.3561933803912432	0.06259180750120696	-0.8442214850067961	-0.26823805908751186	-0.8729818075361626	-1.3010617936833215	-0.5496660358764588	-1.2121753499839523	0.7765055967614001	-0.3927370767915125	-1.317053354622567	0.031311592297612885	-2.743620283528734	-0.9984890198050473	0.7322344749936046	-0.08434237900220456	1.2981357963862048	0.03358451642094257	-0.5679138639661728	-2.419000330379587	-0.41667907403180243	0.7660168956829966	-0.40224621052863685	0.06399882216975983	-0.20189036380070727	0.34881034904830477	1.1091994908650251	0.42840426760357825	-0.11738959554936229	2.598581100704286	-0.4681489425892833	-1.9744787663574437	0.6289218456824617	-0.008694115835546894	-0.7270943686590464	-1.644860021044407	0.8421935651218512	-0.8294042105311819	-0.6546860823018243
0.1554199842253883	-1.8306587585440268	0.7194307790662345	0.8026273763320673	-0.6493899073882653	-1.009162502858887	-1.064991120393468	-0.2716735465880604	0.4219526914744484	-0.1721148375669127	1.022628715513294	-0.38850686394766903	-2.6571164098867257	0.3657507884395111	0.0012330289271917144	-1.5847839932227923	-0.12477216500269481	0.416541792602099	0.9566077809379636	-0.7240373499974658	0.9272183586231331	-1.978012716062552	-0.49773942028958346	-0.3530510062823148	1.1780423257561956	-1.3816290301900374	-0.559539034499554	-0.4982636764950748	0.8612932884745421	1.993378788268118	-0.6894401903838786	-0.8718262044230258	1.1588929543123534	-0.4199477160716879	1.1881279795944542	-1.1370468156593563	-1.6248544251227612	0.9888350081518509	0.4692220862002369	0.3574341253593147	0.16511188096356846	0.9909510297770902	0.956606250341522	-0.2855064032123727	0.42284915126826006	0.7927404391678684	1.0755033015342115	1.5945101879414842	-0.5612618135482362	0.6893952163512979	1.3232863787920057	1.1996491628030324	-0.26042105502043483	-0.5060797899899635	-1.497787304436999	1.6947822515064872	1.4715006510186714	-1.504214731788699	-0.8109027414958765	-0.21954735635055156	0.0506194922002436	-0.15758729014761041	1.9010561463583744	1.8571861269016259
0.8284925891336152	-1.489295256017265	1.7408409135285647	-2.283355176754619	0.5408697539501703	1.5114664567866771	0.9295555067061696	0.49820045408922664	1.1511281587219746	1.813394988734744	-0.07363382165111344	-0.15293087044333495	0.3076549210159931	0.8749494929215407	0.15619515745207127	-1.5582874499879387	-0.8742288840399023	-0.6020201008927684	0.5055922924139158	-0.32584360984702126	-0.12259130589619939	-0.6972195845948643	0.522865638527708	0.9656275888401613	-1.0969843103579977	-0.031094093118291064	-0.37883914219615283	0.6941470991111609	-0.8247246820085294	0.4605071570285308	0.1190066618705319	1.1014165196876753	-0.9761835338800046	-0.7120855605183855	1.0300601129214457	-1.0293392970803497	0.0654445207155884	-1.4148468667923715	0.14168489776996437	-0.10070951481039908	1.0005585521944254	0.5853219068228388	-1.5635925178915462	0.5154826731928314	0.44354493375966486	1.089764484455016	-3.0006905350468034	0.21483378685866397	0.5531242083249622	1.6600562752023338	0.13468097967423315	0.36594216284371056	0.433939946550497	0.1547371899171176	0.6588145896655548	-2.9855484939912182	0.5544406717832305	-1.0625273265980832	0.19569758457057548	0.4286625311694107	0.8089286334677257	1.6124284507690065	-0.020902104141145926	-0.19256043343463386
0.28736144608417796	1.0277182442835227	-0.0473603229383425	-0.05836752355093748	-0.5206448823793857	-0.40803484422938746	0.6302433103299375	3.264253458822209	0.4244014409186825	0.23124809669340612	-1.5913196222679165	-0.3470874462770585	-0.934533433522853	-0.039213499428098104	0.7050299517796723	0.5571889990042641	-1.2167406569015544	-0.10062610376260464	-2.2189189226398858	0.5539813479972705	0.9221233165539456	-1.662143871218525	-2.1720840258322522	1.1145506605078142	1.2398314105784922	-1.322917300097494	0.11456325256698599	0.9868489443432358	-0.017045211862062197	-0.3820300955449161	0.3207383019062716	1.2504718334756215	-0.4460536392493055	-0.10285037465623402	-0.5811508202395186	-1.7541573762708766	-0.032687498748708715	0.35518498576145413	-1.0361093216997574	0.10655012960093825	-1.6465279948592881	-0.22495724927287045	0.184927022864676	0.5862159545583271	0.007735233574150882	-0.676501065674201	-0.6890551475059935	0.7915387314768555	0.21718143959776248	0.6365452515856376	-0.04736407932757654	-1.1840672309974327	0.6210052050851562	-0.01948871537572808	1.7247874823374703	-0.592775741568558	-1.6462614770470452	0.4343579827143933	0.272013106425918	-1.9439416859353063	0.9520567807724196	2.7930139825509497	1.5495975264307378	1.0908589476730814
0.35601271006554086	-0.525851651956398	0.21132332080602984	0.1929884499128288	-0.7821422696622191	-0.10175270612919209	0.4516573642357828	0.5086914597486946	-1.1384962077408638	2.941512296823368	0.02917579343790127	0.4186932348341111	-0.8375228652822726	0.4115864153651061	-2.065673315049749	1.3585761957501226	-1.2960562476163258	-0.2417511532376072	-0.1350551624740636	-0.37721026174561334	-0.33180237115677735	1.195682255000225	0.5440638676081301	-0.08023309564671639	-1.4139110489086921	2.113979708142986	0.5182687998578396	0.646273484821153	-0.2986189738245027	0.6948564579723318	0.10422105117014925	-0.43433446967586303	1.2230717904641517	0.843316926755266	-2.3397834362818344	-0.9671260867033982	0.4771814701627516	-0.16140079559666806	-0.10545875604941568	0.4939833330307994	1.5237246624954395	0.5085208230916006	-1.0270188294787226	-0.0837193604456813	-0.2370803991165919	-0.04715411805282849	0.4865255035772791	-0.7053474333613216	-0.6525520068841557	-0.43234099640121754	0.4254643903897807	-0.31207812674650137	0.5414044004475957	0.5885843765048452	1.1177613461984781	2.0418142897775837	-0.6151017273068147	-0.17625655701793705	-0.9279505457166333	1.2489371961410587	-1.1494862447437177	1.6617228104274613	0.037345122133397975	-0.2550991806714264
-1.546717027363345	0.8200650394731557	0.5409116156186635	-1.9984297356618004	1.2097910500017082	0.9892662147812618	0.28515924695645856	0.4911631432145822	-1.1577999120094316	1.0753548908553552	1.4299338031156938	1.8900673913194448	0.20572479284904643	-1.4451950193541991	-0.7270611757333617	-1.0130513788864532	-0.3743124042108494	-0.17703725419377872	0.6038930247369573	1.3521267321328705	0.19100646886190917	-0.2931884204158168	-0.17418263758946803	0.28192253793993544	1.3986389254784113	1.3084426799932942	1.247091436517889	0.3638490252062209	-1.9880737995246271	0.3910826002401701	-0.6427217643530194	0.10002598611666119	-0.5165815145213088	0.18853694951257977	-0.002451852818834093	-0.22403104352470704	-0.9798759596130346	0.38453635871841224	0.1879189155147946	1.843909330552161	-0.7269691501161757	1.396843349537802	1.7935008395408016	-0.38331742311319816	1.0411247743818466	0.735653504903827	-0.36275924452940717	0.09231001354956488	-0.9081683920251846	-0.16997959344767066	-0.9988532373525267	-0.06188922342600414	0.4584500443823521	0.09426145295987892	-1.3938953571169281	-0.697868815885259	-1.000309513306244	0.3045797447412301	-0.36602789754815346	-1.0190820368942837	0.6671665347183435	-0.8143268455572247	0.14278589652716536	0.9508512034252902
-0.4960885424347658	0.5883733593561867	-1.745229868728234	-0.5340708988568657	-0.5260158603114247	-0.3454439526909182	-0.011028557030318912	-0.9269533658576132	-1.3817332300984946	2.386564516576581	1.0306847354147215	-0.03677731239407867	0.6268265799696557	-0.43120809403653204	-0.9252072788254426	-1.9362581701357655	0.663868023374472	-0.42818844673874773	-0.2874502129096667	0.2880284128087695	0.9459836394348156	-0.4253196692664379	-1.2346537245156344	-1.08146238292551	-1.094283668941856	-0.35325914138029113	0.2862353662122892	-1.2960821553163169	0.21937324861017146	0.8958702849704269	-0.813144864905131	-0.25463886208846087	-1.9486730785625606	0.7956865569683325	0.5558356409231601	0.725451739253417	-1.2591471601949416	0.26587269924479795	-0.024964170600924207	2.2960869984783017	-0.14474269565309192	-0.7492786587784729	0.7546480419725882	-0.09764847443439653	0.16119273767849937	-0.3447389942553833	-0.5677641698461118	0.8886293556056284	0.034631175753631165	0.564768686689041	0.6547856159007834	1.385690990807576	-1.9104903791765826	1.17421148180891	0.3909277113554681	-0.4425830724243597	0.2976609236911854	-0.3242064460559256	0.4741952641559886	0.8121763178004999	-0.40317533595450544	-1.4606592908646963	1.0478905667504106	-0.39097865362789364
-0.7858281694203963	0.25494646587165154	-0.9903776900481677	1.0563908938759	-1.2193477101356798	0.6515892584276947	0.05493475541006857	0.8465448508599788	0.45599652485253556	-0.5341820854254585	0.04323291472048137	-1.6817545586902036	1.6182039858322763	2.363507443327671	-1.5592341871531377	-0.118142870200047	-2.953919387677591	-0.34178325478120175	-0.02873374089875959	1.2085282170889813	-0.6009606817222208	1.1010608398170993	0.2825477222452504	0.17591779767704804	1.1594000211036561	-1.546405714511517	-0.008183494626098915	1.1553571180473365	1.2481524345600812	0.14961303837542114	-1.5818580527283783	0.5960292726019806	-0.8377336406579958	0.23940658851071633	1.134413484085898	0.26450623534883355	0.7583067725894117	-0.6997526682335419	1.1208618364640348	-0.6613929230957087	0.7475405128415626	-0.3823626164880057	1.658482688734998	-0.0716330791271537	-1.3955319868179399	-0.4143050657264157	0.6415234175410724	-2.5034097881263206	-0.7755141495007885	0.6721433291565213	-0.11627430383689275	0.8348758429908676	0.978224892664324	0.09092226029000082	0.8003483897358572	-0.04565987828997424	0.4516337659242957	1.9789749789908784	-2.0932208110928836	0.05391073131072539	-0.039497539157646616	-0.05455147773983205	0.07120972213264479	1.837935994525757
0.1323881590934326	-1.4229268873360794	0.12584343845475504	0.45109988312138777	-1.1495192865676296	0.673939158730129	0.7457298525427638	0.4630795549959628	-0.48151975183406703	0.5881212076359108	-0.6778650167873167	-1.3166807148755741	0.8785994504543859	1.31146128992176	0.394321566211068	-1.4420426075757282	-0.07316693408072521	2.4670106609568894	0.019248549499343477	0.7310557342629437	-0.9908137952941205	1.4124179907889807	-0.01072417507199774	1.130388563266237	-1.0131874197434798	-0.9390633567979213	1.3804593454331815	1.0018556924133266	-0.06111490056167555	0.5617537038655785	2.6486020128355863	0.6453860814580906	-0.9144163789111007	-1.2730619150329767	1.3889064263671225	-1.0097908596049605	0.3680240191165725	-1.633715194050814	-0.9213739539936178	2.2992847734501263	0.5983903732940759	-0.4875483804979962	-0.6774671388149116	0.5539233836228521	-0.49020232368040906	-2.0611112255785495	-0.6290682959522896	1.4401813107798147	-0.8242954682217034	-0.6905506407125237	-0.13836050087232593	0.2583037156182988	1.5520260813113136	-0.4661991292099562	-0.5363353924632811	-0.8397972055645896	0.09007395075595463	0.7564801939981568	-0.41905266231944327	-0.9709684799306544	-1.3670787303437575	0.45609557036588283	-0.35674976951769655	-0.05757751230902434
0.09430864699673279	0.3125511499915984	-0.051340966539125225	2.253813777992674	0.02861950754801692	0.4542909380887291	0.8250173570545416	-0.2705565644420757	-0.5847940826386836	-0.3291307232306473	1.1784094755801444	-1.0585843174790508	0.40792502468089575	-1.3320515022195658	-1.0099718861281555	-1.25791516161472	0.6499108718777525	1.1573646219621998	-0.7401909152463473	-0.4379036428548451	-1.7879057243837544	-1.553839619139044	1.1794280968691537	-0.2667976728868136	-0.4452072066707179	0.12770483960154555	-0.9575480736977222	0.7345393991581095	0.275393365403755	-1.181081363279913	-0.4546795116969393	2.077043081261599	0.46427092504510736	1.2674283967216973	-0.15405717273855665	-0.8620851656891755	0.1089549335832551	0.26321098808944504	-0.06709874227832348	-0.9592186749447429	-1.4985331669139745	-1.4166703761719248	0.10770894275869128	-0.4078289493709052	0.6772851592827893	0.5870652728515825	0.10598622666245175	-0.6239449047708726	-0.8481082295606173	-0.6557956171234525	-1.5104233968268752	-1.1549506428913525	1.1787166078427254	0.22972669060146422	-0.19765773456281738	1.2719456905358153	1.1132530817905375	0.2797862742525711	-1.0076321961508319	-0.041704560205726535	1.7264591010335273	-1.2167879043650305	-0.9558506713279126	0.34332563656319925
0.26819203661986446	1.023715453837022	1.9885450384490342	-0.13903963793909835	-0.17950772917113145	1.032376006394133	0.3343280857669642	-0.027826518982721628	-0.3699013961496867	0.8985919852768038	-0.9304155679730911	-3.0954912528313066	0.023908684071428512	0.2699864096883215	0.5368413697712242	-1.4018217898542233	-2.1645666163156663	-0.8322457825305717	-0.6052962088457956	-0.11999726342752604	0.48026593164762155	0.587221874832607	-0.49211519218832417	1.8249447560990593	-0.2907394791164105	-0.11938397336687315	0.01140167197777956	-0.1713349432465189	0.48520293641943163	-1.4004002365301162	0.7454882418115757	-0.42383398197799244	-0.3254741064909012	1.9553292433848546	0.42412867114269154	0.9364167762428791	-0.6999848922974147	-0.9140448486898929	-1.0352237122353165	0.9400318146560804	0.24259679033998577	-0.40655828540417255	2.203608258745727	-0.49327392652742863	1.5292707340474023	0.7855547903856419	-0.059980461134757024	1.3416225052601507	0.00575309139312083	-0.17604870373383186	1.2508450771473616	-0.6157430450919321	1.3214418726650172	-0.7203640922937367	-1.0109788988542712	-1.1203708078080097	0.2707572615691584	-0.26865256422580264	0.32828743772341157	0.6478161119872832	-0.23478374190551687	-0.531767326948216	1.34588726479936	-1.2748066433217662
-1.4881000767569952	-0.9849875999414949	2.6604326820912942	0.3115552159149324	-0.44307381352429365	0.12703753148831093	0.04951935983370717	-1.0786741363053065	0.2783827094931201	2.0441392938862752	-0.777939294856543	-0.7176263251312229	-0.15294722039727635	2.3044397351276147	-0.019873844903643845	1.5769488688885276	-0.14899403062282415	0.6524502010887305	-0.6652679289163617	0.18975418552428963	-0.5616251893634875	-0.8200189661720624	0.2823296938510303	0.5224151743581266	-1.0123686534853642	1.1652958007533458	0.3179166145764091	-0.02021968447879217	0.8681126384405107	-0.32448165791471445	2.0466075827733037	-0.35111829342957157	-0.3980082037048247	-0.28828824571823086	0.6407753188083214	0.03419649369647205	0.8572306442336721	-1.6219153762796503	-0.481781986126054	-0.04274416136020124	0.7504256096191284	-0.04544631314436631	0.37345263189469324	-0.3052399550924947	0.3490601374382486	-0.5160536911381811	1.6370562916704077	0.14127320261964968	-1.1056387175729392	2.3157568959020027	1.6302495921144855	0.08007731279765974	-2.0751632302937235	1.3385359537896193	0.7508415103622802	-0.8556834483564425	-1.8505769325116097	-1.043626227636649	-2.53171551914592	-0.7272403783126007	0.8225654680699767	2.410335349112611	-0.3266813148452123	0.07641604209979824
-0.41708385287799393	0.015022311102108651	-0.8666091338107937	-0.05861831482400475	1.1941173739105297	1.168773927516155	1.7353676243689784	0.09521574952457107	0.9137082588673205	0.2413680133855456	-0.07688777755775204	-2.0845174736132184	-0.9706664752380467	-0.01801144565074629	-1.1351398209577381	1.1904955345195345	0.8791078533740652	0.6224654012748364	0.36701693151747355	0.1976828682423589	0.5103590245664319	0.48671872944188305	0.9809825195534303	1.5746071693697112	-0.8978148057112569	-0.695421330156656	-1.541209928953769	1.68021857162475	0.04028540945004077	0.23292622333316432	-1.0984337296452993	-0.10496008259013417	0.9655097771514243	-0.8857062270143644	2.550057218158189	-0.8687633149681794	0.5822632936716317	-1.147765497052474	0.793337137780805	0.3120682316805811	-1.0691280030760826	1.0397166420391268	0.8159609292407672	0.10597470065443368	0.5932179349731137	-0.37013200629735743	-1.913775742331784	-0.3874999205190542	0.9369418417235535	0.6931512603939558	-0.6944446489359003	-0.2012594267349603	0.16687967040719223	2.182996841038277	-1.2944176066893778	-0.8856393266003664	-0.7182082871884745	0.7607503297743692	0.376005583415643	-1.204706359516765	0.1926581962888876	-0.9497700102816535	-2.13946349430607	0.8207718807166702
-0.9351600831905653	0.7721864821607699	1.0082926771807144	-1.7703913404131069	1.3744342887611374	-1.229369496874406	-1.712354272344015	1.0429431693716524	0.9207310331163513	1.4781048796492526	-0.5585052250764488	-0.7051702947888862	-2.264531128273605	1.4579524286675904	0.060285354821419807	0.06544257740449401	-1.067974816975345	-0.21361087773932147	-0.48127044191704876	-1.351467811064063	1.3133731529238388	0.7157602504762697	-1.0287657086633015	0.9785203953985184	-1.1318202666587756	-0.37937089824258086	-0.1508055434164503	1.4168277570922803	0.3152270833923876	0.6988825822511435	-0.4806552425572098	0.8873764686890799	-1.755741411455421	-0.1127135797879329	-1.5204289644779996	0.48467120700154015	-0.035776932468974766	-0.17415434020064782	-0.41770397329890435	0.6601797283340317	-0.12284439052548501	-1.6256221260553738	-0.0314634364659042	0.7834440610713937	-1.6352947938707134	-0.5162911426559345	-0.07864915164633211	0.21798342646006444	-0.46727564469508637	-1.5141595365387068	-1.7410110016657716	-0.5213352192504499	-1.5058393901074887	-0.5282083006789859	-0.019438186384174196	-0.19375669122281938	0.1117641565885863	-0.6017520051599173	1.375643594421335	0.31485309093499325	0.4377181047289734	-0.48328024173304424	-0.7970550806871277	1.469240962360532
-0.9148820371709385	-1.9734359742390446	1.8707296750518314	-0.1706449181331271	-0.6372855098174078	-0.27405506788260364	1.7261191154093047	0.07800756732795333	0.09252715158372181	0.7382715342527005	0.9741676649430301	-0.5645376872006835	-0.049323838426639094	-0.8755124457597344	0.9547946792168415	-2.1416786867241737	-0.14366429525510105	1.6634066147972209	0.3069221821203584	1.3721696858245136	1.1086265582683628	0.9490206360110293	0.43838779735151456	0.7471805366134031	0.21170381333863167	1.55422091274232	-1.3130057364837802	0.024193629000301378	-0.43800105230960645	1.4035842097439928	0.5774775986589038	1.497738901656448	-0.6728676785390137	0.820375513485273	-0.04408163356176443	1.5015609645666972	2.364518416391091	1.7383803446614376	-0.3093135695289073	-0.5537662514254157	0.41489353224534087	1.011684746320049	0.4544777807442223	-0.5251415469333923	-0.6938435212659186	0.8361706430591574	-1.2679803482029304	0.0023349921232174702	-0.1909539326927413	-1.579913760299097	-0.5681921661674728	0.12569164062683605	-0.7151576724775468	-0.1465609911921618	1.1602416472118886	1.751219100269768	-0.537758141603092	-0.3934826914397051	-1.1963391135706878	-1.1542954905062555	-1.0616877051206535	-0.10568992705786484	-2.5860714911684233	-0.47781639605805043
-1.0771201400614716	0.10793203467961289	-1.0312264001544214	0.017545538280166802	-1.8503596561428644	0.3295294375396827	-1.2683450897776074	-0.4978397193453467	-0.7331488032740628	0.8630587912030151	-0.0024581877010187653	-0.15471467161871755	0.8932635605401804	-0.2399762887362878	-0.08260951362018881	-1.0803420888096198	-1.1554286075312798	0.21768970589626763	0.6540085968725887	0.6861418052185307	0.43934105231667586	-0.9079737799123859	-1.1913462745799805	0.11116161559748046	-1.1959896573666442	-1.3933308345727284	-1.6797128608188456	-0.6601710002997653	-1.0202771533691346	0.3145106002333566	-0.7980723187799487	0.04762986166447126	-0.31470440498783975	1.6094205098390717	2.0123195638999207	1.4871033089671828	-0.9130276390148604	1.1782187192125564	-1.7625828423524028	0.212152293633344	-0.643915956074687	-1.0590495173332897	-1.3270024595643692	-0.838290920226777	-0.5912936097197742	1.235227599230328	-0.1963422303553866	0.8504621597247196	-0.41338447442108	-1.6682944370458694	0.736071048105932	-1.4511629357332807	0.545036632744183	-0.08538249927857296	-1.1514069309563841	0.7593351180081624	-0.636463597921994	2.0591576277809915	1.4785998009766441	-0.520091236666296	1.3927478703414988	0.541849605143742	1.3241197774007336	1.3545151820318901
0.15644459742375874	-0.2992383793986362	-1.3415052590550027	0.4176519839505805	-0.3014523600870613	-1.4736633018878236	-2.1859044432464074	-1.7978153240544705	0.4363011033337844	0.7464589151246315	0.4916097412667187	0.9321400529734579	1.0656350112218809	-0.49265661214390416	2.221952065652447	-0.3266695038891929	-1.8867054757570627	2.0764496161428814	1.9901746168463839	1.8572546992848595	-0.4458658514451435	0.8065247230193672	1.0386401342814793	1.2376970947789934	-2.2503482810861817	-1.2541464285092754	0.1941224134326416	-0.5781602430660752	-1.6480571488837314	-1.1332850529207026	0.31490518760551317	-0.0627782890059282	0.5768071029218121	0.6469472983724273	-0.3430461167893147	-0.2690861246990931	0.7787444643343268	0.003482526618228254	0.1221586156158437	-0.00755820441908923	-0.329100113362737	-0.8406873380968186	-0.415116236531292	0.6246476806062713	0.8104360660240062	-0.6801299680997072	1.2946195800223483	0.4332393294336307	-2.499899529006899	0.12033831523124769	3.149445670268858	0.16742320330751012	-1.0020804374449395	-0.770620640314968	1.911436509520425	-1.4656013911115233	-0.41027378738684606	1.230419185523206	0.9162457095768153	-1.0924335861516195	0.020726443664245926	-0.40463327147010236	-0.6174064664990054	-0.8519173007710065
0.5932379286362596	-0.2874248758924678	0.5304063604514795	0.5261465362034053	0.1803868622475586	0.9765552086750636	0.4932013459227499	-1.0947046196928538	0.9911316649796459	0.17359154939756263	-0.3849892032608661	-0.5022333106493806	0.7606292170335779	-0.9022959309902855	-0.4510784891466646	-1.7596487363188875	-0.330092406116193	0.35344172818755876	-0.2484663248820195	-1.2413660480523532	-1.7537156629984745	-1.3663209488478727	-1.6468096233488339	0.26004364124528756	0.03632833436111204	1.1226394497198326	0.20550574307770686	1.2149436089195036	1.4480782008993573	-0.11263211705495074	-0.20018714832627563	0.047756436422326985	0.5452160665792589	-1.4664441544686588	1.3043375530091457	-0.2977833076603921	1.1560831412340322	1.5531341993692358	-0.01835723525964906	-1.3263097861504987	-1.3739139394154927	-0.7360300021803226	1.4347884374289226	0.3535549128284136	-1.6481330150856197	0.13747510755978729	3.212387269908062	-0.43571559102265356	-0.05034301840152577	-2.6899384391804975	-0.7025622283614089	0.6761912130859904	0.8231597881952315	-1.5877605269166397	-0.013588740294574225	-0.47508497106743935	0.8141332806450012	0.06250197862174688	-0.528987115221203	-0.3873041658171127	-0.12700690424633218	-0.4447146807935947	1.3967790743468325	0.15339005039107564
1.804714739564655	0.5407610779559948	-0.1824455488261218	-1.1027141659661428	-0.0915583314194522	-0.37451047622525524	1.799995616372398	0.8818193503941475	1.6398420115509522	1.2842629157744305	1.0507689086908503	0.43364790147547727	-0.1215515729190165	-0.15317798814263428	0.031021915388724435	0.7480031642960088	0.29112438293386494	-0.9345725919730835	0.6911891649519843	0.43498946573817554	0.010242521691049689	0.13364085063910044	-1.039212829234733	-0.05089219155301591	0.25668320225321045	-0.26853628859607226	0.9679415223383244	-0.44398226959830506	-1.0213667096542733	0.4505533672554194	1.1467890206257776	-1.1114637646401266	-0.8756589244513868	-0.6697944887499542	1.1570219671771036	-0.9278312876406691	-1.3029111631380708	1.3671757033124006	-0.06897774118418798	-0.7457142534532446	-0.24466772749444132	0.45691647129623825	1.337612314218666	-0.8218049382811738	-0.11701100987111689	-1.238672350126183	1.26399910218171	0.031648326223522726	-0.9614928642241104	-1.3095522296836142	-0.36009689690013036	-1.8042923097739407	0.4122063274892736	0.173943388310436	1.2659968892395035	-1.3551736301812967	1.319154822707572	-0.36360953536405594	-0.6522550550248991	1.0274461977269391	1.642868959051365	-0.20219358900317963	0.651099854822919	0.7390084856071889
-0.40169635605131937	1.1366623135195422	1.138751863212224	-0.3217203981624765	-0.8621639086001819	-0.6455405433575699	-0.09806652092315338	0.602593321479493	-0.3943227563246411	1.7759584774934631	-1.2681471817956058	-1.200061688098515	0.4338929719693467	0.8323890959345809	0.3151394680353495	-1.543785406582512	-0.5504536701498323	-0.12432916388775121	-2.6546142975832443	0.00476577832746314	1.2155845647789443	0.2101969170583283	-1.447129190428608	0.44962808089766504	1.966078684391537	-0.5026260352289795	0.8217576102955858	-0.5743905086497196	-1.9591839291112503	-1.156188591332442	-0.502480008465594	0.6623790440186835	-1.4006158722348667	1.05180363118898	1.4812177202798478	-1.4491225478208276	-1.0196744304736005	-0.4897573710076484	0.7621733344360501	1.9594090953996774	1.7080112187947487	0.6172960441564269	1.0408636474463664	0.2639628296741067	-0.06939691191515207	-1.8260528962421885	-0.9676712023784438	-0.5063707570975619	0.8429298488212736	-0.13633922480623142	-0.03220249525231961	0.31072365042523065	-1.2519897519573817	-0.8511151093580834	0.284595102957455	1.0701135831439759	1.0993254879609706	1.8768021261842462	0.7316124082148557	-1.245874584889143	-0.7432710926366236	1.6694758039589526	0.7676611880876262	0.6613976286612244
-0.7574227906889778	-0.4741654515647168	-0.1847657522183838	-0.4268107181657393	1.7226282161461843	-0.06890954859263221	1.8500578355101585	1.0159422569553689	1.4496691775351687	1.743887665475661	-0.020040779617246745	0.7743089237376024	0.09595558002881308	0.3455172565615373	0.8631329287724072	-0.1828750609860732	-0.6706924871258115	-1.1888027779360637	0.9640552051244474	0.7295568302537643	-1.1425718960150673	-0.7603704627787511	-0.22509794723683116	0.3234467676752626	-2.3532801920584934	-0.7903771149754845	0.43193211950270255	-1.255218330112419	-1.279501467046545	-1.2890810103650798	-0.19807640298756493	0.732437397091347	1.0967402608006287	0.6593728935135773	1.8875480119322097	-1.5848356018416556	-0.8128731603388452	-0.29884510482137294	0.32449446545435856	0.11638018723439314	-2.020018220665137	-0.2837219934708482	-0.09331314327091601	-1.2653411290855128	0.1408469858682554	-1.150731232076133	-0.37314668571910875	-0.9851953558370514	0.3017686595286908	1.571890402291025	0.5549098280078042	-1.3857826766936445	0.7911979606281038	-0.8847247643589341	0.47497424673086047	-0.21097283865047403	0.613379588427185	-0.1417529688351569	-1.3603218880196604	0.5247666051829554	-0.07716177949197082	1.2445809197534308	-0.6207879284850493	-0.7309910037670134
0.025920140528865324	-1.0575425000560923	0.025279118078024243	-0.9427964071127396	-0.5341263231547186	-0.47227696158312565	0.7325262631191842	1.144379020290537	2.71586088286403	0.9993668769806578	-1.2113069803221224	0.3223650503169453	1.2729835512515766	0.42487547655617613	0.5723046931681984	-1.4392439814336742	-1.1885911809938141	-1.7984101334895077	-1.6414225170118444	-1.2072240269956633	-0.05053656961975066	-0.7078499972000696	-0.7444934614195767	0.7478330277918924	0.6673150301111659	-0.7367402925881845	0.1167945133322121	-0.8124367356325711	-1.0259049407932226	-0.27758444976417374	0.30474725620303855	-0.34678199024883727	-0.9643020002956388	1.4269702808681737	-0.9192678297768141	-1.2020468894388383	0.7041094245608706	0.5121302876532915	1.6202151480837432	1.0214799956992553	-1.3318635216747807	-0.20097251729861224	-1.2195064282270762	1.8585250830244895	-1.7535240719014291	-0.28105405164150576	0.21746064816706712	0.46018175205351936	0.6849119734310616	-0.4806644872467847	-0.5232103420629324	-0.7499491270269936	1.3219969365635436	-0.01806018769716661	0.040433569842463477	-1.7567191216162854	-1.5126378475268267	-0.9338761036822906	0.6036117741947521	1.9575322712452266	-0.19889125907595243	0.17056482156883854	0.13030019131239554	-0.04659091268941049
-0.11816757717411437	-0.528611469590411	-0.29657762062818555	-0.6557140313760164	0.11542904630279492	-0.07516558878211152	-0.9981364562239575	1.7872905925218976	-1.1447536729543637	-0.632271602841104	0.1474749603212629	-0.6238796365807995	-0.5420223993943174	-0.4971593251461822	-1.1203090769070159	-1.7053353143022008	-1.4735665838888115	-0.8646388593481525	-0.2156589629880537	-0.8296590083335471	-1.659326030600245	-0.5051672174186193	1.3009818904030612	0.9130061222846555	-0.11052586209198981	1.2000859738620215	0.9126787202302621	0.7416191802763881	-0.29237455372377064	0.7371048384986288	1.0513949435867092	-0.7979225761660788	1.3042244925850184	-0.15546123071426174	0.22000593046350886	1.9232173174025218	0.5755063870973566	1.323591538283012	-0.10809108377004356	-0.2680845978295176	0.38419156566434715	1.1064975753174842	1.022173679004536	-0.091902860539647	-0.45924212736344994	-1.5433732971280365	-0.31920662787490045	-1.6305442784141175	1.1414558785909492	-1.2525603253014803	0.874833012493685	-0.7460123808129415	-0.7044393402073219	1.3522865508438757	0.10166279424185784	-0.014851650522274638	1.8509654424683468	0.36582687841721556	1.2479014323884725	0.377556081143044	-0.0037642224088564264	-0.350291521755011	-0.14655352312520833	0.05217735436514579
1.8382300221330172	-0.6720843165805342	-1.783501949111036	1.3837310697679255	1.5829209169593843	0.868476684303282	1.0254090824357192	0.172329160575994	-1.255824051896788	0.11719406567967441	1.87598191972512	0.1264235525569729	0.04222416260956053	1.0231556180604873	-1.0020479256966526	-1.5671621711841102	-0.5940723258216462	0.05772169576456294	0.6191108465274644	2.199236170727323	-0.5946225218999833	0.8678458207637965	-0.6278380363150244	0.24565349975867826	1.001114429144291	0.20352997857639946	0.3405902181415574	1.0398820035519505	-1.2178171606037318	0.14844597070982232	-1.352270667604707	1.3538575776569663	1.70981185281298	0.013357201464200745	0.030567168741553786	0.8270707680291076	-0.6623104726745425	-0.28355112647950736	-0.6377754182025829	-1.0753755389159907	-0.9125742990269439	0.7035961180576531	0.12369684297089288	-2.193578154935805	0.27334012617065684	0.9834381292893523	1.85548181304182	-0.3986037895687795	0.43307644543932966	0.36382546060723897	-0.6115586777343482	-1.034980963758749	-0.3504125767441795	1.2505288470358733	-0.2996927432975748	-2.0971676842222644	1.0745028747780647	-1.1101388701049002	-1.5127014787107238	-0.6191861707932581	1.11208651069539	-0.5947470586643513	-2.1781277238996606	1.240511874165231
-1.8288815694735845	-0.26300740017432195	-0.27346867812244907	-0.7205608778237526	0.05804896257306535	-2.2836621984459344	0.19436561771809968	-0.8216924262368749	0.19297030194170492	1.9055797383413704	0.4758864710060024	0.4089165949568875	2.0582454099592735	0.9135839833627433	-0.5147139670521268	0.5772424627627801	1.705465435100315	0.07865290604141884	-0.031963394015720084	-1.0775643566116742	0.4372924309774554	-0.44235278346415213	-0.19139557968175672	1.9720151920107727	-0.501529784498055	1.2791028434388587	-1.281012917074042	1.41652196096555	0.8407146587315758	-0.22603000312503377	1.42753263955822	0.6657159463317268	-1.3972772139105798	0.8258379693660388	1.8585547621316911	-0.5039648842065001	0.8099169232130786	0.9520188802193447	-2.002173275445078	-0.39004446015981986	2.0045933473972	-0.5315143352599451	0.07280169942545832	-0.6270285922825937	-0.8146371218921625	-0.22028912822122826	0.7171392562207324	0.16746618350928036	-0.3625602679059829	-1.6468261449831294	-0.196144418446319	0.10661116469785775	1.0769582550632164	-1.5713570630779103	-0.22749849510826187	-1.4069983881852743	1.1206018956319515	0.17079373007510076	-0.35120883445401246	0.6640889071281955	0.030309043248692845	0.2914348110187429	-0.48393187634807244	0.8199482968021095
0.4059084484094038	-0.95779726135481	0.856838873789742	-0.025100266645970357	-1.950353028326655	1.1243184971439755	-0.86182402067882	0.8631344837120954	-0.5516412925557164	1.0172906776362134	-0.6808054279482217	0.2915096267910268	1.6557005168947292	-0.8703194207645509	2.3183005252994104	-1.9151555205567221	0.39116719157085883	-0.46247109522659047	2.5347627112686313	-1.363641589836983	-0.4221078348144169	1.5354961390290969	-0.7736864053818675	1.388627369396012	-0.6286549908312441	1.094769044890869	0.6549439605989698	-0.19471401566715565	1.517204051429619	-0.357424657731464	-0.42788486985345703	0.1992647361323563	0.9480451076532989	1.246768863169685	0.3994259299638639	-0.24839314342464675	-0.36585389999710805	-1.9893759104397144	1.2915891388438616	-0.28186234550566996	-0.47539237007449614	1.4202220171732605	1.6321293845719749	1.2867478148264686	-0.22812101161672516	-0.3039160186214169	1.7664194942880378	1.4994890364106357	-0.44590052159575494	0.6959856951936766	0.15959229224526666	0.23428180895144532	-0.8148509765974483	0.6528977482209061	0.23844659857524172	-0.5585781648464696	0.44432553150552434	-0.9624039997970041	1.3735853896971335	-0.11418634805084275	-0.5247512818044487	0.6588549784070922	1.5188107168158123	1.4868050105392068
1.0006635594393598	-1.6234208969143307	-0.16206651585626075	-1.6109749175829113	-0.9098663564519655	-0.2994821070517949	0.35194770961075766	0.37245121582483015	-0.4244053978631851	1.8653032468033408	-0.6388367591249142	-0.9205134234280513	-0.06414765149934577	-0.19889079473740792	-1.116257436714679	-1.8072872221867167	-1.0670702460208545	-1.5762185694722959	0.5268757772489389	-1.002657664400554	-0.39018518020237447	1.6022046767747145	-0.31972312283716764	0.17897602143431368	0.17576757675215307	0.08647717612627606	-1.6751943795206736	0.49668669791506304	-1.4240440206372662	1.1572690149559661	1.8547657165037459	-0.03799257303583976	0.29934664856218707	0.7636741234832755	1.5112121785263948	-0.18986510701520828	-0.3655096452223889	0.6423869626277604	-0.8812787060848241	1.4076063080806693	0.36107411842600257	0.8340833422100852	0.8526524567783228	-0.1592443062750402	-1.970288269874101	-1.0506811502156121	1.1145030567497534	-1.3886935498337059	0.2063361959772624	-0.18755105218207774	1.2202271208585995	0.5429288286530128	0.3096131670891081	0.6224991216907478	-1.5052315776064296	1.8454258817720615	-1.8467076702127478	-1.018356525483011	0.4526771060916942	-1.9561867548847343	1.0169411727251358	-1.128637488685594	-0.40530787553081854	-0.23100797471680978
-0.2976326081092033	-1.4234054847593245	1.3121826084605885	0.384536665001309	-1.2968885617982626	1.017043842094001	0.9725689537962113	0.38265121148013775	-0.09314634957127817	0.1708161149236606	0.4150259045681203	-1.2496865860616468	-0.3854129738046205	0.12119149940203183	-0.043724060961747205	-0.3755628648676484	-1.0752022784070052	1.4083535056408527	-1.3625612377246976	0.70363407717612	-0.49106084492058655	-1.184525177214943	0.4670404149640275	-1.6242269347946705	0.5166253704310299	-1.606393701515256	0.27308711664939955	0.7370989505392532	-0.5445709520269878	-0.2796444302559877	0.6653867161597907	1.1874919794363437	-0.6898420010362083	1.1034866094206455	-1.1138202384204177	-1.6182677064929785	-0.7451000593124678	-0.3258593628668302	1.70410066834564	1.6667088158261991	-0.09819693196461068	-1.0713101432476653	-0.36748075499876276	-0.9279156640282783	-1.6614414922275047	0.6318741504894718	0.08091029709241973	0.6716660618750858	0.44678852538678626	-0.339973874125148	1.0270487306817164	-0.6072825882790113	1.9669097036391936	1.8575519656149673	-0.14780180095802362	0.7787645694348069	-0.2752374873991077	0.2348970205699551	-0.27119780271730537	0.11837413520737568	0.7097739498251047	-0.7711760736219865	-0.5962724650499103	-0.07825650493353545
-1.6112390097199627	0.44802138747459375	-0.5836573217411771	-0.320561240970625	0.12661226095971181	0.5001158736567358	0.4027956334407235	1.8582232726511516	-1.1054552516451435	1.4736196502455596	2.1923074880315325	-2.0177211310098073	-1.05536878041795	0.6617281696675255	1.4925701254141752	-0.7021402187437411	-0.5813628814481536	0.6241091197936007	-1.6689442878169605	1.9028612111311503	1.5724462385403952	-1.7483385585702405	-0.9274204794590697	0.9864954380172992	-0.7246702476071218	1.043497028120411	1.998796701224208	-0.9301293214506403	-0.500148999639646	1.0011032900588621	0.15401000713424404	-1.2000638419861422	1.3569703535739133	0.29965940878952524	1.0490708999825604	-0.6387889122733765	-2.195914192638503	0.2234418916077359	-1.1370652172068334	-0.22488237034089498	1.7707162378547856	0.44169968423278655	0.35294684977891616	1.0755928752877069	-0.7386706436725035	0.7047873550565958	0.9434994729456224	0.8828003977939702	-1.349280096548396	2.0087368403258874	-2.7512450993913973	0.12950548844622506	0.6385625509760754	-1.3328902889649101	1.1166867062825647	0.21564870679015247	0.1302957164777476	-1.0139615509782651	0.5983078615518277	-0.45309509035614265	0.28761300394229405	-2.9818082051739943	0.42666142050956357	-0.6368767093576634
-0.2881174927818114	-2.471413441784138	0.6466217043706305	-0.07951842915553485	1.8942878614978158	1.2989418131569552	0.013403969825858357	1.4743148295248125	-2.0523525343129387	-0.09979126376605008	0.16918657307710835	0.5959347394329729	-0.3523552219478575	-1.9959819455154622	1.8773574795036148	1.1101209975029442	1.3631278054296718	-0.9908775188827725	1.2000871689223183	-0.8347585685830027	-0.706613804184855	-1.104014778886506	-0.7154940907999806	0.09813567861443138	0.9064951576052379	1.0295977082982248	2.1234838354129537	-0.554575462894174	-1.1343212835649934	0.41749370709942824	0.0415034127370911	0.427474850518079	0.32150199484722736	-0.6096539442830097	-0.48733077288431653	-0.8233391840881856	-0.7875126711695132	0.23629060301470345	0.5771539522186088	-0.4496173854979706	0.2357292037618326	-1.1023994059399083	-1.1041167915648677	0.43337507793521485	-0.8239860300796665	0.4303020583261476	0.7174748850555983	0.8328120022322827	-0.11704589854996036	1.8447368823652703	-0.6991285163109511	-1.3613838499442177	-0.84764016673367	1.1657308065771625	1.2778804085932074	-0.537342473530708	-0.9732440133775005	0.32615588414910457	-0.2761716561327561	0.2073530816992664	0.6006030225230952	-1.951265296909916	-0.3615293429050378	-1.3285889508319821
-0.520050574694282	-0.5361650047456451	-1.6051362809861738	-0.28261437901018116	1.6361230417379984	0.29693680024569863	-0.28679843154957685	0.31492507947468923	1.1604137023387966	-0.1295980946875461	-0.5481496950292657	0.42402863221606035	-0.8045183373115679	0.457987153514675	0.17269090749366797	-0.9437963153269904	-0.14251672913285438	-0.47417964201337515	-1.4532661276872005	0.5605002117872632	0.34959453648693417	-1.0848309634146454	-1.0807452365774728	0.19232815206656478	-0.6733362650782077	0.4411243278858618	-0.07282007148116929	-0.5944576383878971	0.2243290391638746	0.01858189424366098	-1.208296500641998	-1.2487437990658476	-0.3481321941597018	0.7045551555646778	-0.036227524133435794	0.6326314700104353	-3.3532759875939586	1.0075410159441498	0.8275980007342768	-0.004706892942868003	-0.8480861348128169	-0.8278626014188961	-0.10631505448421237	0.6212735478999313	-1.5577180065634384	-0.2138545465011217	2.105125023175324	0.1697106213151713	1.111686962757069	1.0999744609850228	0.10398115989027375	0.9668301725192687	-0.5237820787970101	1.6963216445343132	-0.18295280577751633	0.3986538830147774	0.12917762730712892	0.25755378639745496	0.25885276734662077	-0.09576852377218628	1.8204156351746197	0.6841698880789635	-1.7969878902699894	0.780338187442781
-0.3127729047012208	-0.9145557348567972	-0.5354949638099447	0.4752848991937614	-0.6189162118847067	0.21389539233078358	0.18941403006040028	2.121366581757714	2.895827521725012	-0.11498241586453994	1.4688799459338364	-0.7615852754120259	0.8728395842266596	0.14436614428372785	-1.3250633010545514	-0.9143069139240562	-0.13621029266413756	-0.9335029316724004	0.41588370053581836	0.024112829456893803	-0.9646115884192664	-0.35291346662663464	0.4110203761229488	-0.5150796238675179	1.728025739596907	-0.35194126548002297	0.3131184721393478	-1.0044262065432406	-2.828723598011176	-0.7808247975100459	-0.5625080936923913	-0.8825452217805495	-0.5548579222496826	0.25180378698217076	-0.7590815262270842	0.8454487204640249	-0.6622838788862191	-0.21133304759807992	0.4963029570604823	0.5926878668999545	0.3157867666432481	-0.4055610865250609	-1.8684558878065656	-0.07274855480599791	1.1384303582671045	-0.12877502456750187	1.3446445732803796	-0.24337779169496382	1.6131617908074423	0.7292742400265577	1.5826822434038341	-0.9897228677659151	-1.7361532800648463	-1.0277229422311749	0.17790750397064112	-1.000629127249591	0.14952257058386456	0.6543146171673205	0.4426403466562193	-0.28390171069152376	0.14625181710588878	-0.8291917939065545	-0.22469201824081622	-0.7311873843689366
1.4132176291114837	0.2713371291967416	-1.4198739761797776	-0.716434644175984	0.9218668463076991	-0.2922493879081115	-0.2898602292315022	0.3460366890263808	-0.4919265865651335	0.8400657308157337	-0.04728073193464473	0.9248019967913812	1.5309833188184454	0.6752386186980668	-0.41574762201842436	-0.051248353157649876	1.332299169874246	-0.1662854622620146	1.0457255532104204	0.669779964995073	0.2323566145097909	-0.962665257744577	-0.8503800994117466	0.815825658540343	0.5359277861677479	0.33672807464932536	0.7397661591056526	-0.9023487122766175	0.24019599688450177	-0.46204652538474417	0.12844726112596988	-1.9935107033640007	0.800476500915935	0.03823645566137275	0.11832944281914942	-1.1310721269694208	0.13291817184417154	-1.6394215283865496	-0.26463373042516325	0.2648594829438316	-0.5234254061248504	-1.094185324918166	-0.26804579906679055	-2.486124299472144	-0.4252068916310725	1.733998227243077	-0.8361996396450396	0.9973668817081152	0.4333920302833467	0.32129575598771737	-0.16174583056841646	0.9810670687916008	-0.7527227016765418	-0.8093251817935228	0.5474429606019621	-1.8851837495879227	0.30530614076816115	0.7605656153996463	-0.33243461683578907	0.4121511987241021	0.4561392785223324	-0.2669259823101648	1.2899083288209838	0.7163990284408639
-1.340183300539347	-1.5484386405231632	0.35052992671568645	1.8408141070264006	2.4454198356886474	-1.7740105407195572	-0.6122660861076081	0.22717889023116591	1.0443143072710992	-0.5610528675129872	0.3834727275809328	0.4143630965469644	-0.22787862566590833	-0.7300083104976949	-0.44864801378967395	-1.0331342027581438	-1.652304988872261	0.7389736836114548	0.2666369610397577	-0.2662428120794482	0.7173240035617034	1.1796664679918403	2.3990358071307947	0.8034854124575272	1.2983866276976357	0.265442629136968	1.9640860755378198	-0.6663029535364002	1.7399036729060977	0.4265415984111361	-0.8398499440708086	-1.2036753722685314	1.3701566953486535	-0.37923171589187654	-1.293914110544908	0.6295780624837779	-0.29669081976706474	-1.2521044090733517	0.44540148995878975	1.704906133734603	-2.4914502660307027	0.769747477620793	-1.5055974503493388	-0.3929763288272439	-1.046335784112587	-0.035235680117925015	2.0133913386708344	-0.3286485299724515	-0.6221375215069084	0.03418011640251008	-0.9012713192482635	-1.7895331970864927	0.11583232325048394	-0.7536377811019476	-0.7193720508561948	1.6109054179016893	-0.1508839786723065	-1.1984243442786071	-0.5991673885717705	-0.3289557502940689	-1.5080280887956057	0.014028739383423205	-0.08092818055405497	0.5810203115889971
0.7164954198181133	-0.026273855814307825	-0.4673707342630307	0.27005241021840276	-1.0594881036696078	1.6822623387560962	1.731441133971352	1.4683889399206351	0.8194994672620419	-0.26692885160026963	0.10166309103478952	1.8652313860248853	-0.8462150948351992	0.581764128050452	-0.05708675761168922	2.1752452976266032	0.40925376538181	0.5425872077145354	-0.5118067431304258	0.39775134321035727	-0.6337121666258793	0.19861540807081435	-0.8102861622707387	0.3044246502761515	-1.4050805633578942	-0.5779949921964139	0.35517914649667737	-1.3336193649503747	-0.20228908475639057	1.0044297714255725	0.47912193676806325	-1.3435225742989716	0.3842412267500373	0.295583633912407	-0.22547711128101788	0.6805258672331834	-0.7325194101523125	-0.14113042785757357	-0.5481104636982455	1.0630141473564736	-2.2943293208119733	-1.2930672958171066	0.0384223614585135	0.7462094366924932	1.2505520430908192	1.886307837812691	-0.45350908613000696	-0.603112520091177	0.7929937350657633	0.3772862317910796	0.13421852896952188	-0.08589077623990747	-0.299889529534179	-0.020067582881110956	0.723900421957498	-0.39010054349187495	0.18117307748400407	0.6604946434150033	-0.7716934836071415	-1.5244708610359192	0.06043616814119218	0.11422578566890447	-0.43849259489707254	0.9753034765623046
-2.7496844340496476	-0.40615075743836365	-0.797767277506147	-0.20288765775876552	0.7714381851921501	-2.2016221064064703	-0.2480600773375439	0.09037431470283898	1.8432452622729711	1.1800163230702119	2.3300993805288517	-0.7950966768721031	-0.44055759403040945	-0.8851566686561941	-0.8371715401967922	-1.4115840777670579	-0.07002694320072908	1.8747799904230555	0.7143089860334676	-1.604285652018517	-0.18591066783825405	0.8097171719641636	-0.1805630759979065	1.1815703534894693	-0.4015603639086437	0.440220989387293	-0.3093678204749503	-1.2064531455856797	0.4892483759522677	-0.4141292259372563	-2.3775876905403726	0.4932366142244033	0.07634875926123293	0.9687694172010225	-1.0615235646700585	-1.7024298331233052	-2.037368185603014	-0.40776042502594534	-0.15899148291935988	2.257932151471307	-1.1930130911604417	0.6538321854968452	-0.712921966532073	0.2124511443561156	-1.9329934836920513	-0.061849374565408635	-0.5968386521747506	0.3305610857925767	0.22417211991460545	1.5949443173374471	0.37561665995686583	-1.425284937552979	-0.32417626392924126	-1.195810575140549	0.6553445674186789	1.43551720530702	1.1428697570302162	0.09835548839084693	1.1335219477674268	0.32788412938397726	0.527632411909876	0.23219802059552205	1.3673213255445917	-0.3478445972698024
-3.6646339811557302	1.0836420454552744	1.9116276666837613	-1.9371212059925498	0.15631800181273073	-0.16774332323648514	-0.3071767197043064	-0.34157788662990074	-0.5016162839326125	-0.8882243796627259	-0.3026440530184395	0.30364258668361205	-1.5967751272102855	0.026017557865898246	-1.0403503395722564	0.2962045800804213	-0.4509479539120521	0.2124959298722154	-1.6579790472854397	0.492551317583883	1.7840569172286345	-1.1587259690186136	-0.5638594212069937	-2.107862906724012	-0.6237297632425783	1.1559265446145293	-0.6260777268764341	1.1274957795503744	1.6080829296503678	-0.5966908963969548	-0.8859985702992925	-0.670920465924474	-1.4325796748071657	-0.7066571223148873	0.10577293571826694	-1.9441345977904159	1.1577893294560442	0.8388913902735995	-0.8457704336498163	-1.1783685460961175	-0.20701622896728525	-0.3888310589430931	-0.2223813146528453	-0.5642647629085358	0.37532086459091685	1.6410898918965304	0.5678558035324536	0.26366763947518407	0.32362084585674594	2.10923831777	-0.20879088697774176	0.4049691373506205	0.13140237553826314	0.10768334707673405	2.3381811294475825	-1.0373563559687506	0.4200285906080301	-2.1458488750662874	0.8824442282521894	0.010863001333404676	0.3658260343622245	-1.4416812762601303	0.5782687351624582	-0.6661546561648137
-1.8171168925647723	-0.522588578148922	1.3839823265068778	0.7667651168510327	-2.5705950259417225	-0.519860499338132	-0.29651795013614046	-0.7185748829734425	-0.09185915667545883	1.8605013401487263	0.7970363006002791	0.06295085730786126	-1.4590142677094975	0.537301357481878	0.24474024948671272	1.7134674646003607	-1.6051677332565997	-1.426570425428201	1.3593594289770157	0.5427062623692266	2.23883697650392	0.15218405175026306	1.7341414218059423	2.2547002283572213	-1.3232342478751573	1.885890887375013	2.3176801034046095	0.00742950510849161	-0.820342658133111	-0.4124489060797572	1.1367260332041655	0.7259939683427983	-0.7996601506477424	0.3051099611375082	0.0033151433865456106	-0.711206827801202	-2.2251378837978173	-0.5190511057450445	0.4756564288338088	1.4724429363761924	0.684731401289968	1.7315447827633133	-2.0767678196625234	0.5710973928926941	0.3891009900427393	0.4558558228059965	1.0840674593856041	0.5161258018901335	0.6400590175676747	1.212840514504071	1.0192219079475178	0.0888689525533918	0.706274597034829	-0.20145537903954655	0.9772901052367018	0.005821832434202909	0.4943304449700142	0.8089411710760981	-0.8636348299843636	-0.01604361136924197	-0.8438497432909395	0.560200804661492	-2.089311039950288	0.38323867303436715
-0.7711965232433348	-1.0409436023071612	-0.14528899678107762	-0.6060342983430885	-1.0086286501129582	-0.7680630699283015	1.3707001527739913	-0.8201732430371136	-1.0035238778379612	2.5530419789462067	1.4451688449214153	-1.6756042573166114	1.546957998346966	0.4196141124922578	-0.10059199567259668	-0.027573083348970476	-0.433954068428643	-1.4997398055853184	-0.9045608787702989	1.4634404946557857	1.0795547352029624	0.8722746983104003	0.025074865618724643	-0.31906764286539707	0.14609054383360354	2.1568398786449277	-2.089431299525741	-0.5989676554848842	1.7281659535611646	-0.4360413951999949	1.197661458457626	-1.237608384157479	1.2976749932838307	-0.6905744763554568	0.687704501181506	-0.2823699354404289	-1.5168057057244002	-1.8537313432252203	1.9532987459615727	0.9013529694961434	-1.4663663807650782	-1.7632515355512004	-0.5918739012092643	-0.5429509759860136	-0.4634486623455094	-0.43198500701792164	-0.7005411949816632	-0.04924607786415934	1.0841255599404394	-0.01642751141695776	0.4763878034130617	-1.2337971302651034	-0.2808199790760587	0.8455774703694863	-2.2514128873409693	0.18422441990807628	0.14693905242254504	0.3396845567687668	-1.267133556654302	0.9018419289856102	-0.36034976323993867	1.4769709744961783	0.8534406336148568	0.5412655555283609
-0.09319229087430783	0.2835923265362395	1.0472428482590626	0.947431113218821	-0.29415134056492187	0.26887268058543695	-0.23391481808982498	0.7732634445176967	-1.0356418318012095	0.6992124847027166	-0.2702912401131056	-0.3150938636394922	0.01544995694651154	-0.42584681435779126	-2.0912942538799983	0.3485869979240787	0.7729146312190686	-0.2538458777786869	0.698281683508324	1.4594060507074622	1.1752037393637047	-0.9779738072337232	-1.9175256850772453	-0.8983723452250454	0.48031596768128837	0.5077165707483162	0.33638110778085883	1.1558409892563584	1.1369251460350454	-0.1382412895173449	-0.07400881468230938	2.7047068164138524	1.5441865617991521	0.17241919852801788	0.26561142119646436	0.46329213133875735	1.1695801796789724	-0.1690745759346857	-0.4340343386112391	0.7063647218635885	-0.288081833476133	-0.9925181301321122	1.1566891690304246	0.10400405405153776	-1.1061834365475791	0.28237077118817455	0.13140347440962447	2.149541520639233	-0.6874549602350115	-1.361724970991338	-1.2706365449627406	-0.3500846427124282	0.5403327106599122	-0.8416478117988782	-0.12346176412495108	-0.11038120758722032	-0.5444581050023367	-0.6283252551281971	0.6779451414209776	-0.48521296321860174	1.939679309398206	-0.1305286619406481	0.6039216371902968	-0.11413930892916196
-0.12982218000541396	-1.6200785864208573	-0.7877643055604184	-1.9006100918097657	-1.5719119541918718	-0.35784277395817254	1.0697946612926534	1.0680795786367223	0.4920064348062159	-1.7329738263320156	0.7293329267423735	-0.422722070440276	0.1468239331570537	-0.671969917314519	-1.044225515669649	-0.4090409843519663	0.4328594306860435	-0.024377254214062314	1.306135960787896	0.9970283240626739	1.1421803727065327	-0.4733814938525846	0.48496726248522126	-0.17132880102524425	0.7004022317455172	-0.5564253775514664	-0.009355308582657033	0.3869832686433798	0.49339265105520325	-0.9074287566073094	-0.5229250530673394	1.548966060867376	-0.1391476380411104	-0.9376841327071224	-0.0783315551087531	-2.2384166430278207	0.07103171515256386	1.5778900540351335	-0.17008091201018977	1.1453087694025268	-1.8297477025325262	-0.11339969055593287	1.5465281007523102	0.4050371313667134	-1.2784805768806888	-0.29395251398646466	0.15329516472022425	0.10740357034041335	-0.06690992993533137	1.082341021131958	-1.2620849249081332	0.33747425144487186	-1.423252941234706	0.2787282541835106	-1.8891273762503298	0.4873481645753392	0.08132912254445913	0.35545174522588563	0.2573347749081355	-0.49850271247536615	0.8604522038143604	-0.190172985636047	0.7083781632568315	-1.2850329917571166
-0.98870845823269	0.9876636016319217	1.016788946327002	1.6006096492950748	-0.44208753643836546	-2.6258575213775486	-0.2745188002831617	0.8468075624490591	-1.2726472258034203	-0.7354531963243414	0.3839698596179674	-0.42638129965308236	-0.09697554497340971	-0.2904349652802033	0.3527373043454646	0.014443829709774888	1.0516018644827227	-0.2916646451793745	-0.19050882621145823	-0.49480115983907513	-0.8171457773552183	-0.6887260375891177	1.3189297123716544	-1.4346823918612934	-0.04617979404559191	-1.1417611737647195	1.9972931336309745	-0.8495792784607407	-2.241755696784827	-0.14836340020697267	0.6690584899193244	0.3219699604128756	-0.39716134389433	-0.2735582571178094	1.15871641491727	0.08256708561012316	-0.445144560375035	-1.1715325036921986	0.3399517008400447	-1.7583188374975869	0.4515683163515387	0.39248396093408733	0.7709903641714878	-0.6169101774373716	-1.0765351305971271	1.3050923882806822	-0.7419181973373536	-0.39516756991859775	-0.394216212637964	0.8136560388898028	-0.9483644417814491	0.39421938051471805	0.33738818166377865	1.6403995490302068	-0.9803254142716826	1.1539281916460404	0.8937142145689015	0.2271742974492551	-0.8675128372424599	-0.8292505036878044	-0.7924485002887667	-0.0625253058528774	-0.6001018550262889	0.2451610418391751
-0.9392040258576477	1.1390446422649947	1.8272644107783613	-0.6663096277898581	0.7104267267040134	-0.4502638445042324	-0.4098723484759541	0.2334710215109783	-0.5645669989410398	-1.368603778897797	-0.5973318027517549	0.47374039136051116	-0.6881954526267337	-3.075202742547549	-0.16447462296135051	-1.7189669095540336	-0.24008187201311407	0.797944802019292	-0.752921731826835	1.3378575693681714	1.2877083313946733	-2.361226942131422	0.21927846723990302	-0.21287251924760758	0.23531554714876476	-1.0056647526595741	-1.5272634143913089	0.34691377273976826	0.14870235078646685	0.42842250132560217	0.413537329177525	-0.4378822352176761	-0.6928045905697523	-0.7312056893458682	1.3746354852941896	2.0456854207086907	0.9906264052053891	0.4342578906775926	-0.32392201884992683	1.0323512225020475	-1.4540316358472396	1.8466136020944834	-0.5497477136110138	0.36293672629011114	-0.17587338561219376	0.7827940631381958	1.2332862594646155	-1.0763090637492236	-0.03493103159895396	0.47209065826998464	0.015410622390288124	1.178302043795362	-0.027626856191637048	-0.29509334283225386	1.729895765962256	0.9888308067957446	-0.7501339989429643	-0.6884277362699621	-0.18951485926189116	-0.3315126097018644	0.882400512534686	0.4835673946013745	0.19371571784533342	-1.5053717809617893
-1.8691543997601712	-2.1899583952169253	-0.050675709438848374	1.2156536603156811	0.49087565893269147	-1.1721416205096065	-2.089518497726545	0.8336262481895128	-1.0627145811342933	0.44778521617874095	0.7984972537839284	0.19683987522346885	0.7049282801368567	-1.5336528010987458	-1.1753971621956756	1.4221124695984935	-1.7654130335475284	-0.04662665820930963	-0.6640444731266211	1.532763596562713	-2.2223554682449835	-0.12604247512359726	-0.6891329107427692	0.7479991394220262	-0.04893778979008757	-0.07416201474457199	0.6149144938371799	1.760396521096057	0.43651206472169474	0.1373376046641682	-1.4177036459845083	-0.5130876589316059	1.6668084988157479	0.3748534923835733	2.3892457958673172	-0.7947103941679057	0.16113572265287254	-1.7432980937514215	-0.1767064912914744	-0.5738989053236917	0.8162510465922133	0.8461964751713336	-1.0169115699904738	0.644729418313081	2.4829801943648007	-0.33938591860245954	1.0860046347508328	1.1674888753844457	1.3332748483928574	-0.95714879555518	-0.02892464985423547	1.2729074079778013	0.12017420392302501	-0.38283457694297884	0.3630761856225244	-2.2163772020003685	-1.9681757436171483	-1.330072563818306	-1.902742771665411	0.7801795375506603	-0.7427408294312015	1.0542666527573796	0.9615892106236401	-0.1390042065586526
-1.0566889384667182	-0.25208065798644214	-1.145593242074086	1.5245432160883179	-0.2354784442360424	1.889192417991646	0.7483191212122958	-0.1375224679044556	-1.2674534874789007	-1.319810959296827	0.5092351296710304	0.47895023583380897	-0.008814298511229722	-0.09896312165490173	-0.32360890215602617	1.0083363172375932	-1.5187262977763705	-2.0579117068145076	-1.4177105840126178	1.848991169706754	0.8855859312968071	-0.5430044185868309	0.6077667737555769	-0.05233698718014231	-0.6684687791828716	0.10713493329421084	-3.1172605472958965	-0.1749169670320573	0.8228406362729319	1.086757382348698	-2.2684578689761716	1.4895848421782545	0.018131623439373152	1.4718448699915279	0.09101068280249369	-0.6972745740716398	-0.33626617003684184	-0.2603199739057785	-0.26684572759032527	0.7820716653475548	0.16439036454518743	-0.4763208061816963	0.8861922067143496	-0.27500817703031954	0.19862921572299053	-0.8809615133238172	1.3141352377034383	0.5737940373796854	-0.5111729651804879	-0.988151299003706	2.4530333974584573	-0.20905180685146973	-0.17254982901937935	-0.6191499474634261	-0.6510891820325022	-0.05625028439944289	-0.5877344418820413	-0.8209759651339981	-0.30913617590586956	-0.7895953705131803	-1.7907027114001035	-0.19054701920449188	0.050597787102693914	-0.471357622889846
-1.8717356109691936	1.5448339222174836	-1.377073273709746	0.599821539768143	0.22811582149408832	0.2978645049439043	0.6115548885682658	0.170603310626202	-0.45658467556373245	-0.5164232352805174	-1.1062618812719314	0.985584922900697	0.4829713949406483	-0.4186998513812871	-0.11285909788191321	-2.615745433826136	0.30515398438986413	0.335190517382924	-0.28157055138336723	0.9684572252055019	0.9029089676070089	2.344361089118439	-0.873576664703757	1.7780092738429796	0.7289833997378298	0.25730248796785843	-0.8443939754840466	0.025119125656172282	-0.08879511406993625	1.441728696036714	-1.176602564531283	-0.23972160568324236	-1.5140408981544062	0.34028762052699596	-0.635201364411984	-0.6025236908831797	0.3992917476225533	-0.21638000405934305	-0.6624531168250578	1.6960107270696794	-0.6430465211681453	-0.03391516840667473	-0.29248049214222893	1.31674661007151	-0.22293513016654043	0.11805279351060517	1.8832026639535675	-0.08941030006970722	-1.1736393298152754	0.3180921606129749	-0.6319179950018099	-0.9295054480251703	-0.26702029869793653	-1.3470118415174108	-0.2730404101851209	1.1247437977551997	1.3556660023663332	-0.3317789162062093	-1.7284283187905876	0.3770285827230491	-0.20561814254429706	0.20693564961437813	-0.9215828318740279	-0.8841973530579554
1.3725234033355962	-2.46312354088568	-1.8129862728212514	0.08835313470567567	-0.22197202477541766	-1.2186080057550153	-1.4870812246639584	0.1538586043088036	-0.5197961394874834	-1.2858679060424243	0.6310194565006234	-1.727409838219183	-0.8917297297580193	0.540148962210381	-0.22714647587631254	0.6787515993319412	0.7317791803542878	-1.2335705055467339	-0.8936838112092905	-0.5605925554641505	0.17213492356351873	0.009020394214447666	0.584455887655433	-0.010807503369706326	-0.6169821019093094	-0.008022912516345748	0.4249050346409031	-0.572539448675187	0.6223466189883484	-1.1048799912954927	-0.09070561076821962	-2.325876211806665	-0.5642152640363411	-0.49075258040441766	-0.8812652609609956	0.36277233322294106	-0.3780091105188579	-0.523083965785058	-0.6793618936867619	-0.9498585677981511	1.8266305725468581	0.9094657369622445	0.03544255453192408	0.6460867722665664	0.29285765147762854	0.8047030406659333	0.09931084652981771	0.10840162607258047	1.33195276892622	0.7220545810553929	-0.3241798229989428	-1.0264666883902722	-0.25561003646576486	0.017778415564706166	1.4672619083073626	-0.44077885050451276	1.8476662508961272	-0.7874700708725548	0.9911239618432484	-1.204472342320998	-1.875275002492395	-0.30213520860274107	0.10154183907766551	-0.6848080777935834
-1.3280877945860117	0.06827213871663908	-0.20771966679407422	-0.9425104438567001	-0.7837188234194467	2.0184788818054136	-2.4461138443902755	0.2794916249607799	2.4805697184239164	1.3048666897483128	-1.3435581135558001	-1.1788795574935265	0.14466214385948348	-1.8803859095357986	-0.7633036471220158	2.3952489314813774	0.8186556504631362	1.7746024180435047	-1.015372735577158	0.8862137425243876	-0.27125170869567083	0.5160410039826853	0.3868587778085848	-0.4328532099215587	-0.01542564968936009	-0.20803960398828286	-1.3337233309231677	-1.3174128177273898	0.15226253507119208	-0.3196904674921722	-0.3435306852964142	0.8722099686503276	-1.0268909304677032	-0.43751159835748266	0.9488829314393574	-1.6559069183726958	-0.3309294402816192	-1.745198177493569	1.2521081809370185	-1.347020650580257	-1.186772983157593	-1.5498949595275642	-0.7305609722920529	-0.6806043624345138	-1.6783339637268597	1.8989790546036633	1.677955395274225	-2.210460573558245	2.407873006690347	-1.3498150380137643	1.1421476328393583	-0.5418474393427443	-0.31564354370894826	-0.5303282655788867	-0.681204948922654	-0.9847263505440584	-0.1389116726852443	0.23740406312683207	-1.0125275590425808	-0.32592383486492793	0.4279655456497359	1.4681509599988445	2.034583406801231	0.6370592901378133
0.01081228541207593	0.30368120548097277	-0.29731389975185835	-1.0244847686829532	1.2229995291835325	0.3908517384883451	0.49822922508443435	1.1072480030565257	0.18005744962335948	0.92679609514046	-0.873654394259528	0.8120305027012567	-0.42029877917320607	-1.2095871092164998	0.018922656928686065	0.5712810963477793	0.8343794802653829	-0.939448353752617	-1.5633707245540545	1.0344779358048684	-1.1225504715009045	0.08546503192488371	-0.31553939857482893	0.5237731059704116	0.7456028420346603	-0.3931428162660709	-0.19675476762152405	0.8972911877533427	-0.4150549342678372	0.2293804299709848	0.24620535913147923	0.6578788602125856	-0.8228526341602288	-0.6156801465456957	-1.5838964016085624	-1.3226139432573116	0.5098634178949076	-1.628901394241858	-1.4931838015943026	0.276250058459324	-1.0527377283434276	1.515028684901678	-0.020367841954276534	2.098774280727351	0.46287596152575994	1.574360190445933	0.900366611112935	0.5506115315545711	1.6252735563883762	0.07879851667544807	-0.027873566244459025	-1.5820375704908944	-1.4280342193254216	1.1008083365944525	1.0530405264483786	-1.5954949585834006	-0.17783881909897004	1.477123565840373	-0.6668228143708412	0.032069414143572436	-2.86331646292728	0.05238752893988147	-1.3342409494588487	-0.2046911329024159
1.6655462621692503	-1.5452183944342979	-0.9220876980155289	-0.5332224507312107	-2.3041057636694773	0.9153777439918754	0.3642917413498912	2.379891048866191	-0.10769962938376701	1.4247333122013668	1.0654825988989605	1.1236992830409434	0.2764580742670315	-1.4813892914425784	-0.6197565585990505	0.27360842067478486	0.20493390997269667	-1.7985203040299962	0.7911362288449445	0.8436977856203928	0.27308398622921826	1.3291142127804185	0.11885859740534374	0.006193910831695831	-0.7222956347897384	-0.34083517326738005	-1.063212868893701	0.7718129199419661	0.3962570135519252	0.09709729798219612	0.6359883822311475	0.7493251909635601	-0.4565476304574262	2.1330687686349017	0.9248586529518186	-0.02120730043844692	-0.9353217978028883	-1.369255324215503	0.8165952039039711	-0.35306027116289607	-1.5450638593984412	0.5134718045633008	0.0823007099862228	-0.8621880000547302	0.6558992145572802	1.15475973518312	0.4410837686340363	-0.08363000262444185	-1.021623130071192	-0.4934653910895567	-0.34075185430649196	1.2812236529441932	2.5613645021037144	-0.7347443408397129	2.1444860612205874	0.7784061167067671	0.7801627069407553	-0.21323454165042396	0.5151561902818795	-1.4363720793862391	-1.0961123627907703	-1.585992900505204	-2.030571500053969	0.05075042053868381
0.8305264771124153	-1.3413657226184599	-0.5860963129626647	-1.0537805901200819	-0.11852923005523004	0.8235637036773348	2.262667333285858	-0.504868079962918	-0.7334940449352318	3.1352018557307226	-1.750769464554011	0.8612068435739663	2.3967073381662387	1.6762030645809152	-1.5663961233987216	0.6893201607680698	0.6396457297573684	0.23278676488922062	0.06643202767300205	1.4460505448630874	0.7727077203948285	-0.13762549521764672	0.6924908300649767	0.7377678997156876	1.4905498357987619	-0.057650107051006455	-1.3044866020409536	-0.15327877490556463	-1.278589929732676	-0.27997593558473866	-0.1592304269390239	-2.438274318556751	-1.4760163393023533	-1.6143581015115678	1.1391587991900616	-0.1796777574421155	-1.6819212310901923	-0.7115572839934939	-1.9239264218751373	-1.1049400171177184	2.058107088628737	0.4699875086453978	-1.5678160513837793	-0.7490958372506094	0.49993942292203264	-2.1958162302240334	0.31832118229306555	-0.0395698322677066	1.5759850532628958	-0.8273003833349939	-0.016569060117771733	-1.6215851560626733	1.318633894284746	0.6570791525938727	-1.3395289562800836	-0.19981421090126353	0.24964581764549967	0.5690350953648347	1.0219551818219414	-0.7753812173176058	0.463698916291943	1.3306148719877042	0.43392457572309845	-0.5575539141188113
0.14025752933992428	1.17077872024514	0.6811874356392078	-1.5131848558404686	-1.932378735784297	2.358643548161781	0.5361237829021853	0.5988078720846496	-0.1292393819955617	0.835467051953688	-0.11323001900150445	-0.0521968941988072	-1.6236829204182752	0.06315330589187768	2.1458226903871345	-0.559421230254567	-1.550217472810861	-0.13931197824830002	-1.6094195993673404	-0.5363066780834435	-0.379192092986639	0.20854485371933879	-1.7552287991255018	-0.04483402590602741	0.21181690988075397	-1.063658280172329	-2.171763226416253	2.509036989781435	0.17409822518992868	-0.24293889242776343	0.8798417913784532	-1.4868987150545652	-0.409936888121503	-0.46392382886750994	-0.14145301955230727	0.18594292439516538	-0.6463396293635341	0.6304543673455597	0.8918680259999543	-0.587322751001961	0.30975856876724195	-0.821244978450017	-0.7854158357148894	-0.5231243846570884	2.4613420059864826	-0.3126269579219997	-0.6637642185973724	-0.6355617752532471	0.6740100009471253	2.7380290950011514	-0.5193628825841797	-0.6390689006889594	-0.3709622661969891	0.2168210602218734	-0.9230572863250318	0.6155225109903332	-0.18906973967258292	0.015474598826592943	-2.588013567075495	1.386120223098018	-0.40274565162292325	-1.0016773160647943	-0.6797233175641171	-1.9862304488510953
-0.5742751298342489	1.2909896711740265	0.8508205325495524	0.6024456399241931	0.6558895435379378	-0.07392499362023303	0.2885432519501568	0.11738036796290442	-0.5399885168213427	1.5135259461946746	1.2868342715729149	-0.9444338269176624	-0.11838927942331191	0.6465521881789941	-1.035120843551363	-0.8798584716610838	-1.0908425248982316	-1.3953682937767093	1.3935624333831913	0.4243138847978633	0.2639930631663429	-0.4364351423242497	-0.8966770219747593	0.1939505171716546	0.030327049360487388	0.5501491998203168	-0.28352262035565606	-0.6778442775695618	0.03456772459185205	0.7081438258115015	1.2164252234559279	-0.6561989628325315	0.9373217334532905	1.602654635037317	-1.077167883438844	1.0281527360892573	-1.348910707369613	-0.4358739944507348	-0.23010889375775412	-0.20660328142432946	0.4742488039354554	-0.7287131206188514	-0.9822811858332579	-2.229414812245607	-0.29666316715134455	-0.8052269689089159	0.7198684030857595	-0.9268853917987097	-0.5035428603613106	0.47514034965965596	2.1828708356349447	1.3285105208268566	-0.6871069619509925	-1.2775371246092329	1.3994031575340113	-1.3162339656733602	0.6489853523612796	0.10659143993806187	-0.11057346017465652	-0.057014647723027535	0.19187628446616603	1.0977247071525826	-1.5600884288044854	-2.423513717624005
-0.021715036752357024	-1.6228726119831494	1.601646925691689	-0.6017026852417549	-0.45667393917204163	0.20337389305526127	0.17353624738510784	0.6155710162058232	-0.9085884972261219	0.33788463704044963	-0.7058771905441313	-1.173038098820364	-2.2586236340202164	-1.6263162277737158	-0.161583449707766	0.6499760468335286	0.2967218991354933	-1.5031137606745972	2.304692005453664	-0.6535648351367137	0.1273919266162004	-1.463821882709286	-0.27983821075276655	0.914715389593562	-1.390361666785626	-1.522138189957332	0.009091725648862292	0.3606866206958353	0.6756272913664728	0.8884765952025989	0.7657714116393347	0.5254107224364596	-1.0394452425379037	-0.7197593530806602	-0.1291066948874726	-0.4443707803549252	0.9899921204389475	0.8992153331709662	-0.4444572524432301	0.2582473566429017	1.194644112706999	0.6418246396482145	0.4455412906646788	-0.09765865435336576	-2.1300800491502345	1.2658683927761178	1.0509556065538186	-1.6142115773203671	-1.054420413903049	0.4268725024517557	0.7293850392463539	-0.8798416352906486	1.1033479959796348	-1.0034966125900209	1.6115033556120737	0.8862267398706447	-0.26413054430552807	-1.2451267028776416	-0.019927644607188173	-0.8128956334259748	-1.058152092891354	-0.056440218936418915	0.4812371829114675	1.3762046734854236
-0.5452639691065149	-0.400258374206275	-0.23441067900042709	-1.787224646403194	0.15173529614848727	-0.12749933312597164	-1.001149420799442	-0.5664937286168741	0.4521804471105442	-0.04038387091642636	0.6910923688448214	0.6160107813522754	-1.9332479937286442	1.4890941992643292	-1.1965326845655184	-0.1499627959993437	2.4848604466317465	-0.08756069440971313	0.49421934571779025	1.3173083024666317	1.1071897179383186	1.8598877754416168	-0.7148498048483749	-0.15352605439004083	0.36884225484230426	0.6273572796338346	-0.0955226135280758	-2.0958118341108847	-0.12532399716201173	-0.9326251760430008	-0.579006854647912	-1.928621029399098	0.20252573726679834	-0.2915751724434689	0.13487073238225605	0.8971916156033581	-0.48135088467669784	-0.40429538762033673	1.7549926625121752	-0.2272704502489605	-1.8850235799064745	1.3315797738358977	0.4670600267412641	-0.6596300765053008	0.6482031848741099	-0.6547858970211221	1.6003512263612227	0.42647367678018505	1.8999372303109865	0.4379882747012505	0.07754142907408204	0.900091412776986	-1.0597598983527101	-0.4470404651634632	-1.0346014977400135	-0.8419465304215233	-0.23202255435557873	-1.8352323035756002	-0.4268957358686866	-0.7927164135329988	-0.29076538278931485	1.9885334234579441	-1.0950517244051245	1.1513516309980558
0.18693441989716025	0.7885756504837276	0.31958180013677934	-0.07095841001533347	-0.04168265459400356	0.04745943855037636	0.5740111521867077	0.33562046111179855	0.2126249360624544	-0.4102847042255786	-1.2309511046711146	1.5937352495593706	1.3622723649366322	-0.7970277996831306	0.8304538649595717	-2.4484977790223184	-1.4026394018407935	-1.4463748439341122	-0.11215768770636216	-0.1734466529835867	-0.37218508222095725	-0.4202262101440938	-0.7946293827023516	0.05616159218001126	-0.46640351467408303	-0.7517352934103023	0.12012838781743279	0.14597553826590712	-0.9669987973213711	-0.3844317642583774	0.14161697580158125	-0.18741551469243065	-0.575466449546017	1.0833881490554367	-1.1472950049525095	0.45758961999237263	0.5762508938444799	0.6252880876801055	-0.7439923151397536	0.2655660652219811	-0.5642583693531349	0.36147942275817835	1.029069589893769	-1.6645422867743378	-1.7417277291554671	-0.7161492447144068	1.2590589875659564	-0.33441717818046973	-0.6615156674503865	1.4532780910332121	-0.9027835877130267	0.5358798772950516	-0.47769347978763566	-1.8484269170564922	0.6060616474389758	0.3711965895793469	0.9865045478846283	-0.08807840266343689	-0.3251402178995509	-0.14152031485591296	0.15375398832277645	-0.4113267039233371	0.7890270595701893	0.7003085426977325
-0.9628201821037273	-0.3693142061995806	-0.006346995402930866	0.8035528049670672	-0.286858304008019	0.27939244162018134	1.2365282335273826	-0.5248211799778789	-1.242213200827892	0.2360174344383082	2.2845231842091267	1.1277304338835392	-0.4941101261750967	0.8289016916398488	-0.6983483420449648	0.504131397482168	1.170153771400294	-0.7637518659968358	1.4666704542484235	2.683390564356743	0.5690732141250797	2.010756385397962	-1.7014588472224332	0.13740903649527886	-1.2849311572810387	-0.48374961189192944	0.059546795005333435	1.7324190177049152	0.9426123041655128	0.22653533601299286	0.1630838933581914	-2.336935447734533	-1.2007921944827953	0.8678977976276786	-0.2994726170842815	-0.760553655466699	-0.3961940053172399	2.273886883490211	-1.1199187121087963	0.20139166838586156	1.3552772511304665	-1.8816877964355998	0.7193591974743898	1.0433964890917218	-0.27685092325651545	0.3781686736084814	1.3541838855374215	1.907824929386828	0.4690900425298987	0.6315651412306429	-1.1753126560221767	-1.3780578050599137	1.8591630978600875	0.7047606458406779	0.8481263056524218	-1.1688840350605934	0.9175001558770703	-0.252812021083012	0.13902920813682193	-0.9575371528575483	-0.8215854484222753	0.2825510287419928	-0.23772846753495122	-0.9092851953345671
-0.08301274876475614	1.5348567889758484	-0.9043979634320737	0.472283112772136	0.11253382402507571	-0.1907480527326271	-0.7763621990478293	1.0525052908862493	-1.2785220165960753	1.706155173321652	-2.3486981241872393	1.419792686273533	-0.43615822323777903	-0.4863072203129607	0.3763252308006042	2.1245881357075884	-0.12007842976195625	1.6806951764366482	0.5300763025393763	-0.3959677336844675	0.7300569547345869	-1.8240740891607596	-2.1682091474242737	-0.19303348685527014	1.1170787266402507	-0.6655572135695023	-0.4208060734228977	1.681426902452178	-0.21109644525049884	0.508525302781072	0.7438025375450193	-0.6631667136328222	-0.2513908152785134	0.7073927233482502	0.9108820242386724	-1.0866469170094726	-0.6609138657450127	-0.9275740853607687	2.165687629178285	-1.7963660181392498	0.3756976639178842	-1.457959588551598	0.71056868026812	-0.2264059276355198	1.028162662441951	-0.556894206028865	0.36708827912452385	0.5886069197775251	-0.04103333402229237	-0.43266991383447984	-0.42117194121507784	0.9036038168057684	0.10311242423750187	-0.45953946000375623	1.6998967991412999	-1.44666834590137	-0.5465936857466606	-1.0911262527363665	-0.5759092497351315	0.5342117170784075	1.0866309295763943	0.5747121480385098	2.037776209909932	-0.5467010161236299
-0.2178595102461199	-0.33655206715393315	0.4290882179638301	1.449732844092232	-1.1803349497317046	-0.992214620131071	1.9352548482871896	-1.6116500036441768	2.643595017739136	0.47012525037666664	-1.8504683795980545	-1.7539250646013766	0.3015756097686768	-0.358320154320645	0.8832977345033046	-1.5515039511981104	-0.9728726324487795	1.4053886693390634	0.745563199509409	-0.7205835938400453	-1.629503094214998	1.0722946727703224	0.27993611914364663	1.623843111549828	1.6588860042053237	0.13731497977513268	0.478480085317057	-0.034174461679924946	-0.2846574579854555	0.04226539454502114	0.5460893574293443	1.3856099932489996	0.2634719807884358	-1.5549034159112283	1.4286928561516408	1.1865052729973513	-0.5876999613664685	0.31867061876901953	-0.23783508547683244	2.635359534928452	0.34392985337866416	-0.28748662406286146	-0.7912072273432706	0.5149306417919427	-0.3918835727734078	-0.9270895229019376	-2.5357525758865846	0.025360080696811383	-1.9605106834242532	-0.2947739582246737	0.2611959326131805	-0.7273849344138988	0.2650044769962134	-0.3100419485531322	-1.6884019944422148	-0.5516285215117115	0.3894183845813829	1.0843481334500322	0.8607210516255173	1.0791965526794112	0.08345100576610044	-1.0105323945222062	-1.2146100210440658	-1.075551516143902
-0.6767774488559668	-0.9486377136716214	-0.22911096568507497	0.7784265911744771	0.9172102278907449	-0.3555206940690047	-0.06455216248288213	0.38651675852913214	1.095827822666298	1.4141275205106978	-0.7020108157436973	0.43691368153884075	1.9784732873418116	-1.20669108470925	-1.5852119906519384	-1.289146846046262	-0.52753955020498	1.867491959921914	1.1218787430602775	1.234782844650844	0.682738658042754	1.1117217753510509	-1.9876625326340371	-1.6539802224869475	-0.1904097110414674	0.7759384403539572	0.3008925945772556	0.030031315078281204	-0.5407561305975649	-1.2394962616736303	0.7054227047789476	-0.2757343612632418	-0.09562251404478489	0.30118730129807475	0.9736739368363911	-0.19448817562648066	0.32171947012311275	2.0394429101206186	2.3317351082179276	-2.1679635776296298	0.4243946356522753	-0.20613525558913492	-0.7049043575903999	0.7089034403195227	-0.4215802912365507	-0.1769437882780788	-0.11324916764673254	-0.19152039368714352	-0.9262081571904618	-0.33561858364185504	-0.4868239401397542	-1.425692283517822	-0.5087976008294987	-0.9341511136782118	1.1966316362820812	1.4338234318423912	1.4259823376585556	-0.2964231263908396	1.384908289775383	1.1422746909000483	0.32274403580977884	-0.0907013238169354	-0.6562312835667988	-0.96409914372172
0.388157574233366	-0.6229886035728048	-0.23459854162211727	-0.08685150276455071	-0.6425975215137655	2.2670359838518306	1.1365236668423038	-0.11311539549689296	-0.5044623894782962	0.5417992877434857	0.6820389213426437	-0.8096768611658686	-0.468696898179246	-0.3507344430538081	0.46993709524433674	1.5091947072921417	0.4611110437970855	-0.18814600321458444	-0.11589290578957454	1.5739040561047337	-0.38187232809989885	1.2023814747858925	-0.4027085522251097	0.7703588317834421	-0.002694928967051175	1.7225007243669455	-0.36063010978395776	1.8560685633857934	0.5516930170194757	0.15201034162239047	-0.8073961371966831	1.001049069570645	-0.7413410458883831	0.6192071192826024	0.9950751330060932	-0.24713589080688753	-0.2352884405794538	-2.193561124896446	0.7031063663477138	0.8509816375339057	-0.17317356494022682	-1.1920121867234996	-0.4821752126076873	0.8709806664449836	-0.38786299204128427	-1.4381415374791653	0.30960203735580394	0.5668411682401475	1.0263242746398313	-0.4658061370299167	-0.4129523600474594	-0.4576616416181921	-0.7422212114288244	0.50787091215376	-0.48968069493163	1.214311626243156	-1.6145260664001848	0.8182236946154056	-0.31551316897438436	1.3266953456279849	0.9900632037687777	-3.299746716093581	0.9068925685130178	-0.04522301683248318
0.4973527524765037	0.6210423339472039	0.6407529247562724	0.5015789414957833	0.10484535631327108	1.0416999650270653	-1.5469528003530257	-0.3762291079824925	-1.7771990100261295	-0.12471461441091312	-0.07067176440186974	-0.7311739488049624	-0.4372305974261663	-0.23603792008872387	-0.2945762978404313	-0.24122941954264965	1.336098989609235	0.7034012051110092	0.9003043703618633	1.434805038243404	0.46909507901652464	-0.45152823096239647	1.4117706438523119	-1.7865886776549202	1.7529429990254093	0.4339451738042034	-0.5225848267809425	0.22954193955646482	-1.6546661400793583	0.28314876414919204	-1.1501636902864485	-0.1478311038017335	-0.490747755009998	0.5366575938031705	1.4799794651465303	-1.440098650727962	0.5328838091828864	0.2804844591420653	0.892560529057979	-1.643717795011893	1.477849806941451	-0.4595475561526415	1.52804032581311	-0.09818102333626244	2.307930609763135	-1.1133075426934629	-0.5856763532485313	-1.0903593474487334	-1.1296945554971465	-0.07697589608984658	-1.7016449048305533	-1.30780559214526	1.259367072970724	-0.857457889513992	-0.15094498131164147	1.0994678364281623	-1.2875432351579987	-0.8770498432508215	-0.07483502419508649	-0.6078824319963554	-0.9554807952501311	-0.532366908642701	0.11407018638569232	1.8361169281172431
0.9221514200265818	-0.7265674192587157	1.4984701273920016	0.3914131978544705	-1.6219575737845233	-1.0163035673900789	1.4915500315749495	1.5002988150852326	-1.4848599295107308	0.6277460040860064	1.4814685400328558	0.7641749009017521	-0.4973971467986419	-1.403256388131065	1.1307938826377737	0.8490619004636312	1.2440131193759547	0.5467168442756163	0.5541850483977292	-0.744403149391573	0.15227977945852397	-1.5031122038861375	-0.9679479437753942	-0.7106980684425646	0.6948516178244151	0.3768084924495858	0.1975166274859882	-0.7977742166394083	0.6712038965277551	1.348541884394767	0.7971600516012932	0.5893459665941663	-0.93665188660942	-0.5252721596069831	0.6607670991802979	-1.565776254150362	2.6582102893852015	-0.8076812635213731	0.9726645410791628	-1.2503520858479422	-0.8901112047069466	-0.5079744303019045	-0.4128279269293837	-0.5986164205906238	2.393012080837885	0.15371479967605461	-0.1692944096680657	-0.41687752136686224	-1.3446004811922003	-1.471240657612413	0.07940120398788256	0.8249857582686821	-1.6685295119668964	-1.6160158731056165	-0.03830297401930112	-0.3045127962689803	-0.9921768408688898	0.5961052396544708	0.2546227507307156	0.8633412730437333	0.6822199626636285	1.211349481953498	1.634559248382299	-1.2602507704685408
-0.10625716957468763	-1.2222745999905662	0.07951425784151334	0.09243467365047284	1.663426070938437	0.2832051498539952	-0.09702108047364345	0.04748395064816967	-0.1617314023371059	0.12586295713052564	-0.27887050738064295	0.8255462697287356	0.7549582163633844	-0.949468229873791	-1.8284970448686944	-0.008958436540249083	-0.7622042344583909	-1.2081859781155875	-0.34985842850098475	-1.0273318148518709	-1.4500295668952485	0.3504180406620609	-0.16267085719953028	2.1953986595248907	-0.6241555313829668	0.4429436706902236	0.07572857006736972	-2.27484209397462	-2.003069910235563	-0.1483771121991648	0.5231844357021912	-1.307018844494346	0.5126493378721078	-0.6419538157617208	0.6402392183445749	1.7736479330664408	-1.0210786168846877	-0.318151710388984	-0.3714228935282869	1.804168226411952	0.4831694429679788	0.4904497331501445	0.800227560875777	0.45467730414581714	-0.4811587150142866	-0.19723423464056852	-0.21575255817719183	0.032324153266327434	-0.7063918219491778	-0.7066301824133109	0.0051966352194694875	-0.11211764122262441	0.988176682381191	-0.5136846630348126	0.5382962260968948	-0.23373016671813468	1.9793939520019144	-0.3947506089318505	-0.31296314014569	0.38609219616675144	-0.7244598846286214	3.2268051863144067	0.7049546286950569	-0.8265707557574018
2.3947681585075937	2.314852826311648	0.5443509918116393	0.8954931361848655	-0.746584908872081	-0.2118191242219433	0.13020570625815547	2.3054759987692397	0.9652144027533567	0.22151228279207671	-1.3244870985499289	0.0646989935041029	1.0434280249533685	1.3763227915795049	0.24304454596153283	0.4750210633416857	0.10949916505354462	0.5089655182040804	1.2412149665248078	1.5383766506541072	-0.31691299135162676	-1.3917670364908745	-0.17069588258361765	1.4301164214090218	1.8158136556152376	-0.8769471374889031	-0.19787829058193845	1.196410372690977	0.09967394398886556	0.7651502886338555	-0.5689013665411795	-0.7286101459406668	0.4770627873678047	-1.389729918454919	-0.20555626507973765	-1.1212186136309177	-0.350836962840527	1.1804537152521424	1.3282768728056176	-0.7941503261551716	-1.8938177334563486	0.32067828549844807	-0.34967788141189704	-0.02174587535603059	0.20849038398474815	-0.6417396084849487	0.3517826375803312	1.1803249315210758	-0.3231550936379892	0.16334572430442276	-1.54502528077512	0.2830885635828736	1.3118835698583968	0.2682149475348044	0.732234953404632	1.2136314531666208	-0.9949516079181103	-0.24764448040063247	0.6802817537931255	0.26753640637351883	0.18266822577750141	0.694702932497182	-1.395645262784433	-2.14635443680665
