-0.42533076807404874	0.0651429744962228	0.193044966175774	0.32333291864262753	-0.17251315251908061	-0.13737244864689466	0.1510454526967946	0.2293721606813758	0.18272765760858076	-0.16493664639659195	0.16129902637612242	-0.27040715723394454	0.18479618346883447	-0.367044266492451	-0.4883377021578451	0.11416863125043349	0.07587479810263546	0.08491257438408241	-0.08281845152891258	0.07055499714804131	0.0057210147352274605	-0.30912760309197423	0.08864228827455309	-0.219795324886961	0.08403014250840071	0.22150716350725155	0.42211540143201703	0.606969733901057	-0.16762029701456996	0.17266710420193085	0.017936714707289268	-0.29541000744980733	0.022231939937313743	0.21968138691538602	0.5088135195287542	-0.10358833316665643	0.3599290107960922	-0.38743667253221376	0.01573364212498965	0.5113157359708743	0.05381894831350718	0.07388343986248896	0.11226797034383158	0.033777722336384534	-0.21723525622346387	-0.23659964032523334	-0.011284073124205998	0.16232649671805385	0.08445844619448631	0.10363988721876297	0.023705692557632378	-0.23672286347585628	0.10208936123078935	-0.30579868784592035	0.06870544156964285	-0.12755976047587794	-0.2335510526464102	0.29423542176616124	0.2269528975163325	-0.05862365058489034	0.4907133582582894	-0.2986673104293642	0.47453910963312057	-0.14371955502275136
-0.03773265585018387	-0.322922446672163	-0.18968061200208236	-0.25209327094240047	-0.16914291790269068	-1.1756826418934352	0.0553818835132349	-0.2927616730751537	-0.6940595343066109	-0.4518867547275722	0.09936784039945647	0.8764290444137282	-0.6691882854352217	0.29773181789877845	0.21279094054405287	-0.20425392884881313	0.18080769176157696	-0.41776010036142186	0.2689247573584939	0.7152488109304355	-0.10727868334228664	-1.1332391408138738	-0.6711098926602477	-0.607494724870928	-0.0070114592131196056	-0.0015508817247203443	0.2466943166385888	-0.8244277721292118	0.35455753764986003	0.4531499587317704	-0.8442160866153389	0.1967732647432297	-0.7337910587016686	0.25927508826996293	0.004360461919123142	0.7303900172989548	-0.5117921511815768	-1.018238315223344	0.59204278082452	1.019533579988524	0.1458637154256821	-0.24209379077353546	0.7126548524563532	-0.822388478194555	0.18354087984769255	-0.6019112600130824	0.9623244710729288	0.4512290286672046	-0.19863554523294363	-0.09922024618699278	-0.822323578187281	-0.9128539942442221	-0.21667279495915268	0.05310727545830036	-0.42360942239122745	0.7521314511744596	-0.053143377368603584	1.5223983794681952	-0.42094759712599433	-0.23610137268129705	-0.4801834585208814	-0.9003917664334248	-0.7250832336691174	0.2491118199730634
-0.21771218305566611	-0.029252457385410095	-0.10633800964480156	0.07942633889946527	-0.36989230874216694	0.039921910429916094	0.41934973165687517	-0.1531093602044331	-0.8251230171242204	0.03580322208848047	0.7696813245946383	-0.27825977210209984	0.5391604529583569	0.5786663593806086	-0.04642422194582319	-0.2767103797344242	-0.631159511873794	-0.24804260035641182	0.5937305069175537	0.57072113266622	-0.21140718578970658	-1.1296169243713092	-0.6791672457027974	0.15892183396571172	-0.1655275955169588	-1.0243127728423522	-1.3238904961929918	-0.3494915778967829	0.2786314293312733	-1.0594026241365166	0.18665870479101493	1.0530866417066453	-0.7370001888291439	0.6206723250567663	-0.5447994849101558	-0.8177108157897418	0.15846759321124929	-0.47532474206690184	0.1387251543031275	0.4494422397236852	-0.1447899883296304	0.8564956217123308	0.5388224434464546	-0.050806742360255064	1.2347523544374819	-0.4160389945065308	-0.8172852130727968	-1.0690412674648158	-0.6147590259913607	-0.9548138953767655	-0.5177522801529684	-0.10143758820887404	0.9175345099050781	0.33407459687276386	-0.19742944128871104	0.7510668730602975	-0.13677871075218986	0.3720979983899016	0.04404549714673841	-0.6154691788411603	-0.2282362904518514	-0.9411977655502966	-0.5080533308382883	-0.8389320190725931
0.03120887304759127	-0.22830970200377398	0.37955013869621823	-0.9424152117736674	-0.543802406519759	-1.651998562913501	0.773551240789322	0.9028927684926857	-0.7989165723504522	0.777978759674076	0.8335309118293327	0.3526445435982341	1.4868800837767198	-0.4040794186878374	0.5706599083109509	0.9891674181948767	0.8188894055152892	-0.027438407861871676	0.4315123325241122	-0.06906170488701875	1.559750294236564	-1.4816931644299274	-0.6556265573632242	1.3182497632490529	0.868565345137083	-0.33984411027555245	0.2621529082123792	-1.9275454876634759	-0.3033524127122135	-0.33426346361534126	0.5769669651998985	0.2763773435562656	-1.7063454352397327	-0.1487691333865959	-0.1969211480537641	-0.520615510282795	0.9191022307131002	-0.20933985892388857	-0.5699606319986645	0.5845484782051591	-1.245887355812235	1.0363137189689644	0.307692745007256	1.3931653850877284	0.24687446783561434	-0.6641502312240049	0.17787508857846793	-0.3833763145929842	-0.15775107394602614	-0.8517535560510457	-0.9295543324370672	-0.6247137000656121	0.8844046788282842	-0.9071992366141357	-1.1666443320560254	2.2670433896050755	0.37471770848952096	1.057286470165973	-0.03180923715840348	-1.3029737207853325	-0.30123207519742373	-1.9874155819219914	-1.4837801522542293	1.3434663779948455
-0.12120872270530506	-0.3910480963875722	0.46729700874938584	0.5364704689136467	0.018344018012062074	0.38178559436076753	-0.7284675534465298	1.0229917857287223	-0.4857586845491177	1.5256899829396176	-0.5030735206878593	-0.40082724324910024	0.41546070629432613	0.5662733301982429	-0.2991515200818058	-0.26896241153554995	-1.1790963827447112	-0.45257021786928686	0.45715221719343113	0.47293529039921667	-0.9015946506234245	-0.9232165367413174	-0.6991245103511173	0.36987535722866804	0.9264785772122139	-0.5219402770606665	0.8206380450238493	-1.171805738874987	-0.87729289649828	0.12527105744685707	-0.0255355254288188	-0.06585847793989134	-2.7288944249622986	-0.6786996039236753	-2.674593277986244	-0.21292695926246236	0.1931502068609551	0.01679426395526326	-0.4755202731414783	0.7938327035225499	-0.945677928507788	0.6589188457535831	1.0477158029728746	0.3708909148910658	0.5169034172208042	-0.8194983903014278	-1.2507992201982328	-1.832335777153858	-0.9147827798767019	-0.059471494035492165	1.024652161269358	-0.9122776132165289	0.6499206697537895	-1.0476683010896066	-1.391761872064892	0.506397673599667	1.301953042681903	1.6247226407315183	-0.6347977369619542	-1.1533366559164768	-0.21707490443463948	-2.2986074804283296	-1.1538827272315475	1.6718631065677592
0.03131359866017238	-0.3827308767324121	-0.7748401759237848	0.4248390214800571	0.4550105285984868	-0.22213730445864038	-0.7228235413611825	-0.29128434614912746	-0.5726638246806511	-0.4654417235095008	-0.43980988486319406	-0.3518251686230564	-0.4609430751768779	0.04424018916712662	-0.20474826964818338	0.16935737290325742	-0.24300412864477708	0.06181632606244305	0.23462823865563553	-1.5516750578776783	0.40547355964851317	0.19426918994335635	0.02112341174558204	0.5215269437944335	-1.3479698151629582	-0.031197259151391217	1.5071416860259808	0.0464524551737496	0.31461907444320586	-0.9103996867108078	0.07202048459962637	0.057222260843527016	0.5502248895487977	0.9516472552119287	0.4656357866366849	-0.0974391966576713	0.6658475366270933	-0.6192445189926132	-0.23044541333849441	-0.16412560990668804	0.4444112275522403	-0.2653213956250561	0.8720594305917506	-0.15309144017725793	-0.2764209405784063	-1.020170279602683	-0.05899308946005531	-0.34384716652926567	-0.582592162882253	-0.025423813164704514	0.12005945334831289	-0.8766854250823657	-0.6789409644009055	0.47695261709901043	-0.38081463548338607	0.6607728503320669	0.2865498103345438	-0.5617825729529484	0.3106686446151256	0.05625843127788207	0.44652481669342287	-1.0897509586268794	-0.40557012294251	-0.23316618971993155
0.39441291727806854	-0.23992413974145474	-0.09158928073896835	-0.00914936092887275	-0.10620771961496638	-0.9383243684622615	-0.799584486838879	-0.32654225038290735	-0.45477401195611467	-0.18318297737660527	-0.45270407356492753	0.05991500567725646	0.2426622835941627	0.6797881855573897	-1.189609270929719	-0.1953631229668686	-1.1559819342755837	-0.32925702731067036	0.13572459528503888	-0.6544703624288997	0.12031647768890377	-0.8120072729879394	-0.29720848534741956	0.1300234806626038	0.1790627623849599	0.5644789435813047	0.05141929343178835	-1.3256221659894925	-0.8357564784209317	0.41997369396211653	-0.18178077141748566	0.47229528720003067	0.007413071021699958	0.4520022986553777	0.6083771787883728	-0.672588688272697	-0.001180888444033012	-0.5445463706157313	-0.04891800230203173	0.026709989259687324	0.4818920759307963	0.014079400974629236	-0.15399638322992873	-0.06081585937771938	-0.46810117714038924	-0.07224028241777757	-1.1562666292144055	-0.035045632304175726	0.022176337676211348	0.7495361267889553	-1.2530540515296027	-0.3286403109284733	-0.050455237652251544	-0.18931494216565237	-0.4267166084971691	-0.9814940284122561	0.570748283086	0.4179812857136485	0.35513098721545183	-0.44634612695895304	0.3318293808561238	0.3764881268194005	-0.03200720877228758	-1.0395443024724766
0.11689624926953898	0.02812048757742615	-0.6729630747746289	0.5301347511880367	-0.8590872420960661	-0.06123506200051169	0.8872417440795486	-0.37936187825508283	-0.7385291451558298	0.24442345521856132	-0.40367855312491635	0.09122336481058752	0.2841984731203185	-0.07753541658205963	0.3818558420852625	0.1946785684900922	0.16606839131329917	-0.20504475950907386	0.7018318060118275	-0.051431911342481706	-0.17655499959937068	-1.1902199089361396	0.5644977742811581	-0.14705962271815504	0.3632805230911725	-0.6163761146187052	1.1557463157518753	1.0154558090307517	0.061918467402582764	-0.1843186955153599	0.06370375036492588	0.29570945689194933	1.088728150085203	-0.9976912264094298	0.06185446977834408	-0.6927640211581617	-0.07972021335371256	-0.1716284993192139	-1.7599304291635187	0.006205900866672347	0.7357043971112733	-0.2068808088505282	-1.2351837883850783	-0.32031875815901517	-0.49423570082102697	0.46226244988709436	0.4273982822504416	-0.10675436614511333	-1.9105390970132785	0.9937265224683558	-1.2639480890125396	-0.30595010810974616	-0.6868556303205933	-0.23316567443425934	-1.0858201308336248	-0.10265213614301329	-0.220941966178757	0.434785529724517	-0.030241174977284895	0.31736907292856076	-0.302477496466546	0.24025033860777145	0.005752865819590804	-0.11808998751829804
-0.024919375408257845	-0.22833546689010278	0.39557076746841024	0.4965337489493839	-0.6044009907322022	-0.6772007369367492	0.74112334713659	-0.7787904155948434	1.3660984490206776	-0.5532713386315699	-0.22330534584860198	-0.1174276035860808	-0.0320661566568731	-0.915601771758571	0.39497259857928924	0.6866813671958792	-0.04867227410182268	-1.0492975004363945	1.5470631984247654	0.2448492612968874	-1.2407353940425403	-0.29175858647536423	0.007248876606860084	0.8728792218769506	0.03312221267030378	0.22805287680816982	0.9553273453278903	-0.9375550344903413	0.41268456304099477	-0.22019163257819785	-0.1225093596798921	0.7515173079438879	0.06605071968365735	-1.3491206468025565	1.1339389988543496	-0.8114089843211294	-0.8119844486636189	-0.3851830925187001	-0.4706638062240032	-0.09498287703127856	0.7786908118810528	-0.24366767806703699	0.4038447711360231	-0.17120497208189675	-0.27409911489913397	0.06313733343907303	-0.12739362891129064	-0.21917968029294638	-0.951806309789912	-0.16685083851294616	0.5434340542881761	-0.28610997466470023	0.012489108263196625	-0.5240366791953839	0.49367989397050677	0.19343336376114645	-0.09649686600587082	-0.6877096158895828	0.4517670659327057	-0.22364611397067227	1.0087069977987797	-0.6721774197291651	0.016202425839793845	-0.653088609293629
0.369318839225729	0.16472779762420106	-0.3807346667231175	-0.14700950192616574	0.21942992883666407	-0.9723520320090735	-0.6247087341753016	-0.1062328605572151	1.381146008408051	-0.031060842931318645	0.5191791531657277	-0.9881709624034841	-0.3762604343529805	-0.10888252576184428	0.5167538940360402	-0.7764245542139377	0.6196803274714454	-0.9918919915302399	0.5514399926548228	-1.1355691281446625	0.7069119378881149	-0.33434203415500197	0.2780551839046579	1.1635248108819751	-2.7349288017356677	0.07026645456099004	0.18486461071865654	0.12994994048858494	1.1128959861030587	0.01738918061477711	0.0776390134540841	-1.7129380953953104	-0.5309564974989839	1.387400450071925	-0.12156778072266745	-0.5161783978750056	0.2307073956067534	-0.35703281215863647	-0.06920379581169407	1.1226792156448668	0.45760749067561535	-1.1906952215578923	-0.5780416545003388	-0.5191588987595971	-1.0191450226896392	-0.7506945598844981	-0.7026927281352626	-0.054129586830225083	-1.1996482215933604	0.8204315580995336	0.06340654349053408	-0.08742079005476519	-0.49692187039497215	0.715698112380662	-0.41780038956440024	-0.7909411148801766	0.2806820416095984	-0.36945783206705163	0.6200867911318219	-0.25180438696168245	-1.249344050830244	-0.863629149621265	-0.06582229857010195	1.1443043713403016
0.11897117846850784	1.0697114196904873	-0.20242970320854461	-0.4434245381314492	-0.38662926336440984	-1.019194013775436	-1.1254732363591953	-0.5146968182856294	0.40927840989193476	0.7623264996987383	1.2313873507642032	-0.014766290029279787	-0.17779450084047635	-0.3974339757761346	0.4743898132130995	-0.2939884741590809	-0.4146994397609516	0.5095858182064887	1.3086244854121822	1.6112831889231949	-0.2941364475520886	-0.11317833726261062	-0.21122127404532925	0.40198931946026334	-0.42083896297451495	-0.6545190073200596	1.5230566357995263	0.09389821164044106	-0.5240023610090118	-0.583387505390626	-1.3400904920399608	0.4783002112493342	0.5692357492086203	-0.9893266895748055	0.7300977103134048	0.5556758869188271	0.6235943043942737	-0.9633783195490474	-0.13215288238970513	0.7227640543894844	0.3355282873160649	-0.945459716127216	0.2243066095752187	0.0799357969720138	0.9505345183566534	1.5078526232347416	-0.27047776760914655	-0.7813392192706813	-0.014368807028773837	0.9532562937797009	-0.16695443853314273	1.200630248331791	0.9750712003142751	0.2646913575380165	0.12485511446482503	-0.5890146526026745	0.5016789943077531	-1.1679979052473846	1.5448560124287836	0.848161731810453	0.7340432457159201	-0.16938087453340653	-1.0721337920977079	0.10822683398520538
0.030750704496013272	-0.12472087960664557	-0.666335470592775	-0.7208643415480201	0.05970038184076936	-0.2845227966715306	0.6846739103957087	0.15318072241047742	0.03534762459429954	-1.4613281630582433	-0.4875686024163887	-0.709323320103648	0.6747357012050084	0.6850038294042269	-0.1483695012454391	0.3678757332741726	-0.9235737007938046	0.8191557449534476	0.6968634139125283	-0.7091556275915903	-0.329719069869542	-0.3423247439844521	0.09432269646273522	-0.06354000977478515	0.6273029962586462	-0.7481541400390108	0.895263995156642	0.2707950941211963	-0.10809559308865611	0.3641321753045678	0.23991729476709464	-1.3164937706111572	-0.9910837172018342	0.5951552281683289	0.29733455312958956	-0.47647631389289213	-0.15347443374646913	-0.29272081189604193	0.5418933242380186	-0.19132527669194796	0.8290730058228637	-1.493516920039781	-1.2134661991896625	0.5678995596236703	-0.07364024611239814	0.8049888659397217	-0.34494633684924797	-0.025827573830190347	1.7430267975288354	-0.7972027409630451	-0.5166366108666041	-0.7302528125493906	-1.063204735210388	-0.3792656737255423	-1.4382321170840815	-0.08255483593232311	-0.4123868171010291	-0.4184195121972624	-0.15031803430649787	-0.7687694473576712	-0.2945595104041975	-0.7198267036054526	0.6233063382372744	0.781899898019675
-0.018271802165092346	-0.07269800531106914	-1.3932671884556973	1.385234153119705	1.1130908055206152	0.30358868915172377	0.1553072850325847	1.0740352322814162	-0.021220249455085854	0.8325540178311274	-0.1742635817189269	0.04661905012103206	0.31185820402269315	0.025726406853080346	-0.5356864282147413	0.4757632155381892	-0.8418183750699183	-0.881544666992902	0.8897723906184741	0.2398624624201071	-0.0849905208696131	-0.8043626273887728	0.9104013524472023	1.6915374957483587	0.6282994786555359	0.8881995922129389	-0.42149936674589383	0.1731109410991957	1.1688201575326391	0.7353705850354953	0.4982565079012919	1.0039094194189861	-0.45723796417161106	1.8795348309517195	0.9894137732387019	0.5786826535898625	0.070468055594225	-0.9952406244551437	0.7061091759782685	0.48141092530311297	1.0507408306974746	-0.6895353217872053	-0.3684085087208468	-1.073269524484837	0.5887090477724414	-0.45906919851401035	0.2809451544336353	-0.9458680490767789	-0.5788760643991131	-1.3503552294115178	-0.18864968424231124	-0.16039841370121513	0.48627210640044716	-0.6271470831387577	-0.09090278547713285	-1.0640509156447573	0.8872348218798899	0.01284077312068171	-0.33560725505631495	0.5947885570733307	0.4624946371194993	0.3448816895971381	0.494554977989611	-0.11529113796399851
-0.7649327741353613	-0.199469253155255	-0.19882801563384436	0.005743606166851772	-0.2763739458878229	0.47222152387865113	-0.44738244336192123	0.2663740611527378	0.8992682228969399	-0.7307144122170329	1.271477573517527	-0.14770382152537834	-0.022164847793525358	0.21024808417569832	-0.24791803497605577	0.5765252317413072	-1.0047538272232928	0.9268861847585124	0.40749209700979994	-0.3322319401525341	0.2478604552383707	0.8016679713945141	-1.7340186192370661	0.7070256388455984	-1.0870272742045661	0.3013904206172439	-1.5595056031631553	-0.22720256300052896	0.17767876742824232	0.06618290746521405	-0.7099059412771938	1.2338515895362807	0.7181613285056448	0.10106464141854257	-0.2435422565590603	0.42890251730577855	-1.1463753771709957	0.5688897594157694	0.473955195631834	-0.6532892133870003	0.8901867723816491	-0.8851711527988531	-0.7585538006820987	-0.05366285378494513	-0.8346142006141513	0.12567347022057057	-0.13735416219471863	1.4259534835755197	-0.10413761543878691	0.1468389964487479	0.28740028409109414	-0.1479131253104949	-1.9749281847650575	0.42605425641462813	-0.7864566108919652	-0.2698757460379158	-0.3828021157535663	-0.28448332107810737	0.3084338991820166	-1.0527954867434457	-0.1678346036095032	-1.1218265873309623	-0.6575787200744988	-0.3323581821244235
-0.8643341763835954	-0.011272318583774869	-0.8854272597471997	0.07810902596872803	0.3337455176844278	0.6743234859934708	-0.8586738565986549	-0.1082142484236875	0.038295327585016165	-0.6381944279831169	0.07734622349777578	0.09070454917051406	0.850217173548513	-0.5720665985925101	0.27184692863464943	0.6519569542649787	0.14873568164443005	-0.5868185375613897	0.35565883518413494	-0.6805057575041151	-1.8233626126681817	-0.23744377433813116	1.1868398766477977	-0.4877417026610446	0.2902180043567335	0.21639055007389588	0.1490254551986185	-1.7975745201536233	0.32377193682166017	-0.5822033956855953	-0.26112226241038616	-2.0282210984156834	-0.4386626223104857	0.42540651139870334	-0.10043226285550146	-0.6514816996250775	1.7726179683584533	-0.3658003550144614	0.5369496683333587	-1.5716089822114991	0.2429727601358675	-0.38460958254056277	0.7611148626581894	-0.4858620351045125	-0.3706528973641917	0.720325380388589	-0.0811418266410956	-0.3797827842735962	-0.6241114909513596	1.310857831576803	0.08784867912863456	-0.5023578204797633	-1.2729203235604678	0.363325432410392	-0.8490181598554712	-0.19969253698401374	-0.8348812165862817	0.4238816523103592	1.2947594695583977	0.5403390256930388	-0.18879766317271596	-0.6765333539296849	-0.021409933728398965	-0.1752764761574357
-0.20945157869316688	-0.8211223590589593	-0.7631336473773743	0.6933010408046792	-0.02584288857597678	0.9793684278472553	-0.004492436156218796	-0.34506616456611	-0.6386344660648922	0.7545654573337717	0.4653807287780942	0.34698867470971123	-1.5945593115894041	0.15566435983107468	-0.6621743439659493	0.03357523296268699	0.400505326456897	0.427846079411688	0.763142684953424	0.3846310175283252	0.06221230243330101	-0.35592969964895593	1.4869216683606092	0.709735919365346	1.0384737099746018	1.0665648459343562	0.8814047434897252	0.8365891537313505	0.5286567180221727	-1.6537154644921066	0.10742583532140232	0.7738633305916669	-0.5779774839353461	0.8254149669181654	0.16113385284220957	-0.33164639389810985	0.10016698237489616	0.7521034269271951	0.04587993740573726	-0.2556307934092099	0.16121738678806302	-1.1344361940645642	-0.38586626162822873	-0.20704916607083415	-0.564177733947046	0.754469899774181	-0.6056363021958657	1.2861466531843475	1.2506920216096724	-1.497204360234861	0.2359325320664426	-1.0389021455144447	0.9932710378367645	0.5162191617926609	-0.8533656922942697	-0.3367574039078551	-0.45760631437912286	-0.16010091290935208	0.3086147238611441	-2.337499682630335	-0.500471539201075	-0.012835111624076344	1.4689415788358593	0.6603298790969261
0.3521944535938132	-0.9525366260440469	0.7532744882332758	-0.6750730994406996	-1.6315369049195108	0.4100746450304419	-0.4429040057976483	0.3814401833804108	1.5865683433884599	0.16510302354097392	0.08856499202631173	-0.15915602790948058	0.4715456149485819	0.5066030529638045	-0.3770529044191289	0.5919197459397327	0.03797525659245596	-0.8741551672826003	1.7234739356110402	0.016404852430850648	-0.31468170497794995	-1.8043433725987466	-1.1348885281777257	-0.7136582577704127	0.07493749896077531	0.6469028314855316	0.6921752123843814	0.4524437110579904	1.5663138826570138	-0.9088283234096096	0.15749967051808614	-0.20682386505924008	0.5951778594248519	-1.1259938391568527	-0.012528834713433187	-0.6937741176329232	-0.2586835585129513	0.34515552997129073	1.1209502465494643	-0.9345216408809487	-0.4819900971000597	-1.1060266896031774	2.0452358308468646	-0.25547566640719105	-0.7771013523756705	-0.25820321662574264	-0.6722706132781	-0.04433610594375745	-0.835415796792867	0.041669377169278966	-0.0007888866257203359	0.0599084787520883	-0.21974060963818537	-0.3399351030333331	-0.17510921635636822	-0.35325290149364597	0.7997244084950396	0.45141333278701745	1.9719317972321235	0.6442497959344928	0.6323411245352154	1.2682941689980858	-1.2754316383948143	0.15614763217933778
-0.8416136604213366	-0.07490347556541722	0.09035286788857998	-0.061861868973783284	0.18444489943771453	-0.38778869302185137	-0.14241105726573297	0.12662082697090188	-0.12466787802158819	-0.9314004407493616	0.6254326189732672	-2.106015507696304	-0.2554657930182257	1.502844980305373	0.15024853542361985	1.3866412202794283	-0.33295381109604605	-0.7398057307773519	0.4288261835674845	0.7674763167030773	0.4582092184272722	-0.7551696238181053	-0.34741772834207657	1.3250233481074238	-0.32625676107092927	-0.1843093848421569	0.2065017975734201	0.1387669218213768	-1.0833216350909074	-0.3599373879141523	-0.3856897889384592	1.0064179550291519	-0.09142077977368707	0.40570110942711446	0.6781878944257287	1.3943195771071573	-1.1643134811464222	-0.1345016541854228	1.7407663511673186	-2.6556734111139564	-0.019290406411878586	-0.34835079967224847	-0.9403405013377059	1.1327289389085264	-0.3955289842855016	-0.5373323396593223	0.9359225422418471	-0.719638961186246	0.13470365254395383	0.7611632962631185	0.9368276692816292	-1.506454021089745	0.11151884377334084	-0.26821365334777747	-1.065862797371177	-0.6657678151715506	-0.7387919458981185	-0.5834660633253504	-0.9114823245203627	1.0013315553209265	-0.37412380502084913	-0.2852149615595531	0.5905719577137368	0.18733972124274914
0.11563564224091366	0.18807528309054017	-0.4973035747828822	0.2772124444676196	0.49861923943356573	0.26888412927644095	-0.4485763796439337	-1.187127377001652	-0.8454189898081643	0.27623328834932914	-0.4688237902720392	-0.1873782843907246	0.7497316704021418	-0.09067363660282278	-0.6385758007389708	-1.6184104524550285	0.22311067751871724	-0.703371012022988	-0.17625648668666527	1.9660058372860554	-0.6643449091259725	1.1042663666441281	0.7693357613411784	-0.15920361149110637	0.7258985334775343	0.5647772303159138	-0.031020562224708642	-0.8716171343688611	0.4290285425201684	0.4749071028307147	-0.4132055402979099	-1.814469553688027	0.43693913907477017	0.24143044362861843	0.2209288138286936	-0.837530907828427	0.5857788240376324	0.9709679124150322	0.9495044039850045	-1.5433066190700093	1.0949075670059167	-0.0009625267180850271	1.5000314045382925	-0.12244979078590025	0.38053993411613357	0.12191124332412075	-0.32956205802005956	-0.5177805329902869	-0.8314264285606217	1.5294308493388769	-0.12179957183950277	-0.4477677888100104	-0.2820218790319965	1.2910942393658331	-0.628773987828005	-0.09147311208831624	-1.3395268566048835	0.11059461673584953	0.0873931893395664	-0.6804189276476376	0.6671866009586099	-0.07707497317632495	-1.118411853606393	-0.46574159586008995
-1.3885515050308128	1.2512374268779665	1.2635951809805852	-0.05216171594529974	-0.45340654412893194	1.7738912422318918	0.920529313488467	0.3718683002055817	-0.12050952856432234	0.14526663909783566	-1.0733013725874119	0.9513829960608471	-1.4908149013239034	-0.07466391886676989	0.7613012877555554	0.21123979467647883	-0.5911540139065167	-1.2726641213536742	0.2853217524542028	-0.09051829587308562	-0.938128638421447	0.8056823763838378	-0.12877093692844555	-0.5808606937257241	0.3440348687082906	0.6460978715809825	-0.02436054536362352	0.5388183447894211	-1.1504521751028398	-1.0351952319125959	-0.1644506235088334	-0.16350001192961405	0.15554574163776103	1.3308931323586208	0.6460124653138133	0.8262338744949884	-0.9942230917165096	0.9626362644197757	0.18541504107966963	-0.6451727575952477	1.19344017294186	-0.04932979543711102	-1.2138446301713006	0.48820888672306223	-0.08170879362791332	0.6634475618341997	-0.8454874966225312	-0.09794044580724205	-0.4911690601133753	1.291272671411736	-0.7158041792967954	-0.5031341974069662	0.6458392076166722	-1.6580605839578801	-0.8746479357214619	0.001982711899455384	0.5968655795104413	-1.0355951278625455	-0.7187380425013584	0.18144811990405021	-1.4804023912102264	-1.30144454993653	-1.3001045953567634	0.12483794268983164
-0.27470158518131965	1.554295644574798	0.8142286372061456	0.5932330851654226	-0.002678696607526825	-0.35254969345128007	-0.5460536172090179	0.06566255242147909	-0.6106943596109239	-1.6482853330609868	0.1803430403711627	0.18763966219493022	0.6570788995946752	0.21315322810458767	-0.33929668625437853	0.6425848740288409	0.6947887134242716	1.4709532144449076	0.26935961572514244	0.1067108919124311	-2.214003936312031	-0.4949030213476306	1.560426299900401	-0.6369236865856563	0.052770608349369974	0.7072226416535623	-0.017500721044494648	0.6456730020860058	-0.11987566488643799	-0.28077007459937375	-0.6971080072891853	-0.33268238547272166	0.8342111213504205	0.11386796992682503	-0.8266421333583375	-1.0293417468708272	1.0745215067532645	1.4344039295938842	-0.0009486358302823618	1.5429280153800284	-0.4069691348875941	-0.1786651729824701	-0.59954540858513	-0.13723892638898602	0.7837906165419473	0.20202921301563792	-0.6305877906422153	-1.3424491122420597	0.2124011501579526	-0.0395277924070652	-0.23309067945030562	-0.6500996546896405	-0.7532315518478776	0.34176858980382474	-0.9201090184514832	-0.017963215459160603	1.224417857537134	-0.23198010330849378	-0.5621780881988331	0.1424468075196901	-0.23493811551792462	0.3178847220156505	-0.9148492483424897	1.4945146779054712
-0.12842455978797282	0.5050109798405199	1.0598363769004213	2.0777747532336592	0.3028406182633657	0.6551061843811747	-0.3741504064886933	-1.319852653052024	-0.6105653836024763	0.7809729699402359	-0.6639427193005808	-0.7273852552632498	0.5247914443371628	0.32375990014184886	0.5142991241799655	0.06265666976237164	-1.5380290976736728	0.007552903855222049	1.1003400036274853	1.0376444451152813	1.2687381677237701	-0.3147186877458208	-0.8739899709722632	-0.41660933365549696	1.1027931010628669	0.7545217499068865	-1.8513540527294807	-1.5029024156077	-0.3633355644712527	-0.2311232692903202	2.0458997331819213	-0.5544328933010296	-0.41784204504807376	1.1830966561807583	-1.8537878034034556	-0.4374189368462516	-2.0092032111862714	-0.36313732141492744	-1.5851042144470655	0.44001963266965943	1.1024138722071037	-0.5642055709373613	1.2457027897091115	-1.7842907650531268	-1.572785165116768	-0.8201967995139385	1.4846343049447073	0.8096705160257426	0.37183447678305	0.7327160883274881	0.0647858710460233	-1.9507570331247652	-0.5804822885406139	0.6858272065372611	0.3311291313246124	0.13524498910236815	1.8405413447571446	-1.2164220543466502	1.1443824286084958	-0.3174373891636072	1.0614496128387503	-0.9383447003672247	1.3259749080408525	-0.0562656939253237
1.0918999344128053	-0.2609467713264115	-1.431116125839575	-0.5514031248301503	-2.2302774818863274	0.6705772547397681	0.7893598966956341	0.6943451534296652	1.7320458430097514	1.485923503071275	-0.20230021337749585	0.3049479756917024	-0.7018000056774428	0.7973532447854804	-0.00018711591936256252	1.4421432901896731	-1.0945011819129618	0.19447455005651698	0.5816015043437505	-0.4747882562701469	-0.5605632827858635	-0.05351765373971518	1.6037862667112552	0.4263028143378338	0.917049877079681	-0.7181192848125353	0.14548742401259154	0.23702299147398326	-0.3826359941561304	-0.1531168520610112	-2.2549188484273546	-0.4865661023150073	0.8921872516762537	-0.31748559012530014	-0.7525961000719922	-1.0791700737732743	-0.07256981670481422	-0.4412943570458644	-0.04324781335415756	0.11675618119076538	1.1169333996628452	0.3604614270599708	1.300679491417071	1.5334190636207292	2.2205816916698495	-0.1483257380748666	-0.3509706358124971	-0.18400469040928696	-2.7197925213254313	-0.8084128659858951	1.3603806517508163	0.1084158624984723	-0.08555234723245722	2.008486316645223	-0.9233015961142662	-0.06078241216783306	0.218499462217248	1.5911318594654202	0.3221592512337361	0.041098528261893315	-0.2990468093954476	-1.4028674128761647	-0.0007701737066443409	0.7201691420351615
-0.5343379621871216	-0.17129507908463237	0.10840072517452873	-0.7211271526104156	0.012350481530462384	0.502521767883389	-0.492564066486564	0.17012207880030558	-0.9144771152364494	-0.3227759087895245	0.8047761120805805	0.151800664474051	-0.23937095096120753	0.17060130958449304	1.006332911746779	0.37813818438845714	1.172563261706285	1.3750220998729934	0.18148219061491944	0.43549283388596044	0.21406590778854814	-0.28210789562425514	0.8236767097432558	0.05261869926909987	-0.18077622215708095	-0.43112075505999403	-0.6922084288711371	-0.35873943871934966	-0.554129949744627	1.0465743589418097	-0.26901889143565355	-0.4070323813963613	0.7033570474718507	0.1836982114648507	0.17964754855688786	-0.25475060568015134	1.2764100093683033	0.16739685970264603	0.5444927927449225	-0.6622990251208003	0.4527234114965542	0.2936375400049238	0.3504639631454222	-0.08646185409802877	0.08122499059749375	0.3956477850128506	-0.20262166153818642	0.49053351275623847	-1.0130698946091132	-0.12810433825520529	0.12315795775224399	-1.3474586836883067	-0.4395713512668906	0.5355551814909847	-0.193078805494036	0.10132824233879657	0.795155787888124	-0.6428354490291478	0.2522501259739135	-1.6996615506283412	-0.12622317154559032	0.9465084522084611	-0.41394764641379184	-0.37212844206985046
0.307246474256567	1.0719466988739967	0.5013945277596842	1.676605110137877	-1.887214467762419	0.4393915756141608	-0.7563892170770836	0.41619554213518034	0.2944167248197151	-0.16858064162534261	0.2954778460706812	0.13200063104900034	0.38471060231267545	-0.46552927811929556	-1.7016448883045217	-0.4213624778126227	-0.12162237022450723	0.23227324941939562	1.1814498917228913	0.17974352011852063	-0.2528847630319467	0.5162456935111307	-0.6177564777806415	0.7042305832950216	-0.8819025486664489	1.2786273565884105	-0.17182750493613647	0.4098410170683909	0.6658318036344008	-0.5451666318596732	0.03483066776041845	2.2477679893036573	0.05053293306990961	-0.14286086011801893	0.19225679261749481	-0.24561093151029512	-1.3472646857091404	0.547656123987201	0.7308031154667793	-0.8569902602180371	0.30748259082662427	-0.14142159909442764	-0.6175114517668617	-0.29460800572392765	0.1985751999709588	0.6160718271491695	0.13757863206481596	0.05294769510716234	1.396135608776308	-0.7536770670718863	-0.1127047232062289	0.9838569137400692	-1.8477184723810924	1.4177403254278995	-1.6577157264459432	0.373977049337017	-1.347995385717827	-0.06161115985529555	0.9859230126485782	1.0403931304550313	-0.5496324072583617	-0.9795259502076133	-1.245990650261595	1.393505227485171
0.9206943497528236	-0.4620646966255039	1.3046436402203034	2.0007965827379888	-1.4775000141538293	0.20552208762299504	-0.4909329847693533	-1.1783953718472893	1.4614338079060847	0.026841640817587862	2.1961113321925803	-0.03637386770095428	0.8427239079273637	1.5231288854023253	0.18607916732533256	-0.8757729377409095	-0.31768580337305613	0.011354913259655559	0.6994188721629253	-0.934868901716051	-2.218399754758496	0.9649999480301239	0.20118646959494182	1.1020433611335523	1.4266929198083815	-1.2410868569103595	0.025183392812100133	0.6602680766159996	0.10539678497413567	0.7262537829170227	-0.8263753408839055	0.43678668163059386	0.28176859430770707	0.23638561371605502	0.6385739215970346	0.5638453050624573	-0.32324228377194564	-1.06216319461619	-1.0094539525297075	-0.34500677882200687	0.6292390051679186	-0.2557524764418287	-0.06287231630836998	0.22314697208254336	-0.06280132623360689	-0.1950836199264493	-0.8770183714280282	1.226779270351438	0.17066160365051766	-0.22193254703988288	0.36626563007018953	-1.3409885660178775	0.5107006252146477	-0.549254682213639	-0.5019508116642226	1.174932993562592	0.9686033596765316	0.3808331359132985	0.5182428916477109	0.6641336948366454	-0.13251578033598238	0.4478542308265866	0.2238469361849695	0.6036075944721135
0.45759172410701393	1.426208305566416	-0.2094818611638606	0.6035231175265465	1.5497044149962642	0.3454856960968529	0.6697955662665149	1.2215513362347346	1.9129587800719536	1.5909057070002122	0.28888731121051	-0.16916730937475458	-0.291597547315885	-0.3946731517746243	0.5074745024485795	0.5602831860052798	1.7463665122037626	0.991455543864876	-0.16970351375400558	-0.3103688757559	-0.07102161807989213	-1.0752707653674252	-2.1924074958439097	-0.8414600916720896	-0.2414713838227341	0.30756563967780104	0.3738919192929061	0.17332402564773983	-0.5173740524491353	-0.370175259962303	-1.2266132289438152	0.7947783099315215	1.5456659863293134	-0.27812051382970787	0.5547662400733275	-0.6074505253800266	-1.3160962919381545	0.1735076312479272	0.3759302155262468	-0.19163557457217964	0.6224258856840535	-0.001214457699266957	0.148574861244845	-0.2604100262214608	0.3390039912660837	1.4135248607337032	-0.8294970965849493	-0.42151487821565903	-0.8294454033839603	-0.2940303394589298	-1.3871870817015044	-1.0452575850202461	0.5744444844411896	-0.2787319158574074	-1.069741960461566	1.0415537841683404	0.20432815981120828	-0.37428884986064	1.3749963144840798	1.0633585825316032	-0.8408054840539135	0.2813199177959054	0.32260711181152835	0.2018404636550941
-0.15578882375825953	-0.27419120235231365	-0.3365706216200673	-0.7657828566138769	1.6592413882959567	-0.3035929996805067	0.6821156187941266	0.4931080079745289	-0.5087027788871128	-0.6395036857738464	0.31407488911019643	-1.574555084420181	-0.7595697403816276	0.5360385850615084	-0.1492791920118592	1.229103043253573	-2.0244132732786335	0.6073879373398154	0.7320248456519525	0.31048426957676933	-0.7193058445481096	-0.6604934580177345	-0.13419494090389142	1.5654418156608627	1.8197202674734283	0.8399359507809646	1.4092448331121041	-0.08109963780898574	-0.0008783694666019837	-0.4628263687403409	-0.2887373233446698	-1.9784962832836457	-0.31354054876728527	0.3952022635730427	0.5203715902847239	-0.5257356530327051	-1.4671065609967593	0.4833173922007654	-0.35409003522184385	1.1472555711039434	0.9285012976901007	-0.9947599932527668	0.07604588656934809	2.1077925748775264	0.5653410879312744	1.0774356092235415	0.23565469073010054	0.4589457492558167	1.3584792194712483	0.1503933465878074	-1.0671439258333433	0.3580095838219933	-1.5069042253695561	-0.7201650061779208	0.11714661526347211	-0.5295132349530622	-0.8023981678539979	-0.9497950276460339	-0.7442214888776115	-0.8276598586751635	-0.16492401063688833	-0.36816791533533094	-0.7760661593912007	-0.5226721858203551
-2.3967633396276478	0.8444864383455903	-0.39456906623821963	1.6709238459833624	0.8663405456183261	-0.9516418760937664	-1.8160988474277486	-0.8060514430291805	0.7727924814390493	-0.45446654445788753	0.13320183601211227	-0.31799635469446375	1.0010468943399071	-0.6713241035747454	-0.16117338892320812	1.4282726353112742	-0.19727392448827075	-0.5348946904709388	0.8660248300355372	0.42809357789200664	-0.9020681913491181	-0.026380736648088786	0.5064114214952539	0.39804658176893015	-0.05970833892655766	1.496368694839584	-1.2766252010752388	0.17402084558332243	-0.13313538777119885	-2.239052554357399	-1.0912458543529588	-1.490817284060091	0.44929448409701817	-0.956682069079065	0.25967589129309304	-0.6034951763224302	-0.13248840654897628	-1.1904863464181574	0.6382185879146957	-0.4956728755669444	-0.09367185479326028	0.938308985929165	0.711452392847841	-0.014422036864779485	1.8405553247210074	0.1232537976308218	0.29006059449685795	0.5197759557513182	-1.035634807770653	-0.35899670758360014	-0.05253068932369454	-0.7484598643425252	-1.7068538468570662	-0.09341615742919	0.3051165101551768	-0.6772804263128529	-0.29072772614959047	0.3039534862838336	-0.024574347635193783	-0.9445554274636235	0.4024419407695255	0.6123825711769313	-1.0073563411650268	0.37423567513000744
-0.13929860025828886	-1.4208002163065854	0.81205352254409	0.11867630877666419	-1.102544076687666	1.096932917078928	-0.3778253698324035	1.313370991066618	1.5486287230380178	0.0301261338359563	0.3008679118766403	-0.23641098713747222	-0.6845546038778023	-0.9865591931389487	-0.5256636634789903	1.0431171615262462	-0.5695614544091085	0.8525351729006783	1.312452386037173	0.17617339781887087	-0.4703854321294145	1.613228621923575	-1.083982260291796	0.16252677704176619	-1.0311865674182863	0.6733678444841606	-0.20728060194628936	-0.7979119872896513	0.4099076164266794	-1.238620116865265	0.5199312761112657	1.0028892141173498	-0.17066880416099933	-0.2112306102624974	0.002867721740598778	0.5357673828991113	0.6301601257610566	0.026144847606602562	0.6150930989418711	1.3218896341577537	-1.0509672367397125	-1.947180693485342	-1.9046237136501099	0.951268426221289	0.5717552620951492	-0.17479186272419034	1.7275803552777667	-0.6302862898859878	0.2598417569831355	0.463558431912238	-0.32169410540348387	-1.0477031457353325	-1.3590497249048785	0.7281926355346544	-0.6285248806885624	-0.4777404279407976	1.2247821805610424	-0.39277078646121183	0.053492267927681685	-0.8121941507729803	-0.2654570296416023	0.3652210897043141	-0.6032693862382514	-0.7485032115851314
1.6849060595826733	0.514910639553108	-0.6728863450117676	1.8504896797190074	1.1342190090872488	-0.8249441435086234	0.6023522551113389	1.0462973627657497	0.020805297392217474	-0.5565455060981379	0.0648742792868605	-0.361542473391142	3.371030407992516	0.04749463331006678	-2.0789318122534675	1.1139027470331795	1.8465601543259416	-0.7754716157960506	-0.6018074271016387	0.3960298463440884	0.7659551383226706	0.33153646043020646	-0.946077042152733	-1.7138834670142542	1.01483601886265	-1.4427516448194984	-0.3965615258331952	-0.2127225756231452	1.5755451848962598	-0.9775810220074982	-0.5312375444000367	-0.5517242059816743	-2.1517426031813605	-1.5928474602069946	-1.2354060478177853	-0.010009537337200622	-1.2676314747317372	0.44013997615623496	-0.4003370195140051	-0.8197656803258279	0.5254896381241708	-0.6122481441560039	0.372609582119304	1.0640480839505329	1.7208453407525266	0.321980471868229	0.18950338303917538	-0.2632016787099853	0.408146698844647	1.3828497551038084	0.9843067791975434	1.598282729328031	-1.2840450899602993	0.13218330923148527	-2.220491605579555	0.7110520405370256	2.106605485047481	-0.40229681944969725	-0.4166012603165151	1.2503266399740776	-2.6146762641357806	0.9643817839789095	-0.415228266878599	-1.7235920871002373
0.09770007090502898	0.8153973046698809	-1.1415736887163395	0.6052050719655643	-0.7398888083497349	-0.2506672171127931	-1.0326706498951994	1.2757313307717675	-0.5644142468872974	0.16939237091980686	-1.1452067880756471	-0.683333184541849	-0.18871965143647848	1.2050614165237639	-1.025194459745803	-1.529984061620269	-1.6944658438827864	-0.698357313205034	-0.03229722463873518	0.34977750421113046	-0.5237672754427183	-0.20616612490179714	-0.33279496240068196	1.480902121417013	0.4563281954921216	-0.6922059658514168	-0.839420939439005	-1.3344608545930965	-0.6577214361358178	0.018124500310376497	-0.29757348671666956	0.22365886825708367	1.1106083315562252	-0.6712659237432489	0.47452265801660704	0.5088073873828775	0.6214948718177485	-0.6191025471818432	0.27307697535629416	1.554388780875176	0.510779225365186	0.802855872598545	0.27867626947890306	-0.7774524320864	-0.36338663719712844	-0.7417652791279057	-0.5279040866020623	0.5709653931926337	0.3291675606355239	-0.9757136136108538	0.3186876809486015	0.6943672853867325	0.5341501710734506	-0.10469159681039446	-0.13882558308071255	-0.9027145058060411	0.9183728657780342	0.14729682380914333	0.208647792893365	-1.0218096074155867	0.3341005060762512	-0.37026637680742225	-0.4765155087091049	-0.8447021107093474
-0.5164265792921853	0.1356912270649025	-0.17229924607849867	-1.8460206029455533	-0.8208463605228647	-0.9465955358503371	1.2175099797190951	0.4045661639178689	-0.2826056718514948	1.9635975555935348	0.5957851616152084	1.0256666294819168	0.2883842903731588	0.17693933173173185	0.4495042675556381	-0.028508112447485648	-0.006776139797344426	1.04878948478183	-0.8896731379106815	0.19567502783038365	-1.6114382072058688	0.5466245979979473	0.8190943923316563	-1.1250726154701183	-0.7389496338729339	1.5680494104534564	1.3650592430484683	-0.3247329085371794	1.6872026173164076	-1.001788362689675	1.2574854880599053	1.8315091356128985	-1.0812368739508817	0.25893621640991954	0.26751983299267695	-0.5817182117127349	1.3195086817014448	-0.8053026257395838	-0.7069419790042086	-0.528670582033781	0.9166777714238354	1.8864827852619936	0.6500488826208264	0.7441414394194459	-0.10344115428806651	0.9411974385507295	-0.36573724900943966	1.6228543008125398	0.11901845309475342	0.021706283016450976	0.3101019784025216	-2.5305029050860317	-1.0294907433810616	-1.3924285488336476	-0.6082867114346014	-1.4965942405212191	0.5457284570391804	-1.8992701539505814	0.9319268497486327	-0.27957241463297283	-0.41545405623917814	0.006280734639057511	0.43899500434769095	-0.9716229281045541
-1.1878124326896038	-0.17371430673235208	-0.23120285645030533	-0.30960060984161775	0.020867166380043392	-0.423285334226811	-0.9799417864543626	-0.6521155825029687	0.6010223772234984	-0.23120369300196014	0.13898952789117952	-1.2035733113363707	0.0759476525135602	1.2799805970353542	-0.18244477045180696	0.17913118446644619	-1.888667467344176	-0.3908249307415373	0.08828749590700279	0.7949873638865397	-0.6054709575169687	-1.511539621920356	-0.3092420384240259	-0.8861686406589996	-1.5529380338620984	1.025273514136265	0.7467332145560118	-0.24029457018826422	0.04922895373951555	0.39069802877540943	0.6972369690125367	0.20925194526115015	-0.023705530572900528	0.031405553653023784	0.23484821775159673	1.6286729139540974	-0.544097313263749	0.45545114199156483	0.5967214757919614	0.021194170286543274	-1.2365267507155637	0.13195945702903747	-1.77501828904715	1.38287952807981	1.0277863279525268	-1.5965262051341016	0.4256433315129512	-0.25936346784519404	-0.6325479466352801	-0.014069051964441288	1.1994059237843733	-1.604696526242519	0.46394566142295307	0.1559264061091079	-1.9457902587614802	-0.4508668374463075	-0.404567063303036	-0.07194036990269587	0.7060874419012714	0.42037688477104423	0.013652913831212032	1.2340481064759488	1.178648164846827	1.1545854369734057
1.3891996010427126	-1.0045432720716894	-1.6971320695661305	2.220577213056579	-1.3614502461555376	0.14390245119510947	0.1267029831154997	-0.12667187130936294	-0.34489658781825155	1.9785423260712593	-0.14070829049583547	0.052395327402161386	-2.008325677210201	-0.6076825990632201	0.30504527992278135	-0.08532746024591444	-0.7685419141529772	-0.43595735001973407	-0.14306157784941043	0.42007761635023344	-1.5703968878445118	-1.3704620494680708	1.4649391749175493	-0.11117637163297003	-0.9679206650743866	-0.2638197023481394	-0.5671218172451594	-0.13936765315600882	-0.3904359458344583	-0.35286349235053405	-0.7129353033976245	-0.47949400479789006	1.1215891305120311	-1.189298429079767	-0.5868097558406481	1.5630242418263725	-0.4875062315946572	-1.7652551689484157	-0.32168144405805266	-0.8205649949972699	0.7560610166967013	0.5723825133333332	-0.16849881804341077	0.5927316372998664	1.3620301984180532	-0.6917309223486772	-0.294251490265515	0.33778915206281107	0.7792634516707386	0.8412370279082764	0.5005407492540724	-0.396859982609849	0.10027195148683322	-1.5393680818861135	-0.7693397877136345	-0.5390353462911824	-1.0224115254615647	-0.37282740325608826	1.5729282451324347	0.3969578778006337	-0.7003944513937806	-0.46190011608680936	-0.7895611422410169	-0.07693290097028704
1.0412039520964382	0.3823417088615901	-0.704803718423318	-0.5628597775357731	1.460467078302224	-0.3969454125895335	0.3016184933747048	-1.4801724617612724	-0.02695065283630312	1.4151381351930357	0.3530890202352743	0.4694376423914805	0.45939755089434126	1.7477030261040523	-0.9489366442574629	-0.214188792465131	-1.7395107944622552	-0.984571523360115	-0.5557402571372977	0.05812178777621679	0.18796294471220745	-1.1285851334950792	0.4923727816510134	0.7136376166472145	0.4273655034329381	-0.45043038223439513	0.3960854759820794	0.12011306151345695	1.7186062901066348	0.3227483798366176	1.097557179618327	0.5057006909806391	-1.2396064126894462	0.7679109791032259	1.114091858650406	0.08897908157976075	-0.237970864461895	0.015073902569524665	0.8798193502360189	-0.9004793098885328	0.13964770745734323	-1.3611625727847056	-1.3088266475993633	-1.5033025199993897	0.2665054468308274	-0.15348494432256174	-0.6898541929429761	-0.7540109089290807	-0.21757915521816076	-1.1545558559802154	-0.4437125603170857	-1.6507742945267139	-0.40908790427286457	-0.33539770653437406	0.0890730302203862	-1.599525720127948	0.03985013643683439	-0.4276022274355413	0.17181924909088145	2.7061663199104977	-0.4470749491477439	-0.13321457642259166	0.8173595012179329	-0.6874972915573381
0.21941126621246124	-0.10115977168904396	1.8165842864293853	-0.15394066930074488	-0.356439147832031	-0.7015696442478105	-0.5826476655646703	0.3451187780833346	-0.8875329800342114	-1.3191207611117337	-0.12146736306340106	-0.14741224676109088	0.35006441050655374	-0.7872224017186717	0.4301040596260149	0.8808036308697655	1.5402447804344035	1.2619945240594599	1.3843300556954388	-0.4543781777984313	-0.15883183759884933	-0.8241228332816649	0.5987432587809687	1.0931144788156002	0.03778687784439683	0.7105349298943309	-0.017680332009413553	-0.8683303050959637	-0.6196126664096148	-0.33917056335724693	-0.6817582387484444	-0.12470101115010376	0.06862550866026458	0.05850548577734183	0.8847810228135021	-1.4750763445627564	-0.1311999758780048	-0.24840569223225611	-0.374409540194689	-0.24613110450863177	-0.7814411616432222	0.2435517646773687	0.34630940989307973	0.6019724513390178	-0.12215910009989862	1.2270752474753435	0.766679565355685	-0.5722159692405963	-0.49594388562314135	-0.27223219563993223	0.05813429164934818	0.7076848045742127	0.8484712618580653	0.03838212662835368	0.5567020713713462	0.9167591091601286	0.8010965803280307	-1.3329166334399432	-0.2753578799813343	-0.20217617118754375	-1.27336110980338	0.6728809083020799	-0.7638538591822007	1.2879293953560325
-0.8212444944051389	-0.8679718766314015	-0.9543984714631318	-0.7196393286328832	-1.3463954195451238	-0.9527727217373205	-1.4446058975729197	-0.673307587632722	-0.08237153897381894	0.8676172303554622	-1.1311415129786877	0.4744594958437616	-0.21621527593986334	0.18582771570879106	0.46845505724559705	-0.47809689230877234	0.5661906598648102	-1.155223809623009	-0.019805042129052094	0.8851607398635254	0.44707799002521675	-0.6962600254698119	2.048884522517139	-1.0186607880425835	0.6662474218674241	0.27506624343093494	-1.0712646624412243	-0.4191354898358479	0.8565746591933134	-1.2623648106696328	0.2702304210766901	0.04490606753972137	-0.7595432914990222	-0.3418178727507858	1.379556699182363	-0.5232825421674553	-0.20278543044628325	-0.7811087334643395	-1.6415914742843034	0.16539303845866737	0.3655914471244886	0.35571476780025063	-1.2914259297029123	1.6611460013013768	-0.7041861558676782	-0.5880719931547157	-0.10919109843328619	-1.0062268392642442	2.9476880690242284	0.2603020946036457	0.544310756743725	-0.4566499182629117	-1.384654099839827	3.128969870451682	0.6085667466614813	-0.5969925461720479	1.3381138708443556	-0.37321843313209335	-0.11375391757939063	-0.24738386166035456	-0.03705043396384582	-0.733059759321653	-1.8257210732796527	0.6152950600984269
0.28760912066680894	-1.6692541518444597	-0.8111793451096688	-0.24129723599245617	-0.2143307378001201	0.11920154676417062	0.3385965318975402	-1.7653746936756243	0.16756211740174143	0.8862462966670812	1.9306270518529554	-0.7801367063899072	0.7168290927883949	-1.4890971816695842	0.24677564508147587	1.0687201786218337	-0.13168757969494116	-1.099459936255619	-0.038312942067110396	1.4012597700102762	1.275654415119882	0.06636757306027698	-0.6113588495232833	0.2729808415900174	-0.052814486174041254	0.191009543834554	1.542602630114408	-0.776563471334691	-0.11100403421589031	0.1534490357418969	0.7595541354638626	0.404406411857913	2.4627570784561015	-0.2745448973399539	0.22553519224519117	-0.6283858151048014	-1.53802044119881	1.1120679091320715	0.7125788449304529	1.4420005391436759	1.9517579891543828	-0.08966955198722201	0.612050731984371	1.2726253501865226	-0.5352523133674694	1.895284560383351	-1.2537089189000798	-0.5287730022311122	-0.13246468585607735	0.007809403659931138	-0.11312763636937934	-0.9290587393390122	-0.9058840747363706	-1.0203040599251216	-0.31319147977934325	-0.13072422438198117	0.5817592657142119	0.7770867271088088	-0.1004812664114619	0.06457148394270236	0.8053418294186081	-0.7907290925657003	0.3081168967080181	0.7707707398749521
0.4903595205948752	-0.0844156782703212	-0.1716975919468783	0.6622479914301628	-0.9587541066633327	-0.7347810750253739	-0.8420153672424402	-1.3672078993600487	0.049096803073768895	-0.7405237979378937	0.21632505284878792	0.12099544112734312	0.20030591806175205	-0.7387351352605284	-1.2671243936134373	1.1538444596570123	-0.5277391677410399	0.1851864074136174	-0.5428697202223814	-0.7141440353978835	0.14593017954166004	0.5995409253271788	-0.8165165463500466	-0.12145182034268392	-1.1089721953997422	1.5653731883437605	-0.4422474546675475	-0.24299102327889596	0.6957907878493629	0.9037074258022003	-1.3097976995373115	0.2344002571745747	0.049200729468021724	-0.26300911796775045	-1.366832577925659	-0.10997549726498258	-2.254349165429963	0.04763081225736483	0.2050915005726469	-1.6219882644054981	-0.343035574906877	0.006675329752653992	-0.27191847063694563	-0.4117918005747372	-0.13363321291840016	-1.9612533028317884	-0.9132358144407646	0.737489030800705	0.8685827860705924	-0.6776766434819523	0.24494585873197625	-0.28966115935820586	-1.4378609142708807	0.23414785141618844	-1.8449161708091988	-1.0280865734435172	-1.104835709959934	-1.274542133398061	0.24195147986961393	-0.3526780295762973	-0.8431389934952351	0.28815828610302746	-0.6171875060089814	-1.2684590658443895
-0.6524342401092353	-0.06096448787571859	-0.7786391298114793	1.1738365308575665	0.42540111024531374	0.6316197075129961	-0.8155795992223551	-1.5016588813516325	0.7431782616440539	-0.2776400007740463	0.010676327593279866	-0.9705388366838523	0.056332607078813	-0.6163650973293029	0.21398768721403688	-0.029145552143615038	0.20195074740757918	-0.7538225390929733	1.4607830242673503	-0.446015359376786	-0.9764146507121704	0.2890346996485577	2.4117438253975014	0.21858684861645206	0.46555511461064264	0.9045067304904105	-0.5424340141289847	-0.8985256737506641	-0.745314961216849	-1.0680590472939169	-0.9100692889602758	-0.6729044640428405	-1.0946253138986897	1.7026533374007955	0.4614557166470374	-0.5680176966416698	0.7416530265948027	1.0882777585732322	-0.5324070483355771	0.7697699770260087	-0.5572776698178505	1.2809957851710785	0.47931987105040164	0.21478893931305515	-1.4527037104822602	0.722380922850952	0.5412272807343332	0.2834704141267256	-1.5489263555570358	0.04524315531623909	-0.5202562065678399	-0.381369306853413	-1.7072032723689257	0.7494956983726481	0.4892405435408897	1.7928361604663157	-0.5106199455051484	-0.07385405057719568	1.71106281984876	-0.5200067575722191	0.617556266225744	-0.6594056785052986	-2.016295546868841	-0.1815190019721493
-1.4886758451230102	-0.3685648354001033	-1.1161845579490728	-0.8361662004099947	0.29999849295347	0.31197373769887904	-1.434719486521435	0.4331485236075884	-1.6659360413651756	1.753521721281783	0.8211898206286309	-0.4250485759195002	-0.5081234391903412	-0.37895920325531296	-1.036796516852441	0.441494450455328	0.0887624969592503	1.2349760224252002	1.021842427419027	0.8531144392014697	-0.8968817175961046	-0.5758910618390854	0.41240707963868556	1.9343409798241924	-0.8057868818258562	-0.45470895633240327	1.1100255574684472	-1.01969705589214	0.46818795853589584	-0.7367381694351548	-0.34056554028262515	-0.2196642500891328	-0.8105569418369727	0.4824832659055316	1.8196791985949055	-1.628737079509774	-1.0724275170298228	0.21738984054270594	-0.5619293975576898	0.056152616096191	0.8802629030641314	-0.48293569023593136	0.0600176304589968	-0.47902694922513345	-1.7487766188322245	-0.2236030077282411	-0.12406849209867246	0.3260950792052662	0.22709496598987777	-1.1732198398448124	1.172415190002036	1.0857569282189519	-0.8610629100623711	-0.22189687873250213	0.5735559709002633	0.17985098471330083	0.03133890812313506	-0.2826713772719421	-0.6128894683025877	1.1754367067423654	-0.2672259080272493	-1.289966328885407	0.9505537758266503	1.41680487239943
1.8256614039335866	0.8356399388735029	-0.05875710185666301	-1.905857808165085	0.8081232959324541	0.17751593837508028	-0.6571396325845555	-1.3135637409030014	0.7559932718082113	-0.6116611075215372	0.6493568094170684	-0.8017460662056042	-0.3661361276167216	-0.23672696286672337	0.28070722862106223	0.9892073398187894	-0.9861070959589365	0.9654242347357064	0.7212281250053717	-0.77820894293059	0.3304559653424051	-0.7665069725977177	2.21432445596644	-0.2124257988265151	1.32762904416818	0.453290925691501	-0.21663159956272135	0.3980930129008002	0.579619104556806	-0.9694560025273189	-0.7907342071940591	-0.5569060270589884	0.6273364532366235	0.2341315528288496	-0.29886413683381924	-0.6287319236026929	-0.21930935381392686	0.30678166850613203	0.34823688902355976	1.5505060343667907	0.2643596726876995	-0.21697970799507027	-2.0534286593338584	0.32536049395761546	-0.13110813476132124	-1.5712720832297424	1.04200867022127	-1.3932964067130786	0.6623052746762953	-0.13728010478225422	-1.0625571323934115	-1.8257580532511553	-0.416801092973795	-2.4065393799590193	0.012898958580796021	-1.3615352046208204	-0.9057544206465302	-0.2544213860058941	0.09839076392137802	0.23650217643358687	-0.1881098935086384	-0.9734170057081771	-0.2928609928774041	-1.0321188462545852
1.3966004571591304	0.4453546304638713	-2.2080839090380286	-0.15453721943106452	-1.3938420624277599	1.0114077292405688	-0.17011397059040956	-0.8972169863703064	-1.2194821117474106	0.4712423633259389	-0.3029998048130015	0.4079237278455727	-1.0226807551288617	-1.5637371175641805	-0.318397894983012	0.36091550522616106	-0.5739209856500753	1.4712197580781996	-0.6727561854095215	-0.817571343442905	0.5337058981894307	-0.053743792584498455	-0.9605074619777872	0.995161048730217	0.06785728078886447	1.604132307418972	-1.185056109252537	0.8355053021981599	-0.21484404564447943	1.9928232978416593	0.36796652203322117	-2.1251038476035475	-0.9073202361226606	-0.46091264457203035	1.1354839910738699	-2.0094837450644447	-0.29400001159070166	-0.97674360417386	1.1746435206249686	1.0038429389859158	-0.08745566715400284	-0.9122179770984776	0.06892806988725625	0.775825777253266	-0.02951203976527554	0.02689442811807784	-0.7650283533079535	-0.016483463760268047	-0.8362489656480449	1.0336059942725142	-1.3693056967904356	-0.3252595416984771	-0.16998101487711487	-0.9296669385561024	-0.1848353424478355	0.8917368663244132	-0.11841061446056543	-0.37609699669134294	-2.3569097340998453	1.2435809569706162	-0.5087835443695623	-1.4257159480402535	0.12083996714351146	0.182904720494539
-0.5443358916258103	-0.5782312622619342	-1.5523388182523072	-1.5143674014194286	1.149611284323749	0.6148206124758538	0.563226669839863	-0.03733835899576998	-1.6679276323814596	-0.2625184789330748	0.38075518864305197	-1.1789096866240545	-0.739710343016193	-0.16197114919208574	1.1415156543077822	0.8512589628197934	-1.441488626872582	0.2654911974303464	-0.0916079459792802	-0.4939904876360681	-1.3061409940904778	-0.6834048313629809	0.784708036361542	-0.048461504358189834	0.9389718571362642	0.5960687629228175	1.5747707867274396	-0.4247761191466535	-0.03291811507828814	1.6016803647017988	-0.6666796497106009	-1.003778053713119	0.2623632577748871	-0.00754774404217646	0.5211276207448094	-0.6888014744048093	-1.5109137127227967	0.027447125550530114	-0.8238713904711452	1.682040473782593	-0.06079437609685495	-0.6237138805700075	-2.030426418598279	-1.3196378872373344	-0.03994141143930424	-1.2717365638647884	-0.3391916539366699	-1.1825640605960632	1.0692714336456488	-1.6523479330771758	0.005215933258238106	0.6245555919908576	-1.3840880694261501	0.4617049530063806	0.014772333861283009	-0.3607522297744631	0.8676358731380449	-1.0031337476464808	0.0274059850299942	0.6074515827428136	-0.5762943871519074	0.451712567322622	1.0687472484731844	-2.0899653264621287
0.8658155105712293	0.5633383440382281	-0.29617776314847144	0.893930786799113	0.9291891119832861	-1.5444027319035265	0.32172641104209315	-0.08967791617816222	-1.5388069782264078	2.0033491429062438	0.6819938408755564	1.3198972956106902	0.6938247736249439	0.20383089164097365	2.629695230590366	-0.3293103274462538	-2.1582547796313234	0.8063367363695269	-1.5477664070757498	1.0841479957125395	-0.10994059657327215	-0.36643533681783913	1.1351101303021889	-0.4633655860781038	1.4464756937449361	0.8745058564212008	0.6136053986248656	1.035684074471103	-0.4911221726347245	0.7723693979321143	0.7418683774286479	0.8756699854424148	-1.7440791252998988	0.32069789024687007	1.135499923014331	0.13065511845263594	-1.1711384565619378	-1.3109418557677583	1.1566312741255473	0.38380526931509157	-1.625038060353051	-1.3042094341226873	-0.2430568074589677	0.7413404666261838	-1.9214944206779472	-0.040009393265751196	-1.0416703564019247	-0.3835425581598498	-2.483003975229254	-0.9616683320090088	1.7413406750181428	0.09800993009277169	-0.9487159431851981	0.41297711091988754	-1.2904951715564386	-0.7530598790024916	2.155814292227866	-1.258186651159182	-0.12858296642116537	-0.17229572539828839	0.5656566779794038	-0.40911883230342644	0.21685249205903123	0.6927301261905244
-0.30065918801805125	0.302089019374977	-0.6061271389164371	0.11947828822670549	-0.9473982569000606	0.5950953565312581	0.04069713339517492	1.1412632457030791	0.6425883187097658	-0.8533241082503997	-0.34287582557567253	1.0710101334028967	-1.6856834765440107	0.2520944891112802	0.24877805067082218	-0.19010616190901092	-1.289061756217377	0.7041368048405038	0.4242285622154254	1.559498093352889	0.4910793259877166	0.5075565993558685	-0.9625742788456618	-0.5631324815277698	-0.27170406095374255	-0.7908972844470837	0.7327050074592535	-1.4246881560609441	-0.19967393845215742	-1.2866833508037083	-1.0439065670738676	-0.7320213617700033	0.5349126134829237	-0.6909458280873495	-1.2443550666466892	-1.060728306484062	-0.0006206611260151957	-0.45741084275761573	0.12274061747023948	-0.6555981261176163	-0.3678533864184365	0.308609639654793	0.44007230610025144	-0.8411524964328958	-0.856145100683534	0.31635957230796946	1.4144453339898457	0.3294167164297826	-0.11661874795984972	-0.4543156879063912	-0.20391884852821024	0.5384229960128208	1.3398992875273958	-0.3054853793282852	-1.0645032352469506	1.5149985105486559	-0.6473915708156064	-0.7924448449774839	-0.5672901789839582	0.4494855628407176	0.5464461475143453	1.0789110412120997	0.6016851540445407	-0.0332875035857426
1.0291508143577586	-0.4913871135029115	-2.354468264084334	-0.5504676134534489	1.7663938014115503	-1.5598160404835826	-1.2751455774200968	0.2661330582732312	-0.07536418938590424	-1.01569662475027	0.3889325070104941	-1.1127503575103401	-0.5616193982785511	-0.6592515598987003	-0.1550827362229233	0.04623534534065608	-1.697781272989063	0.8736749468175398	1.0305995093338665	1.0605645175571108	-0.2870374809276321	0.4599608817073432	0.3846863201519657	-0.14290552913831248	0.8082389332906396	-0.6634512124217512	0.049122407757133474	1.2676191876952292	1.7889917088994949	-0.8122017318803556	0.013362698082539396	0.9470520822911768	1.401882633710868	0.9644720297708401	-0.535814533833408	2.1709500223768594	-0.2155697298254616	1.658792542802455	-1.4047182458755951	1.2553247334259447	-0.33148617281708576	0.001223547772969667	0.006284166098043318	-0.7400396505587952	-1.3298091570400103	0.8677997264478349	-0.1847122895830898	-0.3603902725091159	0.6537795060756583	-2.3837439755849066	0.22663752447974517	-1.7155664164829556	2.385982533996579	-0.13218843921416726	1.6589047364660865	-0.9245968704457527	-0.0565667322910502	-0.6050059281646109	-0.5484323660546628	-0.046247545893974784	-0.6797807483973825	1.0792309739154684	0.9294809572606811	2.1280266277585036
-0.711701026431019	0.09088469755529668	-0.16584897352442796	-0.628956319537534	-0.42323641126678513	-0.04109776513994921	-0.18658367694806013	-0.7087066885702188	0.45665642624971253	-0.02077240477817321	-0.37590349396772543	-0.12375148464278928	0.8082681541482517	-0.11795256384438298	0.22818250194265655	0.16886627526361453	0.48752891275932514	0.9629017041255499	0.6745985861040168	-0.8467083373621466	2.2318410236411172	0.5620171820459389	-0.050171313038350825	-1.5144326911723585	0.3927943724272351	1.8776594458439408	0.8057235211897544	-0.7621751637153649	0.12752675127950053	-0.20924573808343838	-1.447753861271242	0.5118943157182595	0.2712832829007157	0.49778058741543335	0.14025518577394167	-1.888254317554281	-0.4827105903296102	1.462947860960118	0.03211138843497443	-0.028824631233797145	-1.5216184638463182	-0.21386336163647165	-0.1454835867989724	-0.621485064883481	-0.0764467559585996	-0.5139468807715217	-0.5951620299931193	0.2134809975234402	0.3476064528053252	-1.0162880789778854	0.15014892763138366	-0.6735683962759014	0.9341485819996309	-0.12204460047139014	0.021630042868749866	0.8634185798604608	0.42588287410874376	-0.14518539801228397	1.464076415157109	-0.8413053394072127	-0.9794271663353035	0.36900528453113013	0.6111855321041151	-1.7735853933107169
2.6687837956885794	-0.32503015044233274	0.27736734700541926	-1.1524961601477395	0.09213254392761389	-0.20539030480705597	0.5682567594544106	-0.7043735990320641	0.20666325989424933	-1.4570308557077085	0.5843276717897314	-2.0984574568613903	0.21027893561401517	0.9389639769123695	-0.3859291635926664	1.5080179730208538	-1.5709644928324182	1.2882637225602631	0.47499992434852556	0.2306741737904143	-1.552924107324396	-0.7643932571037539	1.1586135176993653	-1.1122295418206882	0.6991614779311737	0.9441446076208316	0.5301717678561567	0.7764381496684367	-0.2654243947632422	-0.526279831433814	1.2967804531808609	0.6365738181037897	2.6089085238662535	0.4367180486558566	0.6473606001113713	-1.4567027188105717	0.592799266308271	0.10727648115386798	0.3031582090052844	1.4489109192345588	-2.2425250108144144	-1.2257960902262384	-0.482671301019056	-1.430606990788615	1.2521785763092197	-0.18944813154776927	0.4164433187874234	-0.38792684935006067	0.5025203243282002	1.242357170568127	0.20319013259238025	-1.4258845998781777	-0.4534366018649377	-0.27667056564908654	-0.6265070224740702	-0.10647955658702574	0.2989330567189004	-0.8726826667054784	-0.2519432576834014	-0.6927810184614885	-0.3860920432679052	-0.8743309577071791	-0.12052711375825775	-0.4998991744881152
-0.959735341169478	0.5550437034123583	0.11351325341648372	-1.110310597228658	0.9073922186097868	0.07246246989221655	-1.9451304131845977	-0.6022325031032802	0.45430369621581557	-1.2163538252100596	-1.4247184665797559	-1.7303555077156376	0.2967126841877476	-0.26112331967782243	0.6003798007127473	-0.3048058552546355	-0.07048459214537467	0.3427970818189368	-0.6935019328410116	0.8782107760067819	0.41504559067199703	-0.023724536804719625	-0.5493622908726137	0.8382155004087625	1.6102019221054138	-0.32278588721541696	-0.5291514315745037	1.3912945230011664	0.08894604277582374	-0.38528443574798443	-0.209024746097897	-0.37049713509892684	1.3309311707121658	1.4652525288578269	-0.8818491266043926	-0.15150268300400557	-0.5075840486914308	1.0024797468274436	-1.5946011289128186	-0.7171735509143826	0.5937324085836898	-1.3190642547451918	-0.47138912006643685	-1.0945370516379866	0.7781204520321457	-0.40915893732246783	0.7939086712316216	0.5792099910074983	-2.3051124531632468	-0.24071288277429803	-1.315626184340478	0.323872643002127	0.17990763150933423	-2.174903028922401	-2.001587001085915	0.4254702117328795	1.4807541100601675	0.44027556891993064	0.18457676287604044	0.2652277008835855	-0.8315592670963998	0.4927696492351352	0.5753338545812472	-0.15685681861380565
-1.2061712168473624	-1.314331509943888	-0.4793123110115196	-0.044502158569308926	0.15332037333511916	0.1013713630242949	-2.4251269988450996	-1.101658820715197	0.6535210559532318	-0.5677932298066067	-1.2007937787457637	-1.436971568092229	-0.3507153788679018	-1.878164172417041	0.10935572217895273	1.201155620511308	-0.5774588126443377	-1.9934456173312483	-1.4342397156375601	0.7077300287605457	-0.563643278482577	-1.486134590872818	-0.2594108838449217	0.1377864839053339	-2.3503225478771044	-1.0573510932267558	0.9918726200333812	1.1422711819653992	0.6012066066471844	-0.16779292263545453	-0.4110289739985543	0.23601232134134606	0.23007559100611646	0.06429684401889096	0.1148025523221279	0.521580232023129	0.12289256513765592	-1.923625506765471	-1.8724758006216398	0.40120542304204915	-2.617978732611581	-2.336813522592117	-0.2023213605552006	-0.47699717059536384	2.6720555839380262	-0.7866892926910668	-0.9102422288913097	1.8176870975450525	-0.14131227700094842	0.09197654256749148	-0.5342568643599175	-1.2794026567967969	-0.7364825464448889	-0.316319220443982	-0.5920573346910476	0.2885956029059194	0.6901813213116973	-1.2854360348718725	0.48504334767940693	0.7049043238592922	0.26478680359070167	-0.905209699782908	-0.2800719475800839	1.172582469075086
-0.1257558986781279	-0.23058754217235974	-0.17085250736876043	2.6157811651425127	-0.9137674596556894	-0.2171435322250862	-0.39517647674152695	-1.2781199400387897	0.8188125198489674	0.037863763468865004	0.7369894020909867	-0.4850461382923768	0.2659294188193309	-0.8677973642278242	0.13361879374944394	0.6693804394602515	0.7798430659610465	0.5375687906876204	0.06432712607932566	0.03941233027304805	0.6226748781912348	-1.7521720996456678	0.08668816392025801	-0.6779424716159139	-1.6938415177725614	2.316921511459325	-1.0840346180715852	0.6838018409783682	0.41523599374605247	2.30699068394003	0.6977329353136481	1.346424493902368	1.0938671441461338	0.39003979310311104	-0.2915390084355146	0.5142748613781475	-1.7154878749588596	0.7265946027048545	-0.6187724933872645	-0.3479267243079156	-1.0526034524987053	-1.5763597847192758	-0.9999537981966263	0.372758356720246	0.87791401818876	-1.552774632470503	-0.43654318475398507	0.21478804424074882	1.284577007783315	-1.2362188185332874	-0.3612010411179191	0.06810122413078785	-1.500405083963791	0.5370232850477068	-1.5429655199351247	-1.1803810020187826	0.6075305288630334	-1.1358920705834137	0.34499290630254253	-0.007061443752611785	-0.9037754852648358	-0.7178696089489629	-1.7749125541649975	-1.4445998098213535
0.5859116820941045	-0.08826087639034362	-0.26012168814710723	0.4029886342142232	-0.48150102234473674	0.5243289839005556	0.19014730353997322	0.988543042363903	1.3836916873744234	-0.5373690961180171	0.5985008391712489	-0.9564528264121713	-0.7215196219387836	-1.3818186175984224	-0.5136872653035652	0.690771769191714	-2.0245907812278627	0.1097600925867912	-1.5678828143197667	-0.20479055537064011	-0.8818993907269449	-0.34355647231617525	0.45836293180818766	-0.4785096078596498	-0.76757257398506	0.2613478733602206	-0.09421244972263385	-1.3136700659671752	2.3053300400447605	-1.178584302744009	-0.7365436276028525	0.2108090641273379	0.36192407663154724	1.2681204756951607	-2.460913172699344	0.21266368834421326	-0.9106405497058715	0.30966229818360524	-0.2068645338051008	0.011618236019183124	-0.13034072642450564	-1.5522510469523474	-1.064112033641547	1.6861659294826463	-0.6629609083787933	-0.16345605509777925	0.26244400694570347	0.37351525702794697	0.5275500543237889	-0.054993197955351174	-0.4914871736309952	-1.1989785650454443	-1.3272699405780273	0.053006574668075714	-0.23289304640699626	0.2525309937205827	-0.29184564242052446	0.25367332843524387	-1.5107808381410055	1.002455039421664	0.43780565728121634	0.5542413568183894	-1.2605283026859413	0.4812044881759049
-0.24896470317645264	1.50006679342917	0.04398739557058163	1.5015778694988422	-0.9563313672128901	0.5065316924359906	0.5235106371097816	-1.4944909204833214	-1.4680817366024979	0.7436097664083308	0.7101654380069291	-0.23454362959962732	-1.1956087736156795	-1.225801508489133	-1.3805046403835632	-1.6051947562888456	-0.7882227944425639	-0.049413316843643466	1.5881219757429617	0.3079693799455679	-0.33161304123503915	0.3919902314241234	-0.4745440413278089	-1.6256132449384415	-0.915086764983105	-0.7068855592653478	0.7326595252448388	0.2334862392115453	-1.7014944141082522	-1.6368607473881713	-1.1314359652488521	1.4295901926676013	0.4869927633972031	0.7377552553321858	0.06595485925802051	0.4184187765371503	0.04497950477454423	-0.28098614119597276	-0.002139507147734074	-0.6817797520963078	0.39263553490275177	-1.3551188587448995	-1.1597247778676567	-0.5245222601908341	-0.8415421955981623	-0.9815948090049113	-1.1847562901453883	0.7538538734181468	0.005312361446242522	-1.5818464096876812	0.6874812087501234	-0.8305895266347921	0.21372324185354505	-1.1857573303061213	-0.1318066003602132	-0.1577821414065144	0.4319058093483655	0.3002264189839113	-0.9857955584800024	0.21838713111615599	-0.16568661479800867	0.8652907644756983	-1.357123579849835	-0.9351211311183626
0.9287569832447854	-0.9859253655028642	-0.003349785171756267	0.1571787713831448	-0.6179733762251227	0.7849002085305027	-0.3236524667746433	-1.1009503502765434	-0.26229290216702106	-0.6297730802686063	-0.5907351232527905	-0.24865732763102677	-1.2846977485078879	1.0016718287164788	1.3998259282141903	-1.1664376732586266	-0.3365298654873075	1.26544775404567	0.776682937391631	0.8737542435897155	1.5739657012987385	0.720727101547362	-0.19834286998172818	-0.12877511663716873	-0.552542327035451	0.6434290871916357	-0.763067469744104	0.6321527316781492	-1.0625282060152765	0.6772799388804547	-0.39737416423835953	0.4223963156916245	-1.6135517167275728	0.2629387794006993	-0.3252712073467283	0.2753949156399539	0.9714990149355833	0.5598094352492633	0.23674576793871044	1.1422188263084012	0.762331286925194	0.1982536980823317	-0.2300771886936847	-1.3723758487376074	0.1398861328872226	0.4868687105083611	-0.2961817089134696	-0.4839780580783717	-1.4485710182001452	0.5320835112094198	1.111011307454784	-0.1631389684518499	-0.6061725128196309	-2.7361294519435955	-0.06278520519320334	1.255284790922099	-0.6364122332550394	-0.7011770491956193	1.4069093514656377	2.108055621925241	1.2413832940371141	0.019437391797732458	-1.2108809701032293	-0.30760647767213417
2.748292738205079	0.5529257900725819	-0.032133814584051866	-0.16414047296513584	-0.25718928662197554	-1.3153076294533466	-1.7646712918184018	-0.6715272414123543	0.5911016687978977	-2.0409024879752695	-1.7169540468270854	-0.24560027053498365	0.6646700696550244	0.16769184618315844	0.5731538596747142	-0.17818037749692306	-0.012004741398085795	-0.8985790804459453	-1.8669325182181742	0.47441621240626614	-0.1952049240492889	-0.8028516573416752	-0.5714717003123179	-0.12573624475800857	1.0052804847538528	0.5648289251962891	0.26699682155443105	2.656884055403183	1.1003222440555656	-1.0228897938439365	0.5077693948136496	-0.10792006475598655	0.0990923597277704	-0.027175269041911664	-0.29154893990193326	0.09609719498975942	1.1198885183641272	1.0952576477072424	-1.1366673926328361	-0.9226908956022654	0.4166426814636246	0.13184369109673813	-1.6781878466718954	-0.7136722160447719	-0.7339988241365438	-0.8850817225669376	1.177137460971259	-0.4251150869323717	0.3604986170154435	0.33879299497964255	-1.6034429984364296	0.8772984286962401	0.7992864376452534	-0.6964138420649818	-1.1680536786392814	0.6978258310280087	-0.08161234065311818	1.0547446430226037	0.20622550122049718	0.40036985894846516	-2.0225433045542625	-0.13711267592570617	-0.21155074318305725	0.11532213236533753
-0.11044943045341796	-1.999526881526757	-0.5145399153564938	0.945480256667195	0.5132602638619855	-1.7777326338166501	0.013424465417099718	-1.1845373825898466	0.016852654505153764	1.5935108344919946	-0.7706472872601371	0.44903094748182343	-0.38859368986655585	1.674722671699941	1.0841365392241327	0.409199712218411	-0.8091314443659707	-1.3569268734376072	0.429211980305353	0.8758176638994031	-0.5282104277547847	-0.032241261855215725	-0.3588086480176934	2.149852222576178	1.0598759909999331	-0.6274259721754512	-0.07112809787515799	-1.26572516836232	0.16070746441355288	0.10577670736874217	0.9548800241205956	0.07330376660267979	1.688797879348261	0.27692020351982377	-1.2951742223295548	-0.42530271776272566	-0.6294577787081376	-0.07101271481358518	1.7604515949928004	0.913689845472534	-0.8955895983592376	1.0064630483662924	-1.1738766901449136	0.17481961360462353	0.9867540241728401	-1.7653059076420623	-0.6758620820360447	0.23071044023510492	0.27702996700453053	-0.46519587728016115	-0.3004372856457907	-0.17233147404817237	-2.2842082394138914	0.681016410199011	0.4077377653812314	-0.31513458956720164	1.0214478381471879	0.04710485152141923	-0.13278180482148155	1.6101908638864508	1.2500229064994504	-1.0192569297220853	1.6791713904391705	-1.2936016473163394
-1.935169063579248	-0.1246705308044407	-1.1803791935011647	1.1834047159859777	1.0801459663274458	0.39840483324092035	1.2025675201175468	-0.1472849988620171	0.41365149262938644	-0.6591871403297554	-0.5894196740107772	0.8490675544578002	0.2602234164728539	-1.7821482806618654	0.45880507931192815	-1.3021525699016447	-1.7856552533262993	0.41295500561561027	2.1565254168057173	-0.9823969534431046	1.161920967513607	2.801889590584628	1.1494020959873184	-0.1215175350556158	-1.1825584080412779	0.740386917387299	-0.08274037385556343	-0.10965586974680037	0.517870083723664	-0.6064311649148622	1.1891103542797061	-1.165687295236931	1.5931824375583785	-0.9794791521534606	2.2834813669232283	0.028437684524186067	-0.33495665783166584	0.45950197777808505	-0.007965295028455594	-0.26598208570857895	-0.9168931868423441	0.7862950064760248	0.17153111098782073	-0.7113377644409883	0.8126622568119019	1.4361474462734558	-0.5942738084282481	0.583085118813484	0.6151119020503761	0.5387662513354005	-1.6141488410470626	1.3039275688396852	0.2782547734702863	0.7534493792241143	-1.625715349707218	0.053267645269921435	2.604930155002357	0.3680852589282743	0.4950196454099029	1.118065269891314	0.05163920439901157	-0.4562515497064113	-0.9251518770416742	1.115801287166984
0.35633809458897175	0.0799083066483134	0.16925804817768073	-1.9792673617104972	1.2469962285482261	-3.315298097793831	0.9307146278434811	0.08512108430357694	-1.546629703072158	-1.3693736110283397	1.3096428854201354	-1.7486744038959061	-0.03549477478630009	0.28228239799402394	0.8125081531286639	-0.4230279568236618	0.5420539468705114	-1.434821481762349	2.107068328131116	-1.4137428473527414	-0.5555827935476001	0.6942879637828543	-0.8241000791514592	1.0791020647935068	0.674996665386892	-0.6074885281504188	-0.6701374658399645	1.9788285683774354	-0.15190153844189486	-1.1854167879678126	0.2612512894428658	0.19998788480865978	1.3515007155502516	-0.43428722684172455	-1.1802189188846262	-0.576295924406585	-0.4628429012876266	0.567208422332239	-1.299703116160422	-1.7450154638466955	-0.06040567815936373	-1.154590118853218	-0.5256069411409265	1.1171820333684366	0.10998879276283893	0.5444680098002729	1.9499929254755648	-0.4941438862016836	0.4241705331606522	-0.2347834779223491	-0.12471046462899897	-0.1429650704583607	-0.5881416161176597	-0.980272237279442	0.9662294512728069	0.4427709243916996	-0.3063263046345081	0.9474125961212806	-0.006844235037251951	0.7111608466761973	-1.5389210867942562	-1.9597022312318304	1.3027920273923863	0.21935301651450229
0.12256004902005249	0.0005058573044220485	1.4073427849611087	-0.14635592150296045	-0.2193451238766041	2.3346604827195088	-0.05871268827407088	-0.737359838998781	0.39574659732786466	-0.9098040738443585	-1.0261869905000731	-0.06732549638536746	0.10868590362459445	-0.6710310810914807	-0.9368556722756137	-1.2457623160904856	0.5261501446268353	-0.7634896609041145	1.0270779381883803	0.12461124563111158	-1.5579429921484909	0.0017855582217193402	-0.6834740889823498	0.9761413598241826	0.9544402426541776	-1.149860424263288	0.42594832603293276	0.13030911399509088	-0.0035129555599710603	1.7916150311901098	0.3148152069891155	0.5952541742506767	-0.5859812529333793	0.18920741288536508	-0.6142936596452256	0.17037673366977002	0.5902627398388814	-0.7109152996765599	0.6575026185334683	0.8359894086161749	0.2991997080761441	-0.44715890007910564	0.5335103199746765	-0.18381387854402217	0.12886474340127665	-0.22913372384974673	0.03137172718765739	-0.6675056482674006	0.4701539123926474	0.18732252838328967	0.342017185150616	-1.4432754931221945	0.09245754285296752	0.8735776038667213	0.0636795731340179	-1.9122187608018795	-0.8872260230573491	-0.4270449127363206	0.2847111808049538	1.3886279958292558	-1.5099879901307418	0.0869235482246444	0.1658061002256516	0.6559071928341191
0.3459408223814892	0.9203330516694055	0.938249554969414	1.149206969783612	0.6978360976748186	-0.9889572130322846	0.4644982136347037	0.11460528359787177	0.23757745661118285	1.1701678616811904	-1.2276064581404282	0.6379772294076396	0.13325963108197977	-0.21902910974372944	-0.5262650145625569	-0.947262545665134	-0.8784561124949025	-1.2596025347943074	-1.1753977538501545	0.06550415871207733	-2.2159537112655316	-0.37172672862646666	-1.1094533652249832	1.0158112832623631	-0.09647846514121095	-0.05280069756424352	-1.0248491613202562	-1.0777627404089494	2.0529758352958125	0.6515131915298481	-0.5783548588902142	1.1809023479261214	1.206037562058335	0.36851899375371294	0.47515063503239313	1.4652185271749116	2.094753147360621	-1.030587166738622	0.5835155837214946	-1.8390457142195873	-1.3448842859423635	0.802966725259998	-0.07580308170642222	-0.9360149177480755	-0.387895100365361	-0.9055834928304131	0.5556273639157424	-0.3958976727979499	0.6028744753216148	-0.9192193533795033	-0.27951642642746255	-0.802833067711083	0.022145771710493232	0.507460274550162	-2.0824445956307054	-0.15649147687742337	1.2250806041695004	-0.591516715062381	-0.14144302531229402	0.9826238275105597	-0.34747361406237337	-0.9033293639223726	0.15765459835676582	-0.568461526348794
0.07435282103603355	-0.38742246136291236	2.0849053825118364	-0.05542818906108066	0.5300218622264351	-1.7130306781265834	0.5698480380356816	-0.17065991340430547	0.5653845569156637	0.3016765227020399	0.9882437886981432	-0.9167534090039472	-1.0438330306720611	1.283743538433481	0.7197814147163875	0.2689112827116872	1.3371082864460961	-2.747991482604299	0.8648884364668853	-0.30654478755307374	0.2164127378443051	-1.2041233369097364	-1.1588084635948557	2.235671425507676	1.313250385644125	1.162133898736824	-0.10246648931843179	1.015180161832023	-0.713099754747044	0.3281489635164639	0.4309637204524973	1.7406765656219956	1.882650610530964	1.0946468617369227	-0.21327801202399962	-1.2182282577195729	1.0079886192024927	0.07878205913195911	-0.777162797306435	0.26384209300442896	0.8573923161649508	-1.978741267056343	0.6173082894178229	1.6478068536257933	0.08998364888779041	-0.34230725361383735	0.7577301304419939	-1.0710965228970843	2.050145133384992	0.20180337119718963	1.0806816964539443	0.8374677207082202	-1.6419699150119949	-0.1503581029475477	-1.8582419071551883	0.9448201639136918	0.6179831540619876	0.715563021746227	-0.0317304312006742	-0.7198671919989363	-1.0329990934017135	0.30537182064543256	0.7702806473139197	-0.9146323098617518
1.5050466540789456	0.1465311100150052	-1.8609236078974543	-0.5213118925562286	0.2644022934469618	1.2048832496008524	-0.2511365792726281	-1.4937217588572276	0.6801112324318911	-0.2535483211106121	-0.7699031281264318	-0.2481195886308157	0.5863118356724188	-1.3414367156704508	0.9734467679941894	2.1538134886535762	0.4656971747151927	-0.20568711026005396	1.2970742990526045	-0.09877812623931181	-0.7497667780730557	1.3133721320341194	-0.11327127455825835	-0.44762112582245234	1.5977041266852694	1.8695566867675566	0.6230125785060161	-0.7403479001355129	-0.26516844607095896	-1.0778257270263434	0.36960052806012017	-2.7257264745383494	-0.25573185801092907	-0.6012060914718511	0.16117920967090296	-0.17143143239936437	0.9176514411278577	0.10654177487690243	0.06003893494507796	-0.5888733817160152	-0.14846589708925595	-1.8902080392571359	0.07502844295562748	-1.2575634038731713	-0.9720896040813453	-0.37607800664625785	-0.6135132867664177	-0.9741138366788292	-0.34931922968020196	-0.505325677227156	-0.16049779349513818	-0.08768908275732884	0.24127092655355162	0.8373388379352567	-0.9662468126875793	-0.4136998303101447	-0.2577966506196188	-0.1442242017068755	-0.712928009435722	0.6950326880712083	0.8014563420186798	-1.7806148695385715	-1.1590916667737212	-1.0011019139459423
-1.2826659413730759	-0.23661467346362883	-1.6326806329343881	1.6424777306022922	0.09649198403604982	1.2068964718182449	-0.21063554678977076	-0.24201362327367057	0.6490481131954354	0.0006731286805003986	0.9819138642650345	1.5004024809126546	-1.2545482916433441	-0.8878313045611192	0.9747335522532175	1.0603335058055932	0.7399993776290537	-1.1324713795369092	0.6491263743568522	0.9612197358238487	-0.9532453604939	-0.3301298440187499	0.5145580200955355	0.062399551312682565	-1.3109975254953075	-1.4164923459528371	2.1011545007618304	-1.026056772607882	-0.28029829547073254	0.8956688248115028	-1.0660617513048793	0.9454163860520874	0.21975956784763967	-1.5664711484925302	0.10572960936009777	0.8607335891485398	-1.8918862890784731	0.1495405039627721	0.13711542997018455	0.7369546378014963	0.27223271015276934	0.38766750875864386	-0.19013645900997342	-0.9375340411253347	0.8913167486358446	0.05918799490550259	0.7516255588015751	-1.2822340850977048	-0.1033434076573913	0.24561569041105835	-0.07753582030485007	-0.7516338135448387	1.0032917246414166	0.9017440727043958	0.28426549695273495	-0.9428300681254895	1.5827243618596147	-2.113153275853702	2.90376571519806	-0.2998136796371864	-0.3667350837904856	0.48860682761074664	-1.0514819246289697	0.7538567841183296
-0.4801195621740727	0.825493573446979	2.1177082873030435	0.2568272869325826	-1.7147819245986218	-0.2280197405542005	-0.07675783277433154	-0.5336767692298606	1.5619348318441473	0.5972185997765744	0.7416655022101261	0.042589341629318676	-0.8533608396759029	0.9108140543534472	0.9857349574189918	-0.2470953195501468	-0.002193424412542471	0.7090461580892472	0.08394198179070794	1.0874040094809145	0.39631859121424406	-0.47479805860525803	-0.6427638903985136	2.058424811166807	-0.7635123950247524	-0.3951718347736663	-0.9028188045378971	1.0078081301857764	-1.4350771402644522	-0.37909785675893254	0.14937611706309092	-1.9232581291943387	2.5431792577914174	0.5936935777255165	0.7865789143097504	-0.6294243462414144	0.1730727228226317	-0.7633368074497597	-2.0700785605203773	0.3751350342098531	-0.6101696448161805	-1.3236112414623418	-0.9106868600194542	0.70418055670401	0.2950599223901838	0.020401813648015896	0.10824532059776669	-1.2484128100112302	-0.10585935748947267	-3.4527260566826694	1.6240276718886586	1.023734386587367	0.3053158637455245	0.31160938051188436	-1.4419024168748817	-0.33602149674710324	0.8407692130667129	2.4844629470725734	-0.7059552597551735	-0.45090828271344924	-1.306527289607793	0.278086769244862	-1.529040295779714	-0.0611915742635736
0.5521005233071408	-0.3127850328917654	0.862420696770421	-1.003090604159832	0.9086802196397649	1.432467174118132	-0.5827966979002125	-0.010556259649983935	0.3644027393596959	-0.47438388660658176	-1.5660813090152825	-0.11101898820183288	0.27981646218996775	0.5206022173840532	0.7419116556092472	-0.5156113747708192	0.9725936570065075	-0.036296837097202536	1.8321654599483068	0.1450343003486121	1.7572971366337415	0.5672291978261473	-0.09010153635903957	-0.6299016490592166	0.35107756837497756	0.7029941075730565	0.019779310057547045	-1.1414520280820177	1.7707225730066314	-0.36903134700554424	0.12567017384911808	0.028065131747006068	0.0485032431101703	-0.6212961969695762	-0.40969121225850863	0.6826021787447407	-0.6789746833828527	-1.0218837454015983	-0.8791387398382	-0.38009401983839686	-0.4272230465510349	-0.3762538420319868	0.48882949685312554	2.1325121824264834	-0.4445780023223252	-1.309869461566587	0.5717730749957989	-0.7537532732623915	0.32262189931521845	0.2179667587056714	-0.5744909058370853	0.8749500186939683	0.10782885236760388	0.2165629134161383	-0.5755223258738412	-0.4188852827471046	-2.0701273511789595	1.2237971940208292	2.771543824256102	1.1929824898171497	-0.8918241035198023	-0.5276035804954765	1.0343389508090435	1.132474665413693
0.10308160050010069	-1.4292738013392494	-0.8935176216091438	1.3370986418185742	0.3004634046532557	-0.5423125725194683	-0.005031077895432659	-1.5316881856976905	0.011887257316104448	-0.28202196655370404	1.574184839012086	0.4978048394457928	-0.23470368302200548	-0.07719398751128445	0.3127397208862413	-0.26560395628422107	1.1443857530115848	0.4622604531929059	2.3345233589169934	-0.9447322571866552	-2.1863393585041306	0.7546359133221232	-0.26190014288518615	0.08912234953340001	1.038255663591268	1.412758275062662	0.8061921931474051	-0.7087859467007251	0.25217066846742175	-0.9138314979998587	1.212694541146716	-1.092037575156456	0.32569754252169436	0.902479773886181	1.8916671033078767	-0.7549256011372198	0.6848166406552336	0.3640562038287423	0.2586328401295705	0.47369850264077973	-0.9716583768159608	-1.1875262980508448	-0.07196059716417483	1.556049873067863	1.1485499775149426	0.447291877770444	0.730021107090085	0.33375767582688226	-0.033231200599901346	0.16836129478472406	-0.7397438657045582	-0.7386321366952527	-0.9880430240715394	0.17869002069936257	-1.8385604556060544	0.8244844068490238	-1.8369087907989092	1.057185563387153	1.7477464006343708	0.432153647577829	-0.8176889870883892	-1.0493248928166459	-1.1596808729292527	-0.5937252731557249
-0.4843013932576038	0.39482352854351765	0.5093505128681013	0.1045875316553957	0.1515104189347183	-0.566016527027021	-0.475782122608477	0.10933973622952091	0.22417950724150795	0.34156978171561425	-0.3311964125781477	0.06688292683216066	-1.0585363921931856	0.4346126584865267	-0.027099946330139138	-0.11588999634693119	-0.3307948157042499	-0.11343059577198955	0.5140169378304031	0.16061605583337446	0.1419485408149092	1.102971897118266	0.27623642966447065	0.12304258889677985	0.5113884088538193	0.05207924376739442	0.4875580811720209	0.5039672906407355	0.40389273133488085	0.2930001241856663	1.811300646996761	-0.420254117704563	0.07030422933583605	-0.19970799652180887	-0.7051879151693615	-0.07198102296699362	-0.7448638386703961	-1.188811765356853	-0.460657092295989	-0.04172643552375493	-0.2708987808027674	1.1040134578218423	-1.0206888481074414	-0.2638308996208382	-0.46393341906973895	1.3185399947130967	-0.3974679729473123	1.560652652949543	-0.25114054048405576	0.31518631096716176	0.2723844143253665	-0.7896422255617317	1.0332675324945961	-0.14105021992889913	-1.9404827531463995	0.6500999825593253	-0.09459918671781146	0.17901466048651302	0.9123008426702075	0.6242069284166004	-0.17127143458439018	-0.041289152445055884	-0.9995216943965777	-0.5737564608936737
-0.07032645124143949	1.2474197022763571	-1.3508808727170343	0.17159778695997785	0.04347441124236078	-1.0548795054733404	1.4032668967669388	-0.11887979456101304	-0.9525464433688834	-2.3818337022738674	0.7425894758897149	0.8300164148142838	0.14212159614125777	-0.15305218130756673	1.1902619642591938	0.753681241229277	-2.1696377257713233	0.7258175087842901	-0.7791095467807851	0.034748039578483436	-0.7862854809225639	0.5938140073431153	0.14403611192836652	0.6554734743018737	-2.2583302694268927	-0.1441699961488154	-0.4700119483789422	-1.9876689482968988	-0.19051480805670154	0.9773007455147589	1.6094060888528692	-0.9589849026905161	0.6736443436747795	-0.4342249447426623	1.3844862631857844	0.4594124640608483	-0.2411514434141316	0.5490184544651594	-1.1243341704021108	-0.16918641379731153	0.46696050940081296	-0.0660428671131293	-1.0327398958885066	-2.029158115908706	0.1246162549543234	-0.6286430101416087	0.26033373621130157	0.7261468069153869	-0.4201808369021658	-0.11456351644423161	0.9950102967307899	-1.0212239634542317	0.26013208944737465	-1.5271357161281849	-1.4642850008532622	1.4884997334141494	-0.2506991246069778	0.6704802367064275	0.42471014765187004	-0.8263030112446687	0.21175322042426403	1.9179748207036826	0.22761091886211823	-0.1320790656376186
-0.12642550441613842	0.859541273876637	-0.28522272482057853	1.0300329662319103	-0.6319479513598759	1.0972186200364022	0.4002451963128324	-0.8382994471679784	0.5400290237858941	-1.4603266387207525	-0.16884951409126156	1.1750891866212962	1.1476583942802328	1.1386491646069978	-0.4365446361334755	-0.6390553460606972	-0.1767885637188222	-0.03894657805743753	-1.7423304729356928	-1.6845427116921359	-0.7718931388897974	1.5749640722635367	0.8718824969412183	0.9605006293975856	-1.7122307976088917	0.049318504577200564	-1.08796245518719	0.7869873963123799	1.1024944047539507	-1.408207106046568	-0.5165171606403195	-0.47414312191401986	-2.246414040844731	0.9160452436447272	1.3286239163635467	-0.5952870667581669	-2.1314063052027246	-1.1787315558402534	-0.08771104115164366	-0.0976154552141853	0.946989470692539	-1.7007841462360758	0.6207773814062225	0.04627942230549419	-0.6838455612473137	-1.596995228917649	2.4236040748664305	-0.5423133180437085	-1.0873613800326525	0.3780923122395691	0.32451917779258455	-2.0254973415612763	1.009497697731571	0.41308479531799464	-0.2519438545337689	0.35901720022366357	-0.3582329171436425	-0.4519750427733965	2.9499036722786687	-1.2869631981265786	-0.7974781995609137	1.5637092155005337	-1.727107232576073	-0.33036668033041106
1.1609450321208747	1.01190578047085	1.3821887099956722	-1.2710010628671304	0.487197655770705	1.4310343427508365	0.5368380626483154	-0.8675191019803452	0.572770806682102	1.1012156328629028	-1.4980919402470005	-0.8809884607304003	1.0313970349352892	0.6047936512234978	0.5269984357994911	0.5031039203226283	-0.5478347564744123	0.5381989597019737	-0.7338854320316038	2.070438399694644	0.4931719633555689	0.8051466420708562	0.3109046680427979	1.8105998181321565	-0.12307787552178913	-0.681388749672927	-0.07354832932043012	-1.2285580385182158	-0.6089580536028755	1.3373992284710778	0.22941352047114572	0.4932175037709315	0.8975570299269278	-0.4342519217001773	1.1037276313628668	0.13782261878955324	-0.40467417349052687	-0.9817017882556911	0.6063800332511246	0.20821233674405926	1.0856275877458406	1.0977183725370652	-0.43250852204133816	-1.0362467923263066	0.752637057266762	-0.3564894355837507	0.34453416603918696	-0.14513798078208598	-1.4715895875309832	-0.1515946043971516	-0.6272360399968991	-0.4389591227690197	-0.864662498991895	1.420851688912198	1.7780713032163546	0.9410418891405857	0.07357539319368447	-1.2151446565964885	-0.14518265523466165	-0.22277787368926574	-1.421700646987352	-0.6916849628205393	0.2973464209792168	0.5701649900342682
-0.6511405857605271	-1.4724205084020086	0.8245172422993761	1.1399499861119518	-0.21659494925003517	-0.8241822293026085	-0.5947256990748717	-1.2276574354605396	0.340037792119811	-0.4046118272313679	2.3034030892236936	0.6635745025858069	-0.48651843239913606	-0.650380959915101	-1.360767713828304	1.1094114494841312	-0.9686300845705471	-1.0396980829063867	-0.23261093714335532	-0.07585677589931498	-1.1227300855053497	-0.018178435498799994	0.30635862261896274	-1.2960732872915113	-0.800367747923877	-0.2673792116065195	0.7258372708400372	1.8540828869221364	-0.19785191186869197	-0.0844467813330131	0.009080463722805165	0.17353182997613642	-0.5611493988037481	-0.5900158744970599	-1.0163014261739989	-1.5070606890262377	-1.2190574522874598	0.3717652407012713	-0.5121454936577104	-0.28560409251631275	1.5454254141314983	0.5680670977201988	0.5622530684570677	-1.0053494713827424	-0.0031381719487706475	-0.002761937137300644	-1.9511030086491408	-1.6921926201028796	0.03181742533252237	-0.3850440357581087	0.6053129479871266	0.4229253841863398	-0.5113073609355471	0.20859562719640157	-1.8008717720983018	0.6284723143649651	1.1455523297177266	0.050075369738612055	0.14887513817262704	0.2410963613549415	-0.41383547153324074	1.171046111961326	0.48360377692538026	1.1578276339965194
0.5619362590622313	-0.2307161286267571	-0.3761886674818721	0.7745678698282774	1.4414274303928152	-0.8925473655492714	-0.3738755509712432	-1.360839293902026	0.12688575269606137	-0.7072424539787925	-0.30629223413165496	-0.3943731729015484	-0.05819023738539074	2.197964904214826	1.1818119177403053	0.9141800353646021	-1.007130553561779	-0.7164980979858969	-1.1881106988045373	0.9116903405982298	-0.4330564922327205	0.4401386255924629	-0.2146251979729585	0.8018109002093093	-0.1863116125443536	-0.541542981993061	0.8824785823174026	-1.0508991094543654	0.9901720281709073	0.5301037185437324	1.2602868977158423	9.241092213244364e-05	0.6749303801218737	-0.5780796793575914	0.044596323135622874	-1.2419597210382536	0.2157607323923044	-0.08366625817844343	-0.0739488628980039	-0.33021200729866373	0.25605488325703046	2.1677951829659343	-1.190142508420828	-0.7820013931690643	-0.562169085437059	1.0060781894120314	0.17804407199682842	0.4245845487316581	2.6145980240445885	1.3663634193347212	-0.8045754880435639	-0.15049590866517823	0.4526119439509446	-0.9374922621246711	-0.2239071227520778	-0.668498783168532	0.4585086811795892	1.0255986186739623	0.8105878821993376	0.45760547883469205	0.49958187860384534	-0.2976024418019225	-1.166687842453484	-0.049858254257965445
2.0434231531782983	-0.509852980562182	0.10009168619518352	-0.4844753680302873	0.3392897936463039	0.9700975843410997	-0.25953679754934045	-0.8230066277116314	0.061444440533890476	0.3914355046850369	-0.5463718958460484	-0.5913054382165245	-0.497061838483839	0.6485671051994778	0.5413698094924592	1.4275905955969754	0.12054501423551188	0.16179801473558622	1.2640768584703914	-0.0010900565739362517	0.321678739328448	0.9475439335145145	-0.2907247685238509	-0.41477341525404404	-1.6547096377033097	-0.5697778118929289	-2.2828555769788794	-0.7470549449314047	-0.8362940399938152	0.8697258588912051	0.2657812905245087	-0.3155308739496688	-0.26236369129119286	-0.30885182883787693	1.7485351831718998	-0.34263019700217257	2.522753702017575	0.0994562911371776	0.2942831934294158	0.7464326761473667	2.1148007081236058	-1.1071950019356247	-0.14226843327696448	0.7925957401312597	-0.5496468686970714	-2.685361039071995	-0.3502482078707094	-0.5508214345975732	-0.042180457255079414	-0.41667428771477977	-0.3139616874339376	0.7386522477563453	-1.8150886113684341	-0.6716815553496452	-1.002775824106091	-0.6889188351434035	0.33377050204245695	0.8608928548049968	-0.39535283004089145	2.1343197173061967	0.8209007861637935	-1.2951635312530128	0.4922552228528781	2.3391241319864164
-1.1236107240649964	0.49565563156444664	-0.5513312113024667	-1.0982374714580154	0.40952098345120125	-0.382899337104991	-0.9976035178486612	-1.3849985320669262	1.4062344780231368	0.8496684941666885	1.6097541958768586	-1.4878551149782537	-1.3997419162099993	1.393327951764441	0.39784064170068956	-0.2580219928950833	-0.12151121082438444	1.5951850017930944	-1.0859026438543042	-1.6411142039379012	0.8569223072782652	-0.07683150317347086	-0.6240580728001368	-1.2202480972833458	1.2779786403494084	0.6597882616348534	-1.2531806846918672	-1.5709553259944247	-0.997619725771632	-0.5489888002238317	-0.5011476903912907	-0.16784230046021595	-0.03438317900214239	-0.9780365619881902	0.8618043291160316	1.1613824552164926	0.21906203273746075	-1.7467217712068672	-0.28290937261951965	2.2818321330653175	0.6232358431724886	-0.14480229895304628	0.10529946914692398	-0.5269982039952468	0.7015830824223828	-0.5723688977876581	-0.2422806034624003	-0.9344883361154422	-0.4621525467862757	-0.7248503331171647	0.06554826942126801	2.0175297807426666	-0.3683413224827162	1.0285814333111791	0.3618961234086255	-1.0719978603345266	0.036395952420947814	-2.675136922640535	-0.842505056820072	-0.961567728372661	-1.0471148569254278	-1.372941339695674	0.7275130132827449	-0.5699013793438846
0.2807968613353665	-2.627607029872002	-0.5212008280946139	-0.21748257393085135	-0.6198291019956449	-0.11308878401014835	0.7454216999264466	-0.8990165162943832	-0.16722533755818042	-1.4441815189851743	0.7090555715521722	0.6074488573606636	-0.08666569115548137	2.422594781749417	-0.4258622070281451	-0.889181657107458	0.481146690583119	0.6544966569367251	0.10998318270710958	0.5088859397825173	0.5188200101061105	0.3779539475238386	-1.1689476233663352	0.6963453983371739	-0.5409205686079089	0.6917081480151189	0.7240588854504348	-2.716655522369361	0.5244299236055388	-0.38752802441188366	-0.9604682827009411	0.8908681534539705	-1.6337208027559917	1.0288566223985645	0.6732746638226019	0.21556557840140556	0.5629822066618818	0.9001409656674262	0.361530912617527	-0.963652944585943	-0.9762452685095426	-0.9751783340963645	0.046422309574071695	-1.3812982488130832	1.0932637581910163	0.43774579947376097	-0.45386566774631426	0.6305561013992022	-0.8183573616287115	0.4768522332405536	1.6053718063150912	1.271310567327637	-0.5264411721604833	0.8554445349684965	-0.16140094098810015	0.19906228954537417	0.04992749014636944	-1.5934392670223885	-0.8784013066465749	-0.14510685151197084	0.8467520977789801	0.4988423629204906	-0.09831397088857154	-0.7784142418574257
0.6598291981472909	-0.28202890343246045	0.264127968344517	-0.14747458817270115	-0.8388117941825991	-0.20725421002983907	0.640042957417636	0.7248705453119176	-0.28940465274028393	-0.01898375318101105	0.838144700671748	0.36956598610224983	1.464034661198387	-0.274830109209718	-0.2437588586835257	-0.880600746100238	0.9907863858560404	-0.41039184687844965	0.4097212334135952	-0.5818775575546973	0.263891655611255	-0.7181050656276387	0.5841737926489563	0.2615052859089583	0.17747764677182984	-0.3659681579575525	0.5008683395025576	0.4676450919808139	0.06586447439648412	0.5293147055418375	-0.7833939362875194	0.40530489809461046	0.4671729935915084	-1.9544191629134637	-0.4202778637536978	0.0016649411357724556	-1.0362104960318188	-0.6540310568936056	-0.3885187897950939	-0.13726510114184293	0.09119757803575593	1.0175886429667422	1.1351416373421241	1.4386011039567101	-2.1515315394911436	-0.7815947927367798	-0.6386209808358914	-0.9939939286218369	0.8699157114823278	0.09499681668487824	0.7537981073204206	-1.0374988969714452	-0.19857705637568993	0.8013606561769586	1.3440013065577017	0.17110454373653114	0.8961454051862251	0.20193706305497894	0.11027305161643541	1.1316819289746878	-0.826854840292674	-0.22156217584874602	-0.40089402179795514	0.08770529268330642
0.3853475520084293	-0.22173722705850138	-0.28633968400062887	-0.3964928250261416	-0.9195541482161289	0.08840623996799313	-0.9709266631419996	-0.6811933360928806	0.16731450586095412	0.7137209429497705	0.5069897802340557	0.589614785196149	-1.751993547692887	0.3107970846344658	0.36799763979391	0.5340941292904001	0.8265220637466206	0.06012347499198889	-0.4745052840992881	0.0842150357307112	0.9452174638458836	-0.0022007800419275403	0.8960137765838951	0.574840998550506	0.6255891787044262	-1.5093130968340664	0.03215520220152969	-0.47841224519812586	0.6242229812123156	0.3375118060956686	-0.3347354886372631	0.22278780686478136	0.23019362056367806	-0.8720475132163432	-1.4406334546889807	0.7334142865180048	0.22039990397469575	1.5783213298551877	-0.3434117779622626	0.34673626900893945	0.208182408408548	0.9649503285219647	0.4440051758641909	-1.099127781132264	0.37363050675055554	0.3670156126736142	-0.5239215714962666	-0.8843941817053905	0.12219783935100842	-0.5171974312602381	-0.6840536076196926	-0.6023943163510742	-1.0813093792387296	-0.7635853533825414	-1.1631203326228865	0.6361019705816471	-1.0472062136195854	-1.6441717223261225	-0.9654449711302767	0.36894979928824845	0.3932802954321248	0.4677397574902734	0.20430219275592854	0.11314453062926633
