-0.8640387281580324	0.38020645641755363	-0.22443634572965926	0.2811213700663688	-0.12555746188447747	-0.016203274015839254	-0.15192593722313447	0.24171686237742768	0.0482728291827582	-0.36824110005829547	0.02891737007771446	-0.11098930720496629	0.10434160409811444	-0.5755805215133949	-0.3234192506759466	-0.05222754540293064	0.44151629617731114	-0.09613096357954706	-0.052752922180213525	0.08854519222301743	-0.311071879305308	-0.24257913447528412	0.30069499475077355	-0.25999784084624156	-0.12375612117997893	-0.05247267656746978	0.48447662760298665	0.8187035346993792	0.19409088104972003	0.22295171157148727	0.11479735262060088	-0.47392940314526744	-0.09388463149130352	-0.23075852200503727	0.2692553791589824	0.30003292630958467	0.5842365533897969	-0.3928588893596939	-0.038886653898536766	0.33973490515365884	0.03790782511623891	0.2148082932392292	-0.08944464814001928	0.05852150523734794	-0.17794787207247173	-0.3506903815028036	-0.27395730910379784	-0.20169654939859816	0.47202366980963845	-0.05273614333644534	-0.22655155578968117	-0.15581974270649657	-0.12493125069345279	-0.5703493293999047	0.11090842940948542	-0.3034394152673095	-0.2065121147064228	0.23075683135848718	0.07149011934438032	0.19747638705724563	0.5356730509351304	-0.25445389746475444	0.6001452693693128	0.09834762145118137
-0.3207638317170783	-0.5289865339587565	0.06483746970369889	-0.48938024636329647	0.29489470884380403	-0.4801242857850117	-0.05835925635377207	-0.34297429395941476	-2.148637958419729	-1.3515747796469504	0.42466703029466185	1.2456376865722556	0.08500673677204151	0.4939672304510199	-0.4052479779108593	-0.07666210336621547	0.29595576728943346	-0.6492436759417115	1.1322393662842622	1.8741381466360998	0.16377829063895122	-1.0825329891273536	-1.4502119150582617	-0.5384786810434634	0.41412332895697596	0.32604585232008415	0.4902968822818385	-0.8619009522839032	0.9537843722997149	0.16968209266248058	-1.4078077966012557	0.4732145537047444	-0.1908218397107191	-0.14563760347025326	-0.03205810294436675	0.9580682670201189	-0.819326213079953	-1.8203646574756687	0.9385077077934509	1.4865699511211368	0.5909150896438693	0.02348246571652951	1.1318038213567185	-0.38013662199458176	0.2345468047881926	-0.42430766398152125	-0.047539235857655335	1.1139099606208458	-0.3623598081607308	-0.1363578971286604	-1.504807532414469	-0.9913867557806835	0.3523990956891404	0.21291697113005337	-0.3355732123511706	0.4890993494773647	0.1927995835483417	1.7251006186175304	-0.22154028126461922	-0.028678117490418535	-0.506987882306146	-1.115839246761313	-0.3543457599979695	-0.5454048157668104
1.2023667927874642	1.2244274276381555	-0.5103536555764917	-0.21246538567848294	-0.7710593426123517	0.8785603287212435	0.26079536067098147	-0.4264671736163894	-0.9334865919109845	0.14896161382164216	1.1044713797773742	-0.12404487924856251	1.372287512806133	1.152409868392627	0.21702924372635385	-0.517432918286972	-0.6048283530823809	-0.5035059315697887	1.265570071959674	1.3873853545331098	0.6819988082024088	-1.2320316582873556	-1.090983336600376	0.3970008054764317	-0.15533774565562722	-1.7106499714765024	-1.854636344040942	-0.14663511803676996	0.14866333263303091	-1.7549145209404893	-0.08412618009438073	1.070982042782678	-1.524807465059316	0.6851745252658146	-0.5195405971939561	-0.8010457342339123	0.08782231294049539	-0.3093268946099023	0.39657045392809287	-0.07425785908521662	-0.6313213031618495	1.1634777291573009	-0.40734544066909845	-0.2660361864852233	1.4403597870334914	-0.09508349016780944	-1.454650802365489	-1.1809866347365392	-0.8353698977576909	-1.935882620405017	-0.7183971468594452	0.20505876494144756	1.3433052667468508	1.0047987028961685	-0.5715878645124145	0.8369370505915348	-0.5723534377465453	0.296027073403854	-0.1090125671780275	-0.25351971174791305	0.047846150440709743	-1.6169190011604526	-0.6546234736312356	-1.121187486073517
-0.2803964974278592	-0.2571822233366524	0.6406735661152787	-1.645504584648284	-1.5799412510420228	-1.8486380120695727	1.405305541444037	1.0141456154998683	-0.8490696030355717	0.7697111942335416	0.9721841711253814	0.3372832945081073	1.6502396259185896	-0.948022806990499	0.06737904379637236	0.9780187496009057	0.9020966772926291	0.06207133479335926	0.46915631557690296	-0.830510867433334	2.141659555500139	-1.466098199057209	-0.3830740612626034	1.8791277175188765	1.2306441447630523	-0.16914790207368013	0.29738359297903	-1.7322521629996812	0.2560861635877925	-0.4972869816120891	0.6844241431591557	0.23543674057243066	-0.761695101291251	0.4161289724795709	0.6562408635700014	0.007573713313070342	1.7969415490053746	-0.8045275626399246	-0.9579873274929208	0.3212777940134125	-0.38657243141304676	1.115226792940856	0.8187909352724009	1.9751364192533132	-0.06328063339159899	-0.8765237100383105	0.6020696334449845	0.4587798657225892	0.0979846980938407	-1.7878424298797715	-1.3246282832098726	-1.710316065421372	0.6135395906024618	-0.935271287366333	-1.3353687195470774	2.3355726633802045	1.1226283226367793	1.1333918084727848	0.13047967287555154	-1.4308685910889392	-0.26904110829172395	-2.373012568865268	-1.2350497778012774	0.9201452428146779
0.6136401478692558	-0.44890317283145664	0.5170806389627591	0.33436919642166374	0.16735132763083493	1.2555886817921091	-0.9998942794627395	0.8782189234805255	-0.23264254076779114	2.036525243041058	-0.6991060875870164	-0.14174883901247598	0.3603667036865038	1.0391454745478341	0.22686178945785448	-0.4901519565506072	-1.70990824239259	-0.6699506607079436	0.5506625756333551	0.9002021016277238	-1.5459924025219753	-0.8154987481670908	0.28490729639564294	0.27639988996478554	1.2084974505159698	-0.5748383606795532	0.3303852723486048	-1.2244446372991573	-1.0337850552182277	-0.15566952247786062	-0.10280005198375271	0.18306452624573494	-3.2549424142020325	-0.8823075458078058	-3.4243647742828056	-0.24711557349918753	-0.8161526315688891	-0.033262926835932925	-0.42066104165348883	0.5540083636776862	-1.0116757009064439	0.24411891017687679	1.527020711223479	0.6240977645324834	0.72102813824564	-0.7291502289733678	-1.7930649650488326	-1.6234347458000524	-1.1144901797309026	0.15926645609696827	0.7854723108542409	-0.6362157937430835	0.5555454283601066	-0.9262421344148387	-2.049032999724947	0.12153031514182379	1.7435974403366559	1.9919739642524281	-0.7597516367185412	-1.1794857862305983	-0.37215805682340414	-2.612162520246284	-1.0914939968203037	1.3952287121853988
-1.087186720233937	-0.5185371460948982	-1.4067414900600104	0.8198665376633788	1.1901290996502563	0.1586422257053474	-0.5009075921667773	-0.5022194731872966	-0.6408225566532987	-1.3008219307798552	-0.4166514313761371	-1.2675461331465956	-0.7567393442101867	-0.13293472816813365	0.18802935908319982	0.5684380169462417	-0.6143666287371702	0.17937409496884693	1.2317790450747501	-1.1982277045210823	1.3481354379572346	1.258271182726261	-0.21527798445143034	0.5551416889247511	-2.3191177599487096	-1.0893967693426696	2.610459508858978	0.9078431371207678	0.7052925540322599	-1.8221836672511906	0.2800988281264986	0.08096821763053043	0.2973531068822565	0.8538754894826418	0.895785300854055	-0.3956795829082575	0.8380581281519826	-0.2420670662652903	-0.4263574282895017	-0.3490488081974437	0.7913519968220951	-0.16498241240255238	1.6137696345124501	-0.4011937849913159	-0.8223045293951904	-1.209852902026106	0.4876778210222814	-1.0300044792479102	-0.6110053735117937	-0.020502785273977538	-0.8132597137569387	-1.2055719336984905	-0.6241478364383563	0.901963909366848	-0.24024762404490577	1.2236176915871764	0.4794426453531238	0.04499837922683816	0.3814285091100353	0.16946722730078645	1.205146053179879	-0.9533008154599579	-0.8768752276733202	-1.1444762152065187
0.35090985885786025	0.06459749401011873	-0.41273303587137483	0.27221684628042503	0.22537406827596745	-0.6990545443392138	-1.3118160210269856	-0.6257561040223452	-0.44510877570811197	-0.8422848481510444	-1.29772249930019	0.021290464021887865	0.800439622534423	0.26626326566827224	-1.124188283492191	-0.1961289816741681	-2.242911158318206	-0.36465544924559273	0.8540246177619233	-1.0837522669324473	1.0751002245674044	-0.3343922073931749	-0.5235553733744294	0.4042420527270807	0.13298113414638926	0.5090102789438076	-0.27149787510261975	-0.6334002910326585	-0.30587990533328385	0.5577699127437279	-0.5581393066351583	0.3076987553087029	-0.1968637018298047	0.637358667978207	0.41840886008248257	-0.14812893432861884	-0.06109177756200078	-0.7258849730190988	-0.5266312174967771	0.02503421254151285	1.0210081761564433	0.14355767129677569	0.005858782881893006	0.32222317286648433	-0.7959533748540275	0.35449258706586434	-2.3658918180941373	0.00033565919604389773	0.2335054995900844	0.975462143122056	-1.7685986010662054	-0.5500140422091557	-0.14922768235731662	-0.12016023659298657	-0.4720735845419605	-1.4093916804754747	0.9467758261313738	0.6520607622885317	0.10052605288053915	-1.0159435914656714	1.009393330377316	0.8842317736027265	0.5771931285090477	-0.9985607882878849
0.37781677913796125	-0.4351239120951719	-0.6492179305017128	1.6009305389436452	-1.5485993481898903	-0.3682610929705939	0.7102169895801708	-1.283679847619836	-1.608980998280278	1.5040710837036653	-0.6245354967202436	0.4230738680517513	-0.17681018599006415	0.009077244442351244	0.299437813497111	0.8413532209613293	-0.1615155899361446	-0.15430346886228183	0.5058073995368297	-0.5545890711714078	-0.38690129924962685	-1.168234189729304	1.4715931924473695	-0.5757289098140274	-0.00015883261199125498	-0.7926226807318669	1.9870085913994044	1.4103580967811984	0.5620918582391573	-0.3710173312560912	0.5666763020184786	-0.13025605162886844	2.226967004476661	-1.6632180640602847	0.2922700275878292	-1.0124990017126843	-0.8329734436860191	-0.6444267824115315	-2.530295538178961	-0.895383338860192	0.7803796173539119	0.053950847891887005	-2.794150942081731	-0.3106472950817314	-0.0739533200092234	0.8531364941628581	0.768153563215034	0.10724790602008806	-2.6413807381035186	1.1566440891669496	-1.647939333568824	0.36969662164308636	-1.1324969659469881	0.5401156282952962	-1.944134378074373	1.5779282243257695	-0.7818142342035103	0.36755410351561874	-0.6166244990940186	0.329200542995261	0.24134837139379833	1.0143769099769984	0.43083653773873226	-0.6602806588442106
-0.47103971252040117	-0.6862063422097122	0.32496528119863094	0.7110232209034083	-1.1012700486875975	-0.23513084415059565	1.4396783266748456	-0.5894231975905356	1.2638544082614163	-0.8361439453259586	-0.6085441115254542	-0.9682750166730839	-0.21094368788345053	-1.508328969211163	-0.3782526912708285	1.2663774917668926	-0.06933315458082741	-1.305882524030677	2.2834105165689085	0.9448093632814485	-1.7659628469979323	-0.4417102247090118	-0.5183357517739562	1.533047908718352	0.40677248971131513	0.6514762943003617	1.8243372358097076	-1.1710751475415688	0.1571258674647994	-0.854595632997388	0.45831538090087265	1.0820383942487033	0.15754089406889032	-2.174040544531311	1.887808717208829	-1.1196896193103583	-1.1211395167664027	-0.48717725587817085	-1.2349296505979954	0.0007248799585489698	0.8346347791657108	-0.2864312063584988	0.5425878560131859	-0.021520445743486678	0.4840307404821671	-0.14387043777230377	-0.46014916107530884	0.2661359139043386	-1.6686663961461339	0.25500126267979606	0.4824022817526501	0.06345515240637045	-0.6124883663898749	-0.1667899126588076	0.8951985558318656	0.8350235974121122	0.5655822640289615	-0.21631104956606453	0.5359218293527369	-0.27020862452750977	1.5863054684247129	-0.26100469796088854	-0.4258205986616768	-1.6826271051138766
0.24992257294066095	-0.3761363164183614	-0.7760569414910232	-0.12216429825865582	0.19555745809235425	-1.1650014673857532	-0.9936527435823092	-0.112425699928144	2.0886694709452893	-0.25842577249033044	0.42024204627508366	-0.6738488679501925	-0.3756503867967088	0.41112808440517784	0.837456313817107	-0.7865161448036546	0.7550506310693977	-1.2324750329568188	1.1015702057559897	-2.650953453726628	1.1856153022510563	-0.5000016213738451	0.8351997403744533	1.609250851937681	-3.4839152724455467	-0.14271359944412546	0.5808282300167165	0.6254829880261259	1.388243366201565	-0.08987758971393155	0.07561106700382289	-2.1596429309169323	-1.011861413111991	1.7833451295877505	0.24077872881431264	-1.0793660799958442	0.7659659182602738	-0.5266101021772415	-0.2641931901205997	1.0114962071073845	0.6711575319120019	-1.2745228678362468	-0.0887138571235908	-0.7574676625680316	-1.2525861690848314	-0.7715898488783863	-0.29227103204188254	-0.4672011993683906	-2.093206463605713	0.8808273622233141	-0.47098055323124677	-0.8742664467422577	-0.8137464939490009	1.3172576869769432	-0.9736967029191408	-1.208313858313335	0.5087085242682162	-0.23560370563949962	0.9421941620612672	-0.31559177151916346	-1.1682926824388207	-0.7020973180033966	0.056989087468406446	1.5052424065204038
0.18475636473219062	1.285885346007883	-0.15567796283182458	0.11558968766149759	-0.6492380276820945	-1.6644565969030143	-1.556192808942423	-1.0777061412868931	0.6353664291104897	0.621975692260916	1.1899300720918715	-0.44565220693829666	-0.1895653671042487	-0.47361014768469833	-0.03846948948986473	-0.5377742987982617	-0.538996669946313	0.6236482953181303	1.2032630429555173	1.7970673789232505	-1.147223713897758	-0.29806613474144056	0.2062065280342623	0.4364016347440793	-0.19515505899811159	-0.8055333611714034	2.2421800788944966	-0.01772277567475878	-0.365550574243331	-0.7649317108699547	-1.7645453403970488	1.1101168132471881	1.6047926254016625	-1.670836809950413	1.5577792384713602	0.37170305886417	0.9612595880223513	-1.6372741644795563	-0.6347741202386807	0.4914069806450521	0.4197320390043606	-1.60229888545534	0.31420150092996135	0.5220240482806389	1.2574630266919835	1.940654698904735	-0.6397651658191988	-0.4039853121984484	-0.17593411313967972	1.203212072967015	-0.4471002342367004	1.8317027041717349	0.8965380541148216	0.36634826409362103	0.507893365529185	-1.1298747199597818	0.7848994088750659	-1.041725245769816	1.8623679177304866	0.776750903541544	0.8887731406329327	-0.9943726847878929	-0.9872207729052177	-0.5405455802628117
-0.5721710831027121	-0.039306591831017916	-0.7080643198761077	-0.5712100617064808	-0.9028413958132226	-0.9237420986837918	0.9055950750824704	0.13797291041490617	0.24819624193567408	-2.4834493201196555	-0.4225137887451556	0.3756470566558245	0.7455166902331967	1.269597045381181	0.11027335181938665	0.5855211843017424	-0.4543838850182227	0.7047250796874779	0.579523544887893	-1.555521495681857	-0.1957004683941275	0.07455834850044814	1.0969219261301124	-0.5068001374174065	0.8345029042240908	-1.6385464974649864	1.072100678134161	0.8213162344244418	-0.009069317166478299	0.21662257951370834	0.2394662760457071	-1.0652478739467295	-0.783206664405352	0.5164940843635272	1.207618979790079	-0.1294510182626833	0.17832496238885848	-1.3972600721809898	1.2106647854491666	-0.4657290580308285	1.463191209451875	-2.217356565300972	-1.5472770150485133	1.0555154356961483	-0.547085539859234	1.4186300944800299	-0.32043885350205836	0.2575442077964449	3.2946871654569727	-0.8236150660504715	-0.6564781222106822	-0.9876473162799383	-1.1933071392117767	-0.7743150294353757	-2.443904743625175	-0.28214932292671707	-0.7515143546615293	-0.5096076565160897	0.16502383747095709	-1.5258207794469414	-0.18558407576122699	-1.5849987298500439	1.2012617968311414	0.8881445081105149
-0.011925897179687131	-0.20720565163626561	-1.925792346521916	1.166419049940702	1.7748398119044901	0.36896855176250665	-0.15057718040906892	0.6642188578806416	1.1261495676877529	0.8208880581062729	-0.4431137966220304	0.2797756195782019	0.49125421415152143	0.05385875672796141	-0.08950598932420496	1.3634721719249367	-1.031433775770524	-2.302009989250338	1.6602035412444867	0.1495741422366583	-0.11914132800608036	-0.4522313516163487	1.4552379246077987	1.528010070388215	0.8333118792858024	0.4176685356090007	-0.6050419333900542	0.5789356345678109	1.625856618036376	0.9538883894932524	1.2958754294546004	1.427994035759944	0.2268787787986182	2.213428617985096	0.8873026962979393	0.9409565517632008	0.16797917120764158	-1.0662330478601176	0.2380762334538976	0.8130253008772534	1.1353705877043503	-0.7522847549402999	-0.5565901022829659	-1.3856262674475264	2.1191714229533116	-0.38873991319060625	-0.2966200140524348	-1.5868279102553782	0.36802947571118155	-1.7647855032530644	0.5705823392821805	-0.10247652412508522	0.864789285652912	-0.25505361435866414	-0.10545691558891711	-1.3196905006208366	1.0734679915687646	0.3326536531069588	-0.1280172492639097	0.07521508994382539	-0.2895064679110137	0.4778599178199946	0.37450249119824747	-0.15209092304405752
-0.888763838045804	-0.5282003676502297	-0.2632513274483431	0.18111956961162495	-0.004097166148223095	1.0296177057816178	0.3236431659109656	0.7185451638944028	1.5291572866331702	-1.1932385747136571	1.9282185734488972	-0.38558236179518085	0.31840933239011354	0.8478707851342039	0.19824828719871002	0.994706922990855	-1.0627968988407588	1.206798373553033	0.9757076643835721	0.11142419623053505	-0.252955299174361	1.3623164805323944	-2.6305986869246083	0.7249184098845993	-1.3335102092686562	-0.15334566183996173	-1.78439804215517	-0.684650031758364	0.07527906493028678	-0.3027956264111687	-0.8412559296185315	1.4120995641864358	0.8934531408993499	0.3849036078998653	-0.47360715772571194	-0.10621678372978006	-1.2562955811382024	0.9619783626069506	0.2970007448408684	-0.3459533442867361	0.6219408624910976	-0.9580996599685424	-0.9812261932270796	-0.275657339541413	-1.2426526439349241	-0.07393753155310483	-0.6065329505107551	2.278006144355262	-0.6209828690957341	0.042951145084049944	0.07219657406000161	0.4761653993467643	-2.4575009576157987	0.10570683824267511	-0.325418201341709	-0.3189006289091525	-0.5958919660406051	-0.12981902313402913	0.5122386741860664	-1.5037056835811493	0.29285096340516387	-1.4077845238364508	-0.6667585607425729	-1.0529117938092796
-0.9019637350092377	-0.1458715078529872	-1.459023195953794	-0.10953514415456686	0.026009974842448002	0.9164215131607811	-0.762483229728269	0.24517382838243712	0.04211095772197785	-0.8941040698684188	0.06633473507640658	0.4376393243124026	1.1809745711377329	-0.22101619286859708	0.35440534649195454	1.2778803374201788	0.008917877925832218	-0.1273625050156836	0.08484394484109349	-1.1825860167520907	-2.000936198445835	-0.771519975356108	1.8561864093331701	-0.261631604768874	-0.5645538139858035	0.08087748088995547	0.7553986613603965	-2.022463387230584	0.6874723633147249	-1.2200019200170902	0.07661149513825344	-2.0829222493313955	-0.5604291883605651	0.5507434433117313	-0.6528184877882736	-0.8870751637259948	2.53927704868558	-0.8944096869658791	-0.0035523765426712407	-1.8858747754561018	0.2696122419216472	0.009657240262847613	1.086069835528799	-0.4398561868930499	-0.2517898939074714	0.15055656628897168	0.3745113048227275	-1.23090981956363	-0.7841058124560847	2.4691532638067746	-0.0828389312097311	-0.3997044187734159	-1.992204763566931	0.2951564949225973	-1.618410582100663	0.19612564915793523	-1.1333372842751033	1.0149836427804482	1.4684471241462511	0.9443171581645047	0.04555094882982001	-0.8343957603207984	-0.38102391355888243	-0.6116564343356418
-0.0164160700036433	-1.298710894264474	-1.1269012253863169	0.9521717020754461	0.8335584225168058	1.1623079456178271	0.8687663994363332	-0.28211260239448427	-0.2174530748557995	0.31567548686342417	0.8458580970152622	0.5953690963564136	-2.830507428609453	0.3428713937026866	-0.7239932520677187	-0.35025275119735694	0.7905265952729121	0.5001098738591522	0.8981056159749771	0.8061918419888873	-0.23015357018933053	0.07389230595355124	1.7580994463064985	0.5289644302020162	1.2115054658181108	1.0887652297809136	0.755447749315049	0.9303840632927814	0.32199312962028814	-1.8590721977495404	0.5956050705272632	0.8442334066998367	-0.4770888989178293	1.0256773816554678	0.24368435765196847	-0.5110571640966846	-0.5345506897452391	1.0374381767205458	0.24428605981478005	-0.7382798478436056	0.3687684725888288	-1.2952975824431818	-0.8342581617547253	0.4336993273277002	-1.1318079176465752	0.2405603737056302	-1.109817140602444	1.4886449370239618	1.6821530976722618	-1.628397538443539	0.2096972054867774	-0.6350836006193608	0.24233333829918674	0.3680549330091498	-1.2895060267965477	-0.17817102121744174	-1.046689377365646	-0.5185611740192144	0.2608804077266069	-2.434904301117619	-1.30579522720027	-0.08737454541884454	1.874994178055218	0.3916125635534615
0.15862009933376442	-1.5382668580729983	0.4072789570035276	-0.7506311287056592	-2.48350402843509	0.8160676514895152	-0.37070875190577257	0.3952124443064023	2.1324562497179933	0.5340858419053337	0.3854436915061559	-0.8951834603219851	0.7324945259576661	1.1903489102348792	-0.6581672213792965	1.1299016808951303	-0.13071591608744318	-1.1577887898411334	1.9860864994193719	-0.5838695342707924	-0.5558368980576236	-2.1335854494062425	-1.9913702060520755	-0.7255569591958756	0.1252646844071229	0.20995513916639924	0.20069558794194936	0.6066663737197754	2.2499332793619695	-1.284848884515582	0.53618002659398	0.5191604693293755	0.4009185165808939	-0.777538894404315	0.07015791132967927	-1.251896284532884	-0.42538552084928016	0.0993591054385583	0.7495830560288507	-0.7493346519227563	-0.7123864068991783	-1.2901501089141652	2.2038636697148504	-0.7820170891386062	-0.9135856360247901	-0.8458762052042353	-0.6044653249780301	-0.13384837489629203	-1.180719845258477	0.11350273316209988	-0.44718912714823195	0.1354646143525737	-0.2772800677344874	0.20896505808238333	-0.40426780112565847	0.2201708913274549	0.6820079127326824	0.04611149455046825	1.4869273144326347	1.236943200741873	1.2898317935852044	1.982500021602668	-1.494303474684722	0.0974853034389563
-0.9169526161632682	-0.3334788967310058	-0.15582623279821803	0.6838685915607879	-0.8907681652400193	-0.23378329826410005	0.13853892240507812	0.2077420947308352	-0.6175669463091047	-0.7377832215517207	0.9343098218591498	-2.4912558722496794	-0.6102539523990053	1.152354219140179	-0.04456260200690751	1.6375077899466646	0.019163540537314245	-0.4244685763775555	-0.3926763025567779	-0.04948886182546915	0.39343419358239134	-0.903805150619916	-0.3671480502203696	1.7869673589959387	0.3230868825113008	-0.3907546461334178	0.25435605013647383	-0.03540668282225558	-1.2764731075183608	-0.5380559402927441	-0.8204128532542567	1.8240408025905426	-0.5506237612096694	0.8014308949922264	1.1009361983552182	1.527345898983904	-1.2863362223863823	-0.2450233670830489	1.8987740805991085	-2.7691349998677355	0.3573089717580293	-1.0192919385420625	-0.7880632761575214	1.8600830726874111	-0.3474016084680491	-0.8225600270172561	1.0980667555150807	-0.8388260537291038	0.04960418923765803	1.095529208511087	0.4870627712708361	-1.6625223744192368	0.5015367027105889	-0.5623539154166607	-1.4469206697745591	-1.2876171171618407	-0.9948746888507412	-0.9248876164170629	-1.3569958831973339	0.504422058708416	-0.3210570483817065	-0.7144432470894915	0.2969483960201901	0.08160317538773242
-0.08041054098319367	0.5038543083076362	-0.7506885750979463	-0.016984614090579313	0.6275918698651165	0.04135178736727819	0.032518873785156596	-1.522235346227385	-1.3030536556300725	0.367769030935435	-0.9403453906131036	-0.5256559186824487	1.3239896952616648	-0.034389952722022755	-1.1915282403860517	-2.183555602374686	0.34065994897604435	-0.43174801414172803	-0.502327526436767	2.3809186898674755	-0.556058247261942	1.5259509675661562	0.7281800312406913	-0.8142783095538701	0.5127092643996896	0.41583107683477116	-0.0041236145299852	-0.7004474115924769	1.3865725236968653	-0.14800796225136362	-0.062428163018538894	-2.1679054671061504	0.5724987429588633	0.037175851157445844	0.49863482259719305	-1.6816989750350986	1.0536259802477825	1.3439941149747674	0.47894509714519173	-1.2603619913920094	0.9895637827582214	0.26448655754484474	1.7262773591030265	0.08656090147541738	0.582779670879904	0.15047670473879937	-0.17473459127371455	-0.9608951533474177	-0.6877205629710466	1.3542895708076583	-0.07946203758288686	-0.47756141091694115	-0.531765584435565	1.8627213472292807	-1.2263721320914764	-0.4561131299069597	-1.5563415546592136	0.20530641221783955	-0.11832980991665257	-0.40357748781506575	0.918474597806705	-0.6436682972384244	-1.0216196929718604	-0.6435081304708825
-1.3790408429132501	1.5645815561698304	1.3307724452822725	-0.3576995293669927	-0.39872274142519876	2.235810799058371	0.8220758533509187	0.017492577044601682	-0.0019136789042131176	0.23916908704541878	-1.8045021866445083	1.4106511029881723	-2.184112996188388	-0.046210282771200414	0.8418359352544801	0.691606682540807	-0.44501550505254167	-1.3588148460077298	0.04699132546238339	-0.6665047897115416	-1.0176773489254942	1.0313853932652721	-0.40486214358097433	-0.6275813948327207	0.1104210661903537	0.5689560377518333	-0.2625863735689816	0.8066836490067437	-1.02182284231113	-1.438464621650016	-0.21172055705303314	-0.028807766835603887	-0.025902600956545088	1.4052671543154724	0.5892932119011235	0.08754891792822558	-1.1910904866693786	0.8599393832392305	-0.16653912959489248	-1.2190511223608709	1.7936169294334718	-0.8436932825823522	-1.5457154174450312	0.5489711024010909	0.09639185409959837	0.8028672223294689	-1.0221099867504828	-0.5057033133192395	-0.014376193292668418	1.6420989434014963	-0.5989846088873995	-0.8174552919496628	0.6523590826849548	-2.7550377333937845	-0.8807730059450845	-0.13344261386305226	1.0974717523724042	-1.2217005350212786	-1.0368202565667193	0.03308376336704556	-1.9981946052126232	-1.863117830818933	-2.158587703650645	0.2763746216355615
-0.5506272295865516	1.6487935642749108	0.7022302232569101	0.14123527493323387	0.8178097466520514	-0.634579661035271	-0.7770646326595926	0.3782863944925245	-1.049591137860397	-1.086808810937626	-0.8398152503060776	0.08005771431796452	0.5037529090761549	0.3851324315211843	-0.6037646728241787	0.5125674756775804	0.015436240033530772	1.5879637990738555	-0.2302411699614876	-0.3499403095676509	-2.946855253107905	-0.07406503323743843	1.6282318489163443	-0.4090283882706385	0.1328662949968066	1.1416495398746576	-0.5681481264564927	1.3135997418727134	-0.4294911633624328	0.40424986373660793	-0.21154425389406753	0.16518871981913963	0.575750886536557	0.18783011466733315	-0.8450055580705509	-1.2429083322400645	1.94062578381298	1.1438277574798825	0.3211308412712106	1.2763374330428419	-0.13349365532819862	-0.6241625244942107	-0.6740365838613991	0.08855528637110224	0.6648376616053544	-0.17869681629164197	-1.5709019801333997	-1.4209229919936233	0.3700769612497682	-0.4489234267729791	-0.1268433100938035	-0.631348747802665	-0.9691344146439727	0.6075515681875442	-0.879089256273241	-0.10159639617925266	2.0972080128541983	-0.23710104968176313	-0.38965243836118757	0.8901544075110716	0.29515101764349205	0.9285110919484652	-1.9005917516526007	1.8561848725217167
-0.6760436805902365	0.03166416632641413	0.9289149217351758	2.309752860740672	0.6492643471441978	0.47590498755071725	-1.0187380079454427	-1.5307405375785688	-0.8560397618231467	0.5023332276184062	-0.8931234605890521	-1.0102813446518588	0.5174334765535924	-0.056283063869937554	0.7642942053772912	0.16137918750266267	-1.335643427231121	-0.6888509494585171	1.7515879371148344	1.0458365840788317	1.8766873717419275	-0.786975689369275	-1.5976351956717751	-0.001965204799609113	1.206830521154747	0.6706676523411297	-1.2510509245734618	-0.9610612022085607	-0.28023764316266575	-0.15193852893166993	2.0498290707539213	-0.19227443428889562	0.24072315699330044	0.8878191970012118	-1.7910752188530261	-0.44790302530998716	-1.7736254311245123	-0.26232508227358525	-2.1138466414166275	0.474427178817068	1.3346775831872177	-0.10540180051219315	1.7687423644974112	-2.5874983119082775	-1.4768359742824742	-0.6932259347142479	1.4656856134688365	1.160222759216119	0.16301089203971109	0.9372067313398702	0.3515187744083186	-1.9653353954256294	-0.6541925229700645	1.0500832702047926	0.48828464412381306	0.11443480206998113	1.2529627496870541	-0.2528487337321614	1.5465111044276727	-0.8869863502721465	1.7234949359279208	-1.254336947536208	1.9764660477623357	-0.05535728453465231
0.9053175919342913	-0.24794528569108015	-1.417473843886372	-0.7121203157908824	-2.8170804381576326	1.0877733444135365	1.2638360348667226	0.937309765207336	1.5819791443164377	1.4191990832839756	-0.12881418486270454	0.25250577315514106	-1.445587851805714	0.8451303561796731	-0.557542477884543	0.9974642226226939	-1.437691512850924	-0.24181696410623735	0.38700029546095577	-0.7196238032173307	-1.0409257888337446	-0.5260004470330267	1.1891918500550067	0.6566145955881239	0.5820060415465271	-0.17084536254951993	0.23638331988573183	0.09060450712541117	-0.13039296081159718	0.15455304039646295	-2.592669494252995	-0.5763274281009583	1.1505193989874294	-0.1982734947278944	-0.19047336748925053	-0.9864591242428583	0.4191395427501933	-0.33390606220518626	0.25897383773698407	0.2936570326884949	1.2166885858362813	0.4331605122964819	1.3950944419129263	1.2777900196285963	2.218314584973842	-0.5367154745451453	-0.5189823359144614	-0.577151123944332	-3.264177220437286	-1.272323199234209	0.8802028194227585	0.14584426417693952	-0.024035863816223746	2.174816561014857	-1.35808412369972	-0.4805162136370329	0.1715009290993743	1.9536551162034859	0.3255314058534908	0.5767963812756774	-0.0595599565047823	-2.0494032615659363	-0.22473227776904273	1.160292665204117
-0.2744325515892187	0.13927249395089392	-0.18272320357367394	-0.91479565094238	0.5273833228142275	0.014869020690170588	-1.2766064680965645	0.847921216077322	-1.0436237797500574	0.1050167445053968	0.9752055305233384	-0.20799482604246305	-0.3564776318713321	-0.08579244911670576	1.4011421623361258	1.2029735989292136	1.9949686713229002	1.4018380642327315	-0.2956604987077824	0.9609161498621501	0.3916398418105932	-0.3369339425441779	1.2585851028895652	-0.04951313286300314	-0.5838986403906667	-0.6616461081639872	-1.4130203183222931	-0.1589407173524194	-0.5622281455998758	1.5103200395200396	0.2975463934643047	-0.5326719159313186	1.0915453556744799	0.8050386717138499	-0.2764443744662347	0.23812078907749737	1.107685160310855	0.5428858043884209	0.6445493513677518	-1.0983050449075098	0.5489098636440539	0.5197894661228966	0.649276419090763	-0.3386286719342612	-0.010322045280067978	0.06542276402249572	-0.30794958348888274	1.0736312846830287	-1.0256606565398347	0.059331361844990195	0.5669406413183471	-1.5587976065223628	-0.5671098547092358	0.5982564392405002	-0.38795702229008827	0.23064667205354272	1.4336225876935427	-0.5312369262503128	0.32619183849633104	-2.2889165682568944	-0.3314041024545249	1.619072205445406	-0.9342045812872234	-0.3106778422655037
1.0801147132991005	1.3298788267337869	0.7773559151257755	1.9690790493848476	-2.28775963112635	0.7467017708001502	-0.4389578164054887	0.26386832507999153	0.726706513738362	-0.5641782934812488	0.19054046174276484	0.33432317819959156	0.6150367203847024	-0.0400048610632863	-1.749928701446645	-0.3058977720358116	-0.2327916330679478	0.46241359354485156	1.6493561777153827	0.27818924962041464	-0.6501450026449705	0.29043173648022724	-0.22456052526781298	0.5851402655286505	-0.4538777957046022	0.966061041177622	-0.38220824679467497	0.5482576800392539	0.5606272431471079	-0.813650048125945	0.2062917172706417	2.5389974894345606	-0.22569632110042037	0.1022611275301126	-0.06511910085580137	-0.4787403367964843	-1.561120705026409	0.6381449992191512	0.6275538020177313	-1.4749783770419909	0.22714197122295168	-0.5792356712622063	-0.18920503373052536	-0.753815134077716	0.5958329384043077	0.7200535165333253	-0.0633840671077756	0.014667443137812453	1.797331042255763	-1.1606744582295327	-0.07448215180802895	1.4713834911412078	-2.079819645988018	2.332626134543065	-2.228976038827587	0.28979372293289074	-1.5043787604707497	-0.12480092361487184	1.1480954288931096	2.211634625755894	-0.5433979906422389	-1.3072241562799585	-0.8692856147550789	1.2509973034300572
0.7779972128927931	-0.6262955390748999	1.2861049042798132	2.171523918909466	-1.8262603762500917	-0.12394315688707219	-0.07271495461044039	-0.9095229076093347	1.4850486924922495	0.2260399725995524	2.094248565677642	0.029431878905650105	1.0276190509888323	1.4523711753260629	-0.014619790455211609	-0.9509870493121529	-0.05779097174252204	-0.3124663037304539	0.48608463421335624	-1.6452073930706022	-2.583373456654924	1.0643706037455658	-0.622154926894568	1.3762859464921886	1.1039156976990547	-1.8998222079259663	0.361120898091609	0.7640445830007963	-0.06087381007927445	0.7010176444583287	-0.6834549603319297	0.7214225109424027	0.4065228454944864	0.3265965176966493	0.608799209363675	0.43199201859298014	-0.6706308391589334	-1.0313083783765316	-1.3126863832879585	-0.33838056533941074	0.7608473830174496	0.03984800469474072	-0.03721236310454486	0.09715506883232336	0.047891110507333655	-0.2953129784727501	-0.9344538634291323	1.0069461353399844	0.10834922947046133	-0.2890721232668491	-0.16221397486433586	-1.3939268850990372	0.2774536987764617	-0.4902951277226434	-0.9382061035423097	1.113639386999013	0.4322935545167771	0.7018826627609057	0.6227232492327989	1.0861204803041333	0.07100301510701276	0.4585569273769999	-0.2186778544351288	1.132483865372991
0.3434127178680414	1.2773104913390783	0.14254692571813948	0.7975259626281052	1.5953848160901147	0.2120244352871395	0.7893385993497631	1.6020668842893055	2.4859942425975934	1.4085258312948297	0.42070594892759416	0.02958425515374673	-0.13222034358715493	-0.9285584737737639	0.168755535827049	0.8576255226113466	2.2971064524248503	0.542722750923075	0.2775414764599661	-0.14238534496064698	-0.6446831975788352	-1.4000992001463712	-2.3743556746076524	-1.0999831900164592	-0.14555989218570425	0.43853955349520657	1.0322792354152635	0.7510337071550522	-0.5696297673116973	-0.8306536049456393	-1.4430900418771415	0.9880964226470003	1.3239006782728893	-0.4220414560411667	1.0575558233640494	-0.4037169690386164	-1.2079765784738448	-0.11610963116950529	0.6473620587006187	-0.25727021969196434	1.053572648564026	0.22263006500830895	0.6416682916376127	0.024346437793818756	0.5379173039593891	1.3049800006244716	-0.3713762920198232	-0.5245106958002118	-1.3199597166933275	-0.9186143640136049	-1.0575902342473626	-1.7405617110777039	0.27221793484740675	-0.4393704959809184	-1.0198976184928756	0.35341369633862607	-0.14568745441669217	0.011284623721921813	1.8243625288672343	1.1818507320819056	-1.0320242789998675	0.08732291696483103	0.18647621287254224	-0.3747756439392304
-0.416878993424697	-0.4308995108853389	-0.14066088489797385	-0.9104137400253854	2.235178426095228	-0.675260323395088	0.27452014131269975	0.7252705931442763	-1.2053612119221344	-0.15441609991984437	0.6578053488859354	-1.3076737104402372	-1.1102957509712799	0.869702393131508	-0.1453853992674734	1.9882640394548303	-2.366460227926117	0.580874688886158	1.1172849756059087	0.2741206271861249	-0.9352063384532817	-0.8054313856712094	-0.5031800350479118	2.5185069820663744	2.299047148999754	1.4885111862457603	1.4428970375110861	-0.5304951182877219	0.5093471846303205	-0.6145475403772034	-0.8441942531306239	-2.1176676712210387	0.3276719976205687	0.23375309119910206	0.5661353823829505	-0.7084200317655891	-2.129168830020796	0.35365815052983984	-0.7624845954050062	1.5795987214452758	1.1256177124078577	-0.7561715304644909	0.4250769866562386	2.4210673774288742	1.3725235811295435	2.1157324804114075	-0.08171062826125083	0.691297856392626	1.832741865515059	0.2420587684745855	-1.7275081635492764	0.967963351868812	-2.319809766934296	-0.8835010017095739	0.6819673998206894	-0.3638686483093543	-0.7813069083938632	-1.1494083155991441	-1.1324245410848566	-1.0185241986472842	-0.324807291869431	-0.7590113225002573	-1.3637571845200482	-0.6652623270369851
-3.062283074087107	0.7361916630837622	-0.7347721658238474	1.4844854598611565	0.915177862192363	-1.9894176357558728	-2.3940545258390555	-0.8305642732905104	1.0682459304023255	-0.7088136554236066	-0.19175567526505627	-0.4347388463283419	1.3614214124297028	-0.5624137625852027	0.047295125541970344	1.7642308787168153	-0.33387549071325284	-1.3786110944276115	1.333598821517402	1.0176599522148837	-1.1732611116695049	-0.2846949697493111	0.4769660897821563	-0.01327223180133735	-0.3151907773933315	1.4756160496986819	-1.7705103156451936	0.3217886276608569	0.20957748539771276	-2.257271316837193	-0.9119846350527399	-1.9650429227541746	0.11315056627770331	-1.5815724694356637	0.6216253729038542	-0.7882624497680443	-1.0352504125265654	-1.8816364286816214	0.19175750253517737	-0.1630624524528311	-0.25558963785105016	1.588551583044955	0.7860986307880857	0.8860608788168776	1.7779081593383956	0.10196018748946885	0.650057834575824	0.9787751841463247	-0.9278016451705754	-0.3661379425365153	-0.3236313545067469	-0.7400366049631206	-1.9457964913774006	-0.15038884309556275	0.6324022187279875	-1.1822832618901948	0.3199015746505929	0.3887366359243028	-0.014255242417323873	-0.7341883734684146	0.6322424948368985	1.2302556539606153	-0.9652521730753397	0.5049314240725965
-0.2764809437567012	-1.9837693425588214	0.34732478293849894	-0.9663422515280333	-0.8856819892400405	0.9888981333453009	0.04359377640762877	1.6874720556058929	1.465792920712828	0.3349712294334	0.6258446648983171	-0.2521074992364475	-0.7702091271366549	-0.8620705332450072	-0.6450388606565576	1.2757913298736134	-0.08926662132434447	0.643963251113104	1.7791028530931183	0.18374160920069887	-0.17722353245174338	1.843591253344722	-1.6765409648598641	0.29241484666451967	-1.0116197970205083	-0.08654189301967594	0.04443789438286677	-0.48474088068504645	0.2109773866745	-1.9738530704136317	1.1051636578378858	1.2980734985963578	-0.5993312355493954	-0.5398527815164378	-0.02482279719210715	0.4585490624340234	0.9062356847800492	-0.06740787264557284	0.6393850682291563	1.5848423001581635	-1.463373416131183	-2.611469660466478	-1.959954565980577	0.30343746714783837	0.916642398338364	-0.31763790395161	1.8178918424177686	-1.2972812547646797	-0.30807323229926165	1.007372712200015	-0.3146076909524469	-1.2178044972386068	-1.2587595596535457	0.9773899935475876	-0.48129385756665555	-0.22095800081794814	1.6126860516560213	-0.44096105173225697	0.14754109156424045	-0.8057086205543865	-0.21823656070024894	0.2679186511571644	-1.0553725608417532	-0.8419515409506437
1.174532697997049	0.5925928630754845	-0.7524770727989516	2.2101070096555784	1.1960838812228516	-0.8492967634266556	0.8726035913570311	0.900375674239574	-0.31934483027174726	-0.701761880023887	-0.09159649055990318	-0.28439384380535276	3.4544992172308997	0.06292944368450297	-1.5271091872252645	1.0796860365061112	1.6169130291257139	-0.847804582914263	-0.390323992351759	0.44405892360211185	0.7281650715528486	0.10488303776900339	-0.7009385674649472	-2.2718837488682815	0.9019330055667395	-1.1528548694759597	-0.5280851120904301	-0.3042152310736389	1.451378560221928	-0.5829353526164529	-0.6127191856552722	-0.8142826435434154	-1.746300198510992	-1.2532411072734406	-0.8327854165710341	-0.6687811672305601	-0.9735755471559209	0.34886799820667236	0.5221680838703158	-1.2841560483138235	0.7139491789007709	-0.6767092937696514	0.49293263422319283	1.0270034988549068	1.721426835262501	-0.032779205558281135	0.06712514965180537	-0.6757927363819344	0.09515928095646371	1.2529695080100827	1.23136618522814	0.5489756781377553	-1.2901572093687685	0.020309430565252733	-1.8101097341678014	1.0155081363193783	1.7143640777442746	-0.5416826015011177	-0.6748356361403898	1.0710306729808816	-2.161345160212637	0.6378097120835424	-0.3891575026645916	-1.3719650939851868
-0.0679937294845798	1.0032878368948885	-1.2086889860180645	0.9944078294050658	-0.7768557778146781	-0.187522737256689	-1.4419332373625677	2.1342510714951497	-0.7162952244044113	0.2813780883265513	-1.6574857552481101	-0.7494556717138767	-0.3281725810307969	1.2363350547706613	-0.8827990910658625	-1.6040700081819255	-2.2527614278785193	-0.6382931580906076	0.34815698349143515	0.472131578568673	-0.44226237460231027	-0.3961090713560369	-0.239182614273075	2.243172606525013	0.519780128296522	-0.9759128143325607	-0.3557414497849285	-0.9479109537492826	-0.7963238837978218	0.09648456852946385	-0.4647329409797551	-0.1992829148114775	1.244807819875992	-0.8974533240254088	0.8104232717983716	-0.02787860316485459	0.7289874499093826	-0.4403123132073383	-0.4244770455448322	1.7632962599825006	0.6651785846968968	1.1699906678490217	0.5011852616287292	-0.5429064106749555	-0.5257422839209062	-1.0211906853415744	-0.4225650958450915	0.5689136760935238	0.40208780441633285	-1.5613066083920173	0.7940842877527782	0.6295573051693931	0.4133083701282279	0.09796564728253064	-0.4800766642606707	-1.53169386832489	1.6403049417614473	0.09361533464646977	0.15082186488370386	-1.352838773499003	0.668089821932772	-0.82319851737198	-0.4222112489165592	-1.2695735929445273
0.0525587545606634	-0.0481334374849681	-0.8256067715113259	-1.3840374061451142	-0.21288270983569776	-0.7439600786501391	1.4790254760747585	0.07687904725618804	-0.15659429385020307	2.0543438859018757	0.4876675965800494	1.0480273891207255	-0.032453346147067685	-0.12829016342413974	-0.0044113188507371925	-0.17018410487965763	-0.35678179250322356	0.7655173114523185	-0.5886374074968446	0.08236525082272052	-2.293239690621898	0.46586443396781446	1.1473851278990743	-1.8718033137198222	-1.1864787251770683	0.9877373415797239	1.1492406928087244	-0.015017210196739395	1.6255434141461342	-0.5322554981572346	0.5222445759468481	1.4006883644344272	-0.8272982245959756	-0.28561820609345784	0.4691968134687665	-0.5961435516505414	1.1322805339727713	-0.30512561653324205	-0.6003060883455448	-0.5722520646858346	0.3765267964817052	2.0080128189111957	0.5065327249579226	0.5598630162560516	-0.12762325032013355	0.7356616172743874	-0.4035668115528409	1.6336758837469803	-0.16273788832223812	0.31961347243864074	0.6437042191418925	-2.559019675731693	-1.2084076238424366	-1.6563822359269689	-0.4410214674271902	-0.8376891838646175	1.0217680063449834	-1.9993471523392496	0.5020088811043535	-0.1674248682363123	-0.4728130923658871	-0.37077894792422905	-0.03182847006586241	-0.7261978618277511
-1.3298311215523004	0.2648965788956847	0.18513831761600552	-0.22529336079408033	-0.07594922863204023	-0.7443183844071841	-1.4909660945341079	-0.9490017781213007	0.4871021497509698	-0.2011983762227394	0.11990530554090173	-0.5593553317951756	-0.301778576869832	1.6726323946306887	-0.37702604542064627	-0.43695170764816277	-2.0534301636189776	-0.3154164567366428	0.022107476313886827	0.8599061204773499	-0.7600970301035116	-2.057685804383867	-0.07016791462491986	-1.358274519053921	-2.273647121433253	0.8043425332052834	0.8480658348880947	-0.6073043265391902	0.34430750964167706	0.44281150823555304	0.5265838564012526	0.26792073014532813	0.8448683955945875	0.041481995228184174	0.1569421637988201	1.7440017517153765	-0.3324636948458429	0.2274393795935669	0.44805222825618557	0.5645159981415633	-1.0221819096786684	-0.17637082720434494	-1.7492516250160952	1.321750399045912	1.6829200911418987	-1.5060649955078302	0.4490341999492116	0.3392620228480912	-0.7876995411335402	0.34570231097836457	1.7959894935561385	-1.7277052798745534	0.6917746868910346	0.22878392704216802	-2.5362158343477823	-0.18679482887477036	-0.07063153780395563	-0.2232523155781465	1.1186779581841466	-0.11094583263346827	-0.42011745761159	1.6409407703154808	1.0377716910601074	1.8222760290955817
1.5731333327681125	-0.817949373480633	-2.115927223993393	2.103907685935583	-1.71053798657174	0.30221898932562274	0.04617223124935914	-0.3590575128811346	-0.6027169421251508	2.5156480491450046	-0.2927330585317092	-0.20502095822265481	-1.9872586816837052	-1.0346576470423416	0.8357352990137255	-0.42794923147996616	-0.9593988630590875	-0.678327855639212	-0.013067299785777675	0.5515071574664591	-1.4239954715041028	-1.4664954639629384	1.6142090993987446	0.043362777072459155	-1.072696233468804	-0.6298892760307705	-0.653832713208624	0.8484185456284661	0.19369577889254408	-0.5179043408870576	-0.34924110953991705	-0.5052045069831157	1.405408113046765	-1.5901647528085752	-0.28014083288446445	1.9828992740738174	-0.33888621854691864	-2.0276256381657602	-1.064656196594586	-1.895215902038623	0.7085029920397432	0.5100686989715693	-0.26995010428269955	1.2624188465000195	0.9206332348717279	-1.6760534266104261	-0.24612609825203002	0.6526102397275272	0.6191015147924009	1.1105280729524865	1.1492623709948866	-0.26641391120707586	0.6222490051826428	-1.4924334871811356	-0.6582302190083154	-0.7403399634547556	-0.3724644447088875	-0.09767163636408738	1.913132694601844	0.6758250019856491	-0.3606997331094807	-0.037645700694086744	-0.6179319416566794	0.20905894307845818
1.1744398229565371	0.4390203287147318	-0.5702845566433915	-0.782852303684921	1.6069165771505045	-0.5155060884578467	0.35742864667267044	-1.7031793001209523	0.10063989032942358	1.4804650606327052	0.3760432031390054	0.5605740674160308	0.6025434314567985	1.919498993150155	-0.6491242760434831	-0.4165802940271833	-1.6642094828260068	-1.1869663807995905	-0.4100869508229381	0.01873411193995984	0.4405801263164955	-0.9277807991090883	0.43437501107257	0.20184605620262996	0.46195382277659186	-0.42340293954768066	0.5367026972438502	0.4066334971490461	1.4748311505456018	0.14750787513946037	1.276537392213155	0.38867654023384374	-1.778075043557526	0.12590346783794792	1.450987181842531	0.18838114407888884	-0.640938917057241	0.0027642525376824	1.0236072937694094	-1.073624571655431	0.2605347533340152	-1.2460254441327065	-1.3272649539885994	-0.8514125453613559	0.5917100507622671	-0.0032121757178746155	-1.0718416363711034	-0.7910606244840592	0.0003850124313087744	-1.2268517769782536	-0.3664785843099181	-2.28063992717047	-0.312198522492865	-0.25106529207438805	-0.36181389228361915	-1.5121591811410355	0.24633497785073413	-0.5413539468330271	-0.19172281855786347	3.090116062567095	-0.2599726823650703	0.09323971256085763	0.5292562221870871	-0.3144649389505428
0.2801980231692253	-0.2642142318485666	1.9655819468522968	-0.6624349416958337	-0.004216478719593388	-1.6355940182576516	-0.5506514521291381	0.35396227148096643	-0.4465179581141976	-1.225982382277396	-0.0050621720179076304	-0.6296586097317263	0.4973150362856759	-0.9691893665185656	0.4202862232404066	1.1837069646010399	2.1846067174627937	0.9870838934590248	1.6086847723395437	-0.2809549139798316	0.12020859456391421	-1.0015809405338183	0.44038797839894994	1.4783127767946656	0.6441423862403428	0.23988511696972592	0.381463594491453	-1.3855593849500691	-0.3976260517226609	-0.4904503422727242	-1.0538901674896368	-0.2957877005810908	-0.1358809675346396	-0.245754456926249	0.6566513132365793	-1.600555758684388	-0.5298431825413453	-0.7352212229494817	-1.054910238168383	-0.6269615979867885	-0.9976344285905057	-0.8712023845770699	0.4501835870570046	0.05558999171111713	0.00015050231814426482	1.3936671793645377	0.7211906203913727	-0.48580644621044605	-0.15722617886625864	-0.2849560327458097	0.07304270792008061	0.9355612499972616	0.9150570200544047	-0.7619840648807992	0.7835747905141871	0.6759654799134783	0.4915983653307668	-1.6918056464031526	-0.62124578173748	0.08371830089071429	-1.5729264528061422	0.5505408310747132	-0.05206142384690775	1.1487354305724249
-1.200877310242669	-1.0387671996162324	-0.8303873096141	-0.39060314008345465	-1.6367569771245438	-1.5226921270381797	-1.5324105293924746	-0.6398491199608554	-0.03460802140641828	0.8424985122196436	-0.541161762268541	0.2151601278030839	-0.2594640286844028	-0.30524685533314627	0.02118143206286981	-0.39269896739776705	0.5999164666722555	-1.4364257105995706	0.22025959444566376	1.1253271777143898	-0.06546486772115448	-0.8969186382254052	1.6961131557966527	-1.218885549051976	0.6016414576214384	0.813995651692652	-1.0895443257168629	-1.0094402544901322	0.8936628177840161	-1.264588826616498	-0.4492894863953273	0.18079859750691799	-1.0056033504734134	0.16463832186717783	1.0541815747858034	0.06282389129789942	0.5934339406862889	-0.5623245128409234	-0.9535256303772099	0.2954579225583508	0.18195370263085997	0.33733452879511583	-1.3597746188026494	1.6206268128638641	-0.3333044598257604	-0.7435745599878271	-0.18694806966236624	-1.55270442549145	2.6767806736653195	-0.2889455827368715	0.7909007573304695	-0.4644441650400627	-1.3937221890040772	3.5705552253109007	0.7702473123514427	-0.30157288226511125	0.6621098267600072	-0.3589960031875698	-0.7660502070356251	-0.517471175895377	-0.46354828803626225	-1.423926843706915	-2.2127950541457166	0.8576410385001777
-0.18832407089063533	-2.3592659753456906	-0.7851895407986116	0.7409897700240642	-0.3311338116487448	0.17810863600736385	0.1439399263500913	-2.340838670136699	0.5384110931035264	1.0081460578229209	2.4811250160414766	-1.1229279982699891	1.0202019358866914	-2.117462644675699	0.17569706296765616	1.1957796228832571	-0.1271971108508192	-1.0530824424018739	0.11816873716485583	1.033952986297147	1.3471837308289865	-0.17625088504036673	-0.6601975901010713	0.43027780713342934	0.26111876677960405	-0.09216484897456716	1.704321612842131	-1.2309765756860616	0.10901579482394143	-0.0667993978900285	0.8973996717014853	0.37942879558388976	2.7237617208543186	-0.3440478154616179	0.31662583745027684	-0.4744703394777962	-1.7962416844093496	0.753895597974577	0.9344403017746215	1.658678092115757	2.3242419186431076	0.19392074367773796	0.5271865650231677	1.1920357061516682	-0.5622278536472163	2.2082127902962903	-1.0204762751054284	-1.0538873212275126	-0.33089377622467536	0.120331578115116	0.27744372019601843	-0.9381365167601039	-1.0946178736702454	-0.6410167729962796	-0.06726393532072351	-0.06084031394827258	0.27032112698966543	0.7743024947428327	-0.036300547499499985	-0.18420151299496004	1.0142534364634797	-1.47892914189069	0.41965995287487395	0.8739000561217997
0.42179270022465837	-0.17725943958969764	-0.22567272491164575	1.065023156877447	-1.020274613906822	-0.7727760965195469	-1.161111656122254	-1.6913848954703157	-0.5666324219065765	-0.16539508990688356	-0.23335557836028573	0.7996272122881791	0.36469605560911683	-0.7683403678385274	-1.181768683696739	0.873466709654347	-0.8634307091290263	-0.27912916210925054	-0.22029495816776382	-0.9400593610739574	-0.10317069961964802	1.0074996020408484	-0.47994023110220807	-0.40475826270317433	-1.0979114997337291	2.120315324376423	-0.23056906548167241	-0.117341854238723	0.47763996433752837	0.8183000916181586	-0.9471243036940703	-0.16665116364010316	-0.4211035410969812	-0.6444868642899936	-0.8452226049546269	-0.07204704286447226	-2.43461240221674	-0.1601279212991578	0.5057352198681123	-1.7637984324469462	-0.3714481931358228	0.10570263329822542	0.6388318587800189	-0.2908965401539134	-0.45527482350277987	-1.7810909410464906	-1.4925417481800356	1.3706681717235614	0.86387755734729	-0.5989675534098007	0.07867613508070678	-0.3679612166422534	-1.5840555317516682	-0.09552384453672659	-2.365766913238136	-1.2224491497759262	-1.3615429561674355	-1.4374124903001189	0.5729964664908054	-0.3743721813168829	-0.9122467366960746	0.8661204115185401	-0.38194396357742344	-1.2342744929094234
-1.0947890780402614	0.06892055198912357	-0.6625943795467691	1.0066980282008589	0.22731927020423104	0.6884308956848477	-1.0336656089973593	-1.85138085180214	0.6292040799839367	-0.4419894343417147	-0.24886880918789156	-1.6070775351549038	-0.0060837476002876135	-0.5670105487762584	0.573038217687571	0.04786288125791941	-0.10837900044562115	-0.9987263358881179	2.0113052326010195	-0.6557996526732496	-0.4285033686898236	0.5077952885176543	3.313285614992832	0.5407062767942782	0.3105284701564044	1.173744235433393	-0.7645882680271188	-0.5358452662352858	-0.725538117894637	-1.3029235759232811	-0.6690931742609979	-0.5944884404143088	-1.178959406175445	1.876775531994145	0.48933929658876363	-0.5318449982675812	0.6234831646023333	1.3729194512376632	-0.9283228473757379	0.9363725681325225	-0.15088329801035616	1.4048984463709608	0.7940635903051947	-0.017337754516962536	-2.4620568319976948	0.25534012079918594	0.13940646941430992	0.7946750983426913	-1.7797536394866114	-0.4235665992903604	-0.7390425366375838	-0.8934753420244759	-1.3258049627059059	0.6957050468442596	1.2672298097255499	1.8332929888118832	-0.25219330188714445	0.18419118437391155	1.969493456926955	-0.6142955385048205	1.1793016330744837	-0.9501463186131491	-2.0398004918874366	-0.38608816138659946
-1.3523442289735075	-0.15919480551181503	-0.9856879406080717	-1.0116644922547573	0.16222841313111888	0.5477794869065509	-1.507522005877348	0.9011022766971244	-2.014643495606016	1.8964069974604496	1.2058546601272897	-0.20272789775741748	-0.22690561459867958	-0.7476010395470662	-0.9641176207290297	0.5161890930089915	0.04369198546937306	1.363229197125162	1.201511380048615	1.2222660483739702	-1.435433944411989	0.006973763856598592	0.5111377009360869	1.9880756608418666	-1.17125816314997	-0.5756622846598334	1.3428368457360769	-1.38438701424552	-0.44723005955852674	-1.1827708445647478	-0.25629398146494964	-0.5778787292031744	-1.2774732828387227	0.2788052766206222	2.2281654176094015	-2.013191531377968	-1.0629167163696214	0.475041165912872	-1.024956612968409	-0.033126114447669525	0.8858908218309652	-0.0010558013364245066	0.5825883023010427	0.06549840763584636	-2.1062286958404957	-0.24826238862872824	-0.06221480686504655	0.3824425114978515	0.08194774606865893	-1.310061183786703	1.2612925559660733	1.1657688428283306	-1.286596057846155	-0.2029042767687214	0.29372342719160727	-0.6361475231797336	-0.393095127848241	-0.6393494140519873	-0.6053506025079756	1.8223215595357758	0.28891113744975483	-1.6978534956239917	1.2193126531900207	0.9655285570383447
1.9660118093465366	1.0945831870557392	0.03168529244370661	-2.082668500245981	1.3217587041319743	0.3815234639034626	-0.9692805577755332	-1.4714360944381457	0.6293297924401384	-0.09302764968576074	0.7466209932619797	-0.6850273807075687	-0.23974608895250601	-0.4522634333037842	0.75063125819753	0.713606097159375	-0.9734795565900437	0.8136007923701178	1.2873041372100735	-0.7519170382934938	0.36732951919839085	-0.9662959174861954	2.2072132793214534	-0.07387925027058562	1.3238660049993631	-0.05952659926772224	-0.42527649457381567	0.6089207017158742	1.2017421935127552	-0.7676948364908436	-0.6268211122265958	-0.30682621376604013	0.4469441968254162	-0.21146224456451954	-0.13325429186646778	-0.6969889674038892	-0.494197384629105	0.09409612364325419	0.11561512391980168	1.4147068291015616	0.5077496459293287	0.005479747452656191	-2.6540793341732263	1.0718846868573317	-0.3731848288280469	-1.4139136166267494	1.1014521589971198	-1.5797197003661887	0.529210501287925	0.2655575245961916	-1.4147610577199947	-1.7345712504640638	-0.0821941773694632	-2.9738257235222294	0.14552834411287546	-1.4454378630981195	-1.0299762910920838	-0.570112537026096	0.1506743319061977	0.9612126728155409	-0.5183452835966623	-0.5451739316597427	-0.4601223883248759	-0.7880916591881972
0.8751549133255461	0.08836843940468823	-1.9105573831665024	0.14186136474940042	-1.0663235625061362	0.2906878078710744	0.16293353420283718	-0.43248157731075687	-0.9215213691028282	0.8773711412880709	-0.7436645495738462	0.07863475393532299	-0.6644482294445888	-2.0983150479960506	-0.3471163343241577	0.3568051105358316	-0.09974283223576048	1.583598114292169	-1.0144925649262226	-0.858121312916288	0.00788157573729827	-0.36925507118065093	-1.0352969591992396	1.3559947304861817	0.43793365533221973	1.5435269402549603	-1.3841093019338426	1.0046470221047543	-0.11204809754536461	1.7557792670995747	0.4642110991626463	-2.3438625013541365	-1.035980785213447	0.21086168136174363	1.31494860248137	-2.3000815719894008	-0.09685347103071168	-0.8618700077766376	1.2592446357584708	1.3317162661441124	-0.2150435844155012	-1.0101877825872252	-0.16992970480956993	0.20023154199612828	-0.5338027093212535	-0.024714639746697527	-1.0124394480651613	-0.3468998110577427	-1.1871064262088031	0.6147516456498349	-1.5419378256526304	0.14672185429455667	-0.3073369933670523	-0.6541768502374143	-0.12325879243061864	1.1684439258161077	0.014810886298549772	-0.6896786200861514	-2.4355818355103054	1.287117033165591	-0.8418014496572712	-1.7507549447988726	0.09350657670029862	-0.07045890039855872
-0.31279075353287	-0.8804636143856878	-1.844278915145143	-1.4328390968111373	1.1875803079497227	0.9916654396090796	1.0449150969848169	0.1312022544334433	-1.9686315869580175	-0.9268787777255119	0.3932327029853047	-1.3450053388028644	-0.9082314433928008	-0.5194912535348556	1.3953145292986617	0.9014909256317761	-1.0850518238485203	0.8977168836920156	-0.16237462765896948	-0.5996949554262497	-1.5794958710514135	-0.6408108675421528	1.1557327906863655	-0.35114530100851465	1.0372009473397408	0.6170285312419724	1.9933605178063305	-0.8831096396016871	-0.05647544941054893	1.3758321263752304	-1.0040670221153565	-1.3542883643679038	0.7913332550471616	0.07188880666544521	0.1412520638434787	-0.9426339300656376	-1.683955227050994	-0.20692955091815207	-0.7273545563408202	1.8868815272910975	-0.42743107114931544	-0.6837481799626415	-2.1040815493643628	-1.482503264359414	0.22055444847897865	-1.7916031480141168	-0.1499356862014337	-1.2814652808407163	1.2922328056807588	-1.521643846198447	0.05224007235651053	0.7367734393810709	-1.6009997983195123	0.4695747226763961	0.18808782421001063	0.27299896496177806	0.9167638861896636	-1.0085827473572353	-0.054631673144025554	0.05761200144223057	-0.9678655811155773	0.1643119237193519	0.9629681204144143	-2.2846131678212496
1.0534255765465836	0.4530383447816164	-0.6444607902896539	0.07870125525826607	1.2923279393716498	-1.6999614924480415	0.21812923110903987	0.12461849694672858	-1.2433167434569408	1.9089422025686924	0.6454085636445135	1.0984086283185557	0.8341030505644333	-0.08548839634428416	2.2619009526699316	-0.11886528366719608	-1.6504198671987385	0.47917602705154627	-1.5133274489977764	1.5340970713852358	-0.25834178076801634	-0.4099136684934863	1.2886362495469246	0.20228915379535306	1.1939903823718303	0.5428508623816677	0.4606792389465107	1.1682277975585835	-0.6986296096279565	0.6973563669294561	0.6784871361671792	0.6676524955869314	-1.7279540072823518	0.44631080622017083	0.8880684958507132	-0.1773739716826752	-0.9044087404309347	-1.0957433065230326	0.5933870072375617	0.2720538106560501	-1.411212677818341	-1.2288104661119896	-0.006083331743699906	0.48598151338282386	-1.9093241894365036	-0.5191326494439081	-1.1597802650910327	-0.5371254555143141	-2.1687671763377447	-1.2906893247435285	2.0211424407608627	0.3154715638437797	-0.3731207035223842	0.3393697975272186	-1.130728204970875	-0.9215202823690957	1.5338269702148373	-1.1586812206620474	-0.0925106012408688	-0.35430719045198295	0.41153769501175763	-0.3826793128103293	-0.09520420057838945	0.12338198129317482
-0.4204874515851032	0.07908562523726015	-1.0567582409010874	-0.13947669164346216	-0.9609828268125421	0.8423894623519125	0.7124275813929166	1.1921425175518299	0.304555425875936	-0.25580502779533676	-0.6198766614877443	0.868932689850586	-1.70632166767617	-0.2513517894792454	0.3248655278294812	-0.441757073756597	-1.5624234982877725	0.39805944472653576	0.33107200348389443	1.1041502693974856	0.5828688447088693	0.5553276125797738	-0.9236115191244471	-0.12124984367478456	0.263961227657554	-0.5959676255947919	0.39448808955637266	-0.8068559735506257	-0.08756214900340653	-1.1247637217574205	-1.1537225886401241	-0.8408304487820387	0.8257076254282767	-0.21345868571609372	-1.4020214357798229	-0.594984351419578	0.2876114778245829	-0.8400021544889339	0.24509425219636122	-1.0734989075591115	-0.033052520661689885	0.6130693059769937	0.26062956455647135	-1.2394165605169012	-0.9015100940520933	-0.03715674164342281	1.5583910815042796	0.7786880782144633	-0.11077147137873039	-0.6211340435479218	0.09327171085613559	0.32158514508031166	1.726963846944766	0.10492523544884826	-0.28171368397520596	2.0987007412829537	-0.1577350408633306	-0.12420219333412423	-0.5623270522643631	0.6826064213593985	0.7050434682999829	1.2742684025144602	1.3780566347617749	0.11481240069209803
1.166863058018345	-0.31217286962840607	-2.2830164090144387	-0.520034864707139	1.8632282970032015	-1.2420448147829486	-1.0651082899748112	0.17902592612331492	-0.19045345621025822	-1.191075815843191	0.18899717474681207	-0.5869560669104315	-0.7969135123606349	-0.5673035943112963	0.12147827128685205	-0.2778554594130194	-1.442418169339855	1.3674889998359698	0.24986769154292515	1.021378748940893	-0.17698646935486564	0.2786324581012398	0.2650321840056305	-0.062314909786881104	0.4398319795094224	-0.8548897942978639	0.19193479443143605	1.3756957360777444	1.4636474534018133	-1.179826621477678	0.2994212367265585	1.1824779687661064	1.058160450932911	1.0091571439841998	-1.1140563698065293	1.774602314962283	-0.34402526870013067	1.4109774587430288	-1.2582971800307023	1.837225087619724	-0.3582363252073502	-0.10605432095367187	-0.14056332231570476	-0.4905142947855047	-0.8779212765596222	1.123523639408335	0.2770987520987682	-0.4073454906614297	0.3195521241028248	-2.0111451965832954	0.4921205663496765	-1.2828491126986228	2.212229506359463	-0.051112430810429765	1.4915307756688432	-1.1837238742814866	-0.12190515514507567	-1.0235475125178668	-0.48256194093719074	-0.19628298906044753	-0.4197270703698761	1.1563486922856747	0.6747051573273458	2.5677577454337976
-0.47838684551961186	0.12628071695017362	-0.5051074662399964	-0.8088722313269695	0.28275429125178364	-0.16537928019744566	-0.13330455750544334	-0.46244167551776033	1.099306850083898	-0.36585572224015483	-0.760736158882211	0.3764615655228428	0.8821624911157852	-0.5094354282466749	0.3163106729703566	-0.09349916117777572	0.5156408609011777	0.7276910407481978	0.5159839690530638	-0.7473215137664547	3.1670460670862037	0.5179622862159503	-1.3051709788367987	-2.08034137190063	-0.3265095296006329	2.046904688299342	1.492139074961431	-1.1413497684797325	0.0001117158542124211	0.09079086135443247	-1.5359883132260304	0.5856016798212386	-0.37628477341740985	0.20136024814581452	0.2156304568715406	-2.28170112899795	-1.0085578973517104	1.6895217121161923	-0.09484111098387976	-0.18834751530098157	-1.9865036441120014	-0.05844483104372302	0.3782695706012381	-0.7098952072470548	-0.3325084151136334	-1.0241741263413553	-0.925807161925299	0.20154243105005062	0.47714288126679333	-0.940855281127592	0.5669998960951866	-0.8010612363163486	0.3850318742712289	-0.47394999383616315	-0.23197347228253082	0.8421557908429085	0.4574311423514717	0.2516667691457433	1.793105176154634	-0.29861505187472615	-0.956220941239712	0.21289002074615898	0.7892962891695796	-2.4331661228924566
2.0722168082519272	-0.8388405731884048	0.7787171063214948	-1.5994038904524945	0.28010032584986366	-0.30969550620960784	0.34323885699090584	-0.10108191015650207	-0.06331265513700084	-1.458549844384523	0.9014404269530302	-2.7955068110876984	0.4888611183732518	1.1909087545504249	-0.35494199142673116	1.472183897938586	-1.8574638405711603	1.2145312694787618	0.24270581855219245	0.7072616657383289	-1.6134379549212976	-0.36422971923559744	0.5793572689110321	-0.14902606899559973	0.36660531355977616	1.0623895827410923	0.5706821219195279	0.6602607345832558	-0.026586035151579184	-0.2211332478836244	1.8218719127070895	0.5374485718583396	2.0980003398074034	1.1263164413444409	0.7844078989736128	-1.2393954829968192	0.8597741590594955	-0.25474796211927364	0.5086760521654979	1.1952104344698584	-1.955453424265496	-1.3349317535196188	-0.24942446630792178	-1.7272181870594394	1.353512554868368	-0.26425317738616055	0.4840386272873454	-0.016627142469804734	0.9651664286449108	1.2786330958180223	0.13984509681842786	-1.5931341285767608	-0.16574333748638612	0.17409507723316897	-0.6993141902848659	0.021581851899080334	-0.10856778544126677	-0.5977505917225866	-0.6123481802445699	-0.7828440822591016	-0.33027080567751754	-1.4945666099903645	0.3191724166401181	-0.7425099357127741
-1.2441038324313547	0.7960424169138967	0.28124293518872917	-0.8173119042518288	1.5665687376427584	0.4228454786709137	-2.3481753830965033	-0.13258841472702762	1.0919943989420744	-1.3824272320047712	-1.3850272184369956	-1.632126654937234	0.4127139439542591	-0.4263967130363973	0.23745697483782138	0.04826967908111786	-0.34883063401211123	0.8835773296887334	-0.24531335055648754	1.6217434988182045	0.4301178097029863	-0.0427352312408571	-0.7006879241148107	0.41761654686957944	1.607982047149903	-0.3636606803204681	-0.24791124499596193	1.2411410572787505	0.08087708131222168	-0.3373080276165581	-0.43054969293107476	-0.5848311899904826	1.4745296194091277	1.573853239640736	-1.041825183653015	-0.24594076917577082	-0.7871295277816777	0.9476181132112654	-1.3639032104761786	-0.2773885860210941	0.35536407057756436	-1.5052499888583877	-0.4887898946039032	-0.6609029678673791	0.7501755387839157	-0.8749464342693939	0.5038671753015271	0.43672179981542875	-2.7114510150361233	-0.3538355216658646	-1.3600063189543745	-0.3951873679792972	0.25935461600058174	-2.50116071774432	-2.3192129221166944	1.040798386677883	1.3910596833446225	0.23767595392920984	-0.08361002440182155	0.1755442280316076	-0.5860891964757462	0.9148948635276389	0.3818551169781982	-0.04699967552779953
-1.3694567642489652	-1.1468136642435185	-0.9389494014450117	0.056988757060296456	-0.17564034996262431	-0.10661112928472696	-2.5450269789281434	-1.1896593463716296	0.4992267120671568	-0.7459460614911855	-0.9704097077893993	-1.2642681882443039	-0.5055220234309246	-1.8795947143599512	-0.06839045349446408	1.6496374635467939	-0.517846370030212	-1.8121185102780948	-0.9726503533035131	0.7217841164111041	-0.5694212965756978	-1.7566952696368985	0.10171865479484715	-0.5765250968876856	-2.763235635574482	-1.3092605900344865	1.5844832365327612	1.380540159117016	0.5384915098752091	0.12481530237713781	-0.6592262923793152	0.2162419605218533	0.6884819154575686	-0.5714781742294606	0.2576562472977102	0.6912257395654208	0.05748731681864896	-2.6939410941551367	-2.1709180709300697	0.6277118132324582	-2.3812786237421504	-2.3540245632007624	-0.3283936622689825	-0.48490412218308154	2.759650263296513	-0.9672834286936867	-1.1376140258088103	1.7455941926874288	-0.2900036174760668	0.13407929169015798	-0.8811264108809075	-1.6252942910440826	-0.751309178628641	-0.5822103844017679	-0.30161145225229646	0.2171768471907154	0.27467945340720584	-1.1577067077447394	0.2586062518306406	0.8678414501868109	0.9692486621954005	-0.7839800775247199	-0.02242571782757211	0.6134948395525094
0.16570725654561372	0.17641645787161875	-0.5117140521023283	2.8060652205553134	-0.2634844827562605	-0.28076243092422787	-0.45725430734378175	-1.2433227561900608	0.7865340675285457	0.09320140407350361	0.44709349268774357	-0.13860684547345373	0.36651043913724385	-0.8926044225287654	0.25633679963415235	0.5756924896326087	0.569096902914702	0.003943633038688967	0.5228062303966686	0.17087943011524714	0.9021679508103042	-2.1844145221544795	0.309086094819421	-0.6045680319226556	-1.777075403233858	1.518321646544067	-0.5571836252265064	1.2674432318792126	-0.4114394719832418	2.377370670419317	0.8008019437575267	0.982545037258727	1.0076853777492376	0.608078264824719	0.3908639509277646	0.14760565580354312	-2.083134878518735	0.4787188168552385	-0.5839945515622944	-0.2668150630538447	-0.587848481894783	-1.6765551493413053	-1.3182344159151576	0.29113696863588384	1.2754202419095388	-1.53193858099699	-0.4883841240762075	0.4992609064118849	1.3617111112876632	-0.7545028496367634	-0.02899178278523579	-0.3322383207664278	-1.4883331561615774	0.5801192310496674	-1.5264024266356535	-1.259528911723438	0.7639783488315646	-1.4908189991414549	-0.12191598869956947	0.23442875630625756	-0.7365091621453411	-0.691985250917877	-1.0253401985494255	-1.3961917898146636
0.7309977351806117	-0.043550635917292614	-0.829921839694708	0.3563230535052439	-0.37969145069811566	0.2283260168972977	0.36395089140726083	0.9115239321202356	0.9582322337802954	-0.5977481018427476	0.3851559493901392	-1.383534849465546	-0.8499737271188842	-1.3624943669187783	-0.2794243549636231	0.6908166676743864	-2.2476208540039697	-0.02395333875398267	-2.1071837299917364	-0.5058038884839152	-0.3802362863813174	-0.8803776240404075	0.5698620949007871	-0.7978885611197261	-0.32812642357526556	0.07713965576915474	-0.15134890950858707	-1.5092231756330066	3.199165061272894	-1.402901741883237	-0.5590277239008438	-0.0529276322163734	0.5253184340254367	1.7165028924471357	-2.8463287434453264	-0.015273593703223369	-0.6672396888349573	0.3455531124676935	-0.5716345567022706	-0.1741320257589874	-0.06445893713774084	-1.5409368635522547	-0.32504192547625843	1.582978514608133	-0.9050055761120243	-0.7360321922934103	-0.007062879932589307	-0.021133844679643177	0.3698050002149821	-0.5414266012941014	-0.47051282433497194	-1.3333532417415939	-1.1702020488960339	-0.2603510518662647	0.22424646952214025	0.23607080774441308	-0.2392921057847412	0.612861096166566	-1.520105155279551	1.286981353950663	0.7533776066534676	0.45098025840785916	-1.1492915850065268	0.6324580716744373
-0.8786441665485607	1.582442142074271	-0.11766744987587986	1.502892311608959	-0.5727309204480321	1.0274686046597514	0.1484107489957519	-2.0176664790594994	-1.347447808605394	0.6496181362306838	1.0753106774802998	-0.4007793517040332	-1.5743155395711235	-1.200326557545671	-0.8808847100920056	-2.021999156415668	-0.4344415867875116	-0.09192165714868124	1.718485268818184	0.7049669891099416	-0.07979721300007185	0.15023162620315086	-0.41300609666010035	-1.4094368122746626	-1.1492853783115404	-1.0517029886974194	0.8109057593200977	0.4305224896694035	-0.9545140309849173	-3.0199302326480035	-0.8277512106605208	1.8109205192865085	0.6723523443705939	0.7503190275348977	-0.023635821034964956	1.2244266908000747	-0.13627756577481379	-0.6571588292414963	0.1318883885259237	-1.1539536212819315	0.13958605562610293	-1.528931079604955	-1.179700636214675	-0.7292396934721422	-0.7878955547776959	-1.4385612254011582	-1.4646687992714618	0.8163935319370259	0.244975658088592	-2.0302431586043257	0.8478985295369842	-0.3124676158294752	0.22539236417890673	-0.6893398480046381	0.02819226834524217	-0.05058646682805478	-0.09656330052785528	0.20851630805681912	-0.7639328944470847	0.2882926272735777	-0.4159052540227425	0.2778738725813616	-1.4990022211393625	-1.350905920116418
0.8474090508734035	-1.161444488905973	0.45261148152483016	0.04693642328321392	-0.8659786486408642	0.7715270842912684	-0.41663475718093274	-0.8826416182252002	0.04179587335095488	-0.7242986995578673	-0.491803987807784	-0.18340459448010096	-1.363969055353393	1.105401015529879	1.1768206312902842	-1.1029670614078215	-0.22568234816498986	1.171093512239363	0.877540542321117	0.7621705789244326	1.7159330621302296	0.7838371600294861	0.22520602675174406	-0.48476730754035197	-0.31419313416517414	0.17213867465495086	-0.4499570542582836	0.898971582493164	-0.7528915681508269	1.492050422706557	-0.4931371740176245	-0.05668491738011512	-1.5127014639210061	-0.10832981504053493	-0.4767373089444479	0.608202737987706	0.7184793943617211	0.6938345734170321	0.0015187053108564525	1.4806876818583303	0.6495886401640583	-0.2821787133491676	-0.5627349919671295	-1.3367873115710454	0.06262840873964037	0.96358315400581	-0.42819669107774094	0.022390796305320367	-1.3022294844714206	0.8907652319925946	1.513759296730271	-0.7327957051890139	-0.4781600119435341	-3.0870263117748165	0.4229594159322311	1.164224665303803	-0.9633996218098788	-0.8197573809643482	1.567620027186199	1.913221550786554	1.2824009769365567	0.16236626015295758	-1.757420750366857	-0.4733448845271774
3.351832116977231	0.829316289184551	0.6024643553282396	-0.13029393463047903	-0.7787073892949511	-1.8100893877188537	-2.097925180416677	-1.1207843714487966	1.2406518392590948	-2.6949155393151405	-1.7599726126459436	0.3755841101098515	0.6266487696165045	0.24787676959828545	0.4120595477251905	-0.2366049819875743	0.6905446625150432	-1.2702485412245008	-2.204452761354338	0.07583132958660521	-0.17806193911928098	-1.000512226265877	-0.38618439148373257	-0.6653167608687425	0.8939883491221206	0.8573971424436613	0.4842191362880026	1.9810380781647479	1.3645638872295838	-1.5027731152429018	0.09283964855081389	-0.23853797998374152	0.40767686639475265	-0.45999300352590194	-0.7029146899119941	0.5816392029133318	1.1260837615936332	1.3539962029347312	-1.072122538106735	-0.29911083372452346	0.8827815922145954	0.142909052888923	-1.8361340625788412	-0.597328738384666	-0.9543830176357051	-0.7435005146158469	1.5992620941635294	-0.2702670664496743	0.14863972505250722	0.5682156984594314	-1.5029115630217973	0.9271299232786504	0.6147643359436195	-0.719633279005174	-1.22307271638154	0.3768393591639955	0.1078055689645291	0.9557362693451407	0.4010606190060212	-0.19204632941208233	-2.3435702518172428	-0.3064151723004768	-0.9168842854979877	0.09165753435682662
0.138593412839765	-2.383622660478291	-0.5666362457361611	1.434662072275179	0.4834049688688399	-1.6430390388594016	0.06833921028308143	-1.7603754827085847	0.32363993181422673	1.5384248403844916	-0.8710697561951091	0.3444625318914158	-0.32013751362139986	1.9426555125732408	0.8157742089842154	0.3947961925315224	-0.7550809683190367	-1.4237258530177677	-0.013394050700548712	0.6400589018627528	-0.31568818572783597	-0.14587036106843385	-0.45997128158191075	2.0879546737306094	1.0235472670533219	-0.31499912016153636	-0.12965172626721666	-1.6168073679797423	0.12660528055175796	0.03467325298578909	0.6001609050550029	-0.01701315548275822	1.5864124513163425	-0.07448753426723766	-1.4996223951216319	0.030005801097857544	-0.6787527313247772	0.009985241110547978	1.9948535294461223	0.8183923921480063	-0.501921892083725	0.707253754060744	-1.3904752774599536	0.24630982741014829	1.171899714422726	-2.1886947995582275	-0.6054555519344186	0.3715548147386875	0.24896724344685542	-0.051980327671766705	-0.7057070932474497	-0.2538876324454631	-2.696457540630668	0.7975112442074869	0.5692210105922199	-0.25589001648957604	1.155151415432248	0.36467347695300983	-0.39633323293627165	1.7987423940872933	1.3099897244755725	-0.7672934906847243	1.9926566634826328	-1.4704842490594479
-2.1413222843447297	0.11523929891369863	-1.2497947827034015	1.4450194632834132	0.608352620190426	0.5502623800829436	1.339684385537567	-0.2733096917508302	-0.1408793902109101	-1.011555693198228	-0.8408695129002555	1.1698616988070079	-0.47192790233325216	-1.6654125516629397	0.4536282831699234	-1.1935185111442863	-1.5713700593156508	0.6665341240544269	1.771434763214417	-1.1513351305569608	1.2757659431491712	2.951249769136046	1.8198039347022406	-0.8056016023337305	-0.9861683431947432	1.8407222088890791	0.3616819587888414	-0.38855240421659815	0.30748502612192674	-0.6484258647325154	1.5597468255080604	-1.2501364327551818	1.2520599818322786	-0.8740915022015443	1.9346315128301035	0.2934126092243616	0.08349897279664062	0.49813973462010863	0.42574910714423025	0.15506597680870995	-1.03972457815185	0.37789432844869975	0.31104138826452205	-0.9695713633804784	0.6310030121001288	1.0926565767923044	-0.7933288271116234	0.9157939551687825	0.36887158901975636	0.3587076416948426	-2.3882348023264335	0.9265604678675856	0.2485271961491303	0.7075573376001743	-1.4494458383677715	-0.2634435025482143	2.0339300907800513	0.6600458663714812	0.19355976316226342	0.9904919656735877	0.49529845569513975	-0.624398590597042	-0.8125980055364841	0.5998571917061151
0.6840715898869931	-0.3461806539115082	0.15221499698015895	-1.8516798046818015	1.1368796887630237	-3.0268705821678106	1.5138439546911293	0.07324149460189817	-1.5007492736295847	-1.834546601444029	1.8166040783349664	-1.2213751494353848	-0.40760868194638844	0.4772053565362205	0.6632087970949839	-0.48875038735945425	0.5229587946601865	-1.17782525834956	2.324360117374407	-1.75955594660464	-0.7167539626468521	0.491579951558004	-1.0871008392582424	0.7287051005292707	0.2099135526107473	-0.659049364348077	-0.453491210512679	2.012983563230626	0.1309300515122785	-1.181536360338623	0.1589702011434693	-0.23548123020212422	0.9471610692872283	-0.508579265388235	-0.8907453885011467	-0.35997082747818776	-0.7686001312134467	0.4897921620739021	-1.5107338014321552	-1.1219858683153812	-0.5354515370399958	-1.0968342214134197	-0.8468169580905515	1.4873031841525979	-0.13158780234346792	0.6663188184630385	2.1325483623906942	-0.5981783736822731	0.6600201966930698	-0.5520259696043837	-0.3023289208434116	-0.2325064972065424	-0.5133103649520157	-0.756644135988638	1.2586360407952073	0.6122233513328694	-0.46407251189973214	0.8888940023464231	-0.14204590169778206	0.7344112539177899	-1.4889870328926924	-2.431064022387682	0.8424240179084915	0.31708728240725054
0.11075892527206237	0.2255541451372489	1.4344676554593878	-0.8219141983350782	0.2525690127078098	2.577661786489495	-0.04143519709013037	-0.8369081784284349	0.36537822743145204	-0.7801261307617661	-1.4303748845263624	-0.259895080186612	-0.0445823227661835	-1.0100512864800768	-1.4776074933894359	-1.4779385177471192	0.6916439636831709	-0.9493920168315262	1.6944112679987073	0.4582018087470558	-1.7554211875852874	-0.3269220876548701	-0.20189104243776726	1.4868445600046383	1.5633339412704936	-1.3067515818300166	0.8677994191006312	0.5743832360842026	-0.03511314024715362	1.5829216867293612	0.35879015091830274	0.7136416803946978	-0.7357463548342711	0.19916977829186833	-0.9658435522470765	-0.011331346697421212	0.9031368552339476	-0.9375375824141188	0.7832162794889665	0.8977838694774155	0.7036674487189063	-0.5030517367988201	0.06186068043960924	-0.1694134967157659	0.4815178189363975	-0.12510379739442726	-0.12741778845065696	-1.1088330850551635	0.3620012668074913	0.021641312755133913	0.9308507197682908	-1.4880484560756269	0.5888092267500417	0.7737834903676435	-0.10092357860928484	-1.9230994285742982	-0.7220179751908824	-0.4041475885345265	0.4390462720594368	1.538505758031703	-1.5423583067386297	0.46921663464099794	0.3466810662415281	0.7042645852724495
0.22635293450989788	1.045622889580932	0.828896427290791	1.575285193696141	0.48679599010089736	-0.8003092864998815	0.05062990954612589	0.25205885234035147	0.008880009294613068	1.053218575562819	-0.9663123938637501	0.8770301554927038	0.21787687300743627	-0.12559829924274843	-0.1613841287741752	-1.151313121463241	-0.6271635615908633	-1.034552471258875	-1.428200206166479	0.2010784936363264	-2.2271862796403337	-0.47159547358863446	-1.3165566088532343	1.1293601771885746	-0.4712981359745273	-0.25675652084146716	-0.7131351909564202	-0.6667516356183266	1.9046160428033077	0.34674192527979025	-0.6993293823017013	1.5828844043131272	1.1057146199776537	0.6188433176910262	0.7700979664238059	1.0681639670398417	2.126129231103328	-1.565635993776117	0.8123612012102827	-1.3070195472531778	-1.5390753459681048	0.9869602743537288	-0.06113004048680886	-1.0394053406749795	-0.152233080199593	-0.9277585616607796	0.8466350075732448	-1.065428804442337	0.4989650664342206	-0.6943972556631443	-0.3407931271554699	-0.563792879041712	-0.7386456370074199	0.6192406215540297	-2.5298769753819217	-0.005962914380849512	0.8850956668892989	-0.6277119086609266	0.04966116148876917	1.0785914640517142	-0.40159297751942985	-1.093758674700375	-0.059938303910988054	-0.3090795945382452
-0.02169077251305952	-0.8726528244724014	1.9169717171886214	0.5718682520384016	1.0734526389717713	-1.2704130614505689	0.4534942914814862	-0.17001887993650808	0.8132277770086529	-0.026581774140208562	0.8460215014887689	-1.170166409102618	-1.024094290695155	1.7158617764235633	0.26037558434602925	0.1706928641520206	1.1836951720196895	-2.3582110614442278	0.7494387225562407	-0.8769637929866321	0.05801996880942251	-1.444955415515994	-0.6705876122735271	1.8731007556723234	1.1747678868532114	1.544564617393166	0.1103943386744809	0.08616586654487773	-0.38662216843121994	0.26335042010107196	0.7604531432608727	2.145568026200464	1.2389219420177406	0.9375714144655874	-0.30212443067736877	-0.6230531952899265	0.9576807590241836	-0.4020583082453295	-0.4405634812154762	0.730662863801833	0.6285882595770035	-2.387065431690062	0.946628277459165	2.070659181924826	-0.2609553355466376	-0.9813306178053952	0.8136231138598464	-0.6525869273229999	2.378392486343671	0.19168083600223534	0.7575222036781732	0.4283844298287233	-1.7204343069736006	0.06168525103302489	-1.5858694315464374	1.1767912425872418	0.37440878027158514	0.32370659546686353	-0.40712138890746324	-0.8621483000985634	-0.632155085836754	-0.09589362268677025	0.46884132886212654	-0.7891403353538974
1.599991613471116	-0.009448301537929082	-2.2018330079517985	-0.7374994454067126	0.08027193996977763	1.3186017671691963	-0.20525920717072324	-1.257303123043481	0.7090174678364806	-0.1020430156983487	-0.914918188130775	-0.05692625885586212	0.4475842264742461	-1.5676784740344665	1.275606252887293	2.3371013744437876	0.6342272239438941	-0.21169777670920878	1.2682772817601415	-0.08438933326174779	-0.5449563041088162	1.6634323618863878	-0.4616992957453879	-0.3830954116348763	1.6371556873049997	2.1014739519274017	0.7386684306456968	-0.5144510473063332	-0.1252262313834104	-0.9931423036445202	0.5327063106964496	-3.36455936672021	-0.3817435355013735	-0.7473132858396656	0.3550206863377454	-0.2834130303385991	0.6880152407160414	-0.005073457473100295	-0.01825792348513483	-0.6642380900899092	0.037822700764747266	-2.510977493348847	0.4843946961511263	-1.4282061265696704	-1.1234252037581853	-0.46798192440391956	-0.7752604102489886	-1.1018035840494476	-0.6065728762893169	-0.260686617867652	-0.3170300902002965	-0.0034478803244453082	0.23895947454189842	0.9424649036434666	-0.8488722018509393	-0.5467924937025629	-0.17108846651498108	-0.4297043258590498	-0.7501474390940023	0.9273800504400035	1.1888776405382913	-1.6793441608919912	-1.0949446884297716	-0.4142526929474311
-1.6317824803412344	-0.3878791385425796	-1.9475240513294751	1.9885385046113062	0.23847336257803084	1.658185786927629	0.33289731081892504	-0.585693047259289	1.0384394288555752	-0.30301525944513824	1.0789044449402188	1.4520543728494757	-1.6816373516556884	-0.7170914467412497	0.8654837879535716	1.0823894406870547	0.7925969222394997	-1.0338166293478637	0.4249622758791092	0.6284448564594265	-0.7851638074790965	-0.42667863676604256	0.4273777593279796	-0.10060549859393343	-1.5187944768095774	-1.3515303927779112	2.138019934892519	-1.3221310506015331	0.09949201416589479	0.8882091650967009	-1.0986192975436218	0.8756630813288176	0.318544682620868	-1.1344871053428651	0.38762306675507147	1.0391162955933604	-1.986763493136364	0.0919092467222045	0.4318692231557755	0.6588379526163145	0.6528571620214969	0.6071434814147908	-0.27612939363918265	-0.9484596973425776	0.7753449593133519	-0.2920557064665369	0.9611358364240215	-1.4083452681207174	-0.041673258419572735	-0.027488292022088554	0.20043634586792092	-1.132868885299209	0.844889044492754	1.321562482168519	0.5178445557914375	-1.2779114531904743	1.4775325124368381	-2.403305694424154	2.714205398973612	-0.3909867802592176	-0.42799850607412665	-0.018416622889169728	-0.681767641552738	0.7112919947228273
-0.3252215545476626	1.046473383705232	1.8968589910838747	0.029509329656645045	-1.79390977825247	0.14374741127887836	0.484897792064731	-0.11575604238494823	1.4974655229785285	0.8607204890887068	0.4738918578798555	0.24652314896724392	-1.3302838242030943	0.6397883045568251	1.2842791520867125	-0.321151294562399	-0.5312470894179471	1.011158148915463	-0.10115930292271572	1.2365015846406289	0.8638922944733607	-0.2674506438443709	-0.6460691396371515	2.127047152805379	-0.7935663563178962	-0.8683930480553526	-1.1769862509160807	0.6563097247850274	-1.9709505219283787	-0.43840271848607926	0.25959131510077615	-2.11176854810477	2.9754498263946627	1.1665424141793335	1.2549674106323847	-0.4746623298798564	0.32054691621865156	-0.6690660235256083	-2.117901947642778	0.1704307881844154	-0.45334773137265133	-1.4629289857284713	-1.3285553628681823	0.19565381394639766	0.5725975595391782	0.14794695823034829	-0.33885602274542753	-1.274785972739691	-0.5955007614084499	-3.529317454674106	1.7570401132109659	0.7378373419559434	0.6736897831657309	0.09438424526160161	-1.3780166860217125	-0.6570852273547897	0.8094530055317044	2.516207704123998	-0.8146440585784717	0.0910790494551515	-0.9778318446122402	0.32640552488115077	-1.2106676825409048	0.0648049793561078
0.41854021502530264	-0.34047739436719743	0.2765886122048039	-0.6516889839808533	0.7350694200561722	1.210391780623592	-1.0547430426380697	0.1486571886307017	0.3767530767434785	0.3809892505914422	-1.9219178302452795	-0.39700276297752274	0.5470927328863571	0.6174918540968278	0.7591586499152433	-0.39147187990000776	1.1952570277416896	-0.4553104365828896	1.9658754056473595	-0.22890334091940362	1.9435452114170715	0.5059823981056817	0.1092794981375566	-0.36871571780799967	0.20689364562625623	0.2590297157814704	0.2874125020038798	-0.5745811326177618	1.517388286014802	-0.31251558821070596	0.16097846589822748	-0.1771058614952657	0.5031576298058645	-0.6963998032300052	-0.4693433009159579	0.835518129264803	-0.5289405494726396	-0.7255067865341905	-0.9532995018881119	-0.5610337400569902	-0.3533934713482332	-0.1786976313067526	0.6632979372926383	1.5219055991560242	-0.6571248805219588	-1.423031043940996	0.4227675081493861	-1.173673368641917	0.34300431928230823	0.5875024056928823	-0.6131219186329756	1.059752332145835	0.33378033726453216	0.03652513000139641	0.07570320800967063	-0.11966627392855941	-1.982723902833949	1.5798814130184724	2.8275898759873654	1.3057559143830917	-0.6473314334877067	-0.3739090161816361	0.8226102442005954	1.4278964101527778
-0.06006805395928656	-1.8009074158554887	-1.1957887014345465	0.8626789741604599	0.3621695616191356	-0.9746706982688484	0.07800823018956952	-1.4438676851446504	0.06425735090100727	-0.40839784702051213	1.8200238928040702	0.5625635374568821	-0.5495795684712852	0.3428316142735612	0.4851396601192388	0.3322485093594792	1.250670234468842	0.40080246426413163	2.4696224339667827	-1.2337869588625963	-1.6216986041939037	0.8974980936303187	-0.6498094738748622	0.13947191817438873	0.7381489398539847	0.7862105790141529	1.0956257311257416	-0.5584249570390806	0.20769224735551875	-0.7355143822304885	1.5414631043282245	-0.952935272253055	0.8413525460796296	0.6454929283015076	2.034063456672878	-1.0780667230672434	0.3712997576133889	-0.5654529266905047	0.08394056333790452	0.42148385446328296	-0.4222940607181908	-1.4533027453387086	0.13064807645059942	1.422859016324494	1.3372414448944443	-0.19993322536271513	0.47226083475701713	0.4647202267038601	-0.02788031859833416	0.8680487346547439	-1.3769926442223086	-1.20333170834803	-1.1704468001556783	-0.10538502514751664	-2.064171788444217	0.738099928984053	-2.7813977604313838	1.174195182859811	1.6569135533234702	0.7093405693779962	-0.6752038314402625	-1.2213663411923712	-1.1413437459817244	-1.2758961685002734
-0.4745634826240128	0.31710683050814	0.42555616339896923	0.038603710456839024	0.13965399127408132	-0.4333988355341081	-0.45044465572826276	0.16515161102873888	0.6651980903649938	0.46390782113677514	-0.18800797148507134	0.04193985963374626	-1.0606184347978713	0.04509764528794087	-0.3977310147675647	-0.013523201723318666	-0.5791052442657396	0.2461146923209985	0.3426048572952222	0.11990796665286527	0.26129727947237025	1.4062201945137383	0.15097979905231426	-0.012489551015244557	0.6261777923981721	-0.10576616503198202	0.1580489738892508	1.0344493563691834	0.13412172344143883	0.23798753680226697	2.366907068793614	-0.2175021643031973	-0.8416943309643578	-0.1049969510170509	-1.1268658849587463	-0.03195189371107858	-1.0236897634260704	-1.4994230831413204	-0.7329687951219022	-0.18685543749228153	0.010586748844391968	0.7235827474865395	-1.091126675591184	0.01294537882464495	-0.6758885302210595	1.45720125381696	-0.3069795952135444	1.9124904179162407	-0.059831225471075306	-0.003429979952382088	0.6291721681431947	-1.308889514718335	0.9011355699629583	-0.31825071726646126	-2.003434118736332	0.6231829585655276	-0.0672005679183568	-0.027067900871737507	1.2218102451582329	0.7195003036772101	-0.015465720804548357	0.006067727520517796	-0.7183984166709038	-0.5097601257183784
0.44479896246107586	1.3734479696319428	-1.3138084973993391	0.4241289666474889	0.4536645180078221	-1.2389535100279472	1.51531290733205	-0.8424595469655949	-0.20973262107285257	-2.9802574397713455	1.0692466504184743	0.9485819540773384	0.2907072356124241	-0.642337705046816	1.149556896554544	1.2020642191868491	-1.6113494882217905	0.9391391063901238	-0.5381738690159416	0.12031841253287218	-1.1278107775052606	0.48963653771230875	0.3965078663636729	0.636093943130206	-1.8872940888957008	-0.018736287175636454	-0.18351062515905117	-1.7690118785653	-0.34290959475497346	0.6760979973763144	1.7103111679737357	-1.1064944904975318	0.7288920636687959	-0.8466842624994456	0.8202032669496242	0.08067050097451912	-0.384161867470888	1.1492070023977703	-1.7570884807805025	-0.5991828485409193	0.26337425365962364	-0.13950004380613268	-1.45453863920311	-1.9626618422225741	0.12861671446427594	-0.4511712325820023	0.4586242834158301	0.29453792137037693	-0.49308281754333166	-0.37229809715213585	1.7260571461407872	-0.9527272577834689	-0.17019762832180257	-1.8221296892173497	-1.8317018480157579	1.6552469708352098	-0.022713939840943203	0.4707149107099425	0.42063788270953445	-0.5415997319648213	0.05731678609608038	2.0676442075352237	0.3642650168919019	-0.05909775963675963
-0.072786664818005	0.8434393441751563	-0.4961158017201418	1.2471963648759186	-0.5265157524747839	0.6246259597353249	0.5575291173187372	-0.5630444120341306	0.21549576474265497	-1.6507662192510273	-0.04076120971002685	1.6083314161011728	0.9518042910675987	1.333741492544087	-0.736083270797466	-0.4717845234570253	-0.456150420318254	0.138564247299398	-1.763033521120235	-1.987124518828987	-0.7984178454138013	1.6909349436070165	0.5514837189916229	0.9676344467317766	-2.0713247423630974	0.0023548466776618605	-0.854541931184565	0.959372695866555	1.1723922108674156	-0.7685557891857739	-0.6563152127643554	-0.39620537257046556	-2.0608050832711786	1.6802686715055624	1.7263587503433606	-0.4575667133600806	-1.9629284867011758	-1.2807902251967282	0.6313574623417869	0.05767247844045751	0.793475445688938	-1.4332323631593404	0.9806587267483846	-0.587223451590053	-0.9729875134725231	-2.0372136173297863	2.6002291413987666	-0.5108029217927792	-1.3987038321784775	0.4769212508347233	0.014682129235932881	-2.6009580829080075	1.1254534437255195	0.30537364698555114	0.0368142549043946	0.14934769017935048	-0.5097791979376424	-0.35417047458767675	2.799770282433219	-1.1192875218546992	-0.10168372433655008	1.2947355103325664	-1.613278710570816	-0.9017647823080641
1.5490414253440947	1.1938821522140233	1.220751171000459	-1.0679625095810772	0.07195237820199614	2.044631533266739	0.7824168717958309	-0.9149875271508816	0.30408894381155016	1.7111132278820849	-1.769610511615266	-0.6347683383951989	1.594340530033242	0.5411166094571551	0.542235363291042	0.45503375711040217	-0.921868144540048	1.3891627614065343	-0.6848470120577261	2.447480203307449	0.4534221123731923	0.8824912843126332	0.6114775319290947	1.6795752539731965	0.3058104811182363	-0.6988792256529799	-0.44544907661675137	-1.5581928860147003	-1.159767743780611	1.3302278097471223	0.058129000820677915	0.484470937197526	0.742384438876565	-0.6123420712776477	1.1197990758866125	0.20455757613916212	-0.7875327706870238	-0.707220956050007	0.42659372970054227	0.298850302785619	1.368068518930918	1.3833195787543155	-0.7191210611086399	-1.244796978286001	1.0763953718851293	0.5745743770640683	0.7166842033538676	0.06068903725091889	-2.0766449559736073	-0.09267913908703787	-0.863516079554405	-0.48256486531233567	-0.8649968122942578	1.4811914790133622	2.136946585664782	0.8468577270411993	-0.07932949079284388	-1.6169337625578442	-0.19981235518352225	-0.3845755944824235	-1.9731667655735576	-0.33684661162860735	-0.33313867826099836	1.0278344329962317
-0.7975286513556431	-1.8421846130671262	0.5981861724240721	1.3232147764131057	-0.20250061508078665	-0.9701522740038242	-0.8337592261219625	-0.8247892497438355	0.04078800705195424	-0.12222481575399184	2.159704590489804	0.6403741690988407	0.06932857014339598	-1.0690902597323688	-1.6119547851954534	0.898578624360391	-1.049715610805544	-1.1060821394298248	-0.09753912622692422	-0.4260101335292171	-0.8330883905190118	-0.0464556017241262	0.47051879443952527	-0.9681462191118505	-0.6923243581987881	-0.10307330491605682	0.9163648037289299	3.0639635581542386	0.43663879155751956	-0.07108492724803234	0.19811382138014963	0.21342814122951215	-0.46727214542094925	-0.9394306440281348	-1.0533814677410085	-1.874942735483783	-0.9845557720840181	0.701376319852051	-0.58106210537375	-0.4076986610383952	1.6873877448886447	0.9371888639350595	-0.059742212461014244	-0.8872784859319093	-0.016094761604117172	-0.23347944746057	-2.4626917839824247	-1.4549431462753215	0.006508600937397637	0.07335484360886438	0.2610730030806974	0.6045612617898237	-0.6903322611651547	-0.34918247013915826	-1.8765177198536436	0.3582315123219682	1.4517610289954446	0.5077189735149459	0.44544964851914054	0.5000240607523748	-0.7711781567019623	1.5326233242617628	0.33507051411468214	1.010240082408967
0.6765366013559604	-0.43818663057984447	-0.5540256420619925	0.37293473292826584	1.6418537570114862	-0.9860427221468268	0.26587074359389806	-1.975641372339724	0.09535232152879439	-0.7570447490365306	-0.0734416438267499	-0.38966065052955207	-0.43429748946913754	2.4368805137677896	1.3590319003070164	0.8614196361776397	-1.256640542043674	-0.9267094521262981	-1.5817364012387825	1.253847415210029	-0.9508972404603198	0.26940857517706807	-0.34385707584692365	0.291030964613612	-0.1982780584619931	-0.875682312703504	0.9249444141056286	-0.6604374949712748	1.1552143168354272	0.812995153353822	1.229878279780013	0.016141471905997004	0.5856686895227148	-0.696416320605395	-0.09536101489660032	-0.6411760510573561	0.7487727207834731	0.4209574419674506	-0.4756828986660586	-0.5498475729138655	-0.08491436080624923	2.123368087386083	-0.5039753306445082	-1.389992404552311	-0.48397066984069687	0.7648026256793322	0.3484374922757452	0.5343412023259543	2.5422978292430543	1.123112121947914	-1.1435556430839406	0.023284495743638566	0.9223262835464191	-1.2914999407619934	0.04798384705502165	-0.7282528337945512	0.20768674480790006	1.0689359884674463	0.8078079986517159	0.47503885570832066	0.7356414430648511	-0.3686533152077087	-0.8320900156979646	-0.27357759658311953
1.936950356200091	-0.3750826377381786	-0.019207124684719436	-0.19525339322099533	0.5279154692918174	0.8401981806658456	-0.38811901238501684	-0.40342325142395086	0.35118669901259114	0.43986973451015726	-0.31760792113504777	-0.4028730014962858	-0.22239098652743294	0.632945733508168	0.2650907429401854	1.3709719622638727	0.43374909101723047	0.3157623800370162	1.3747564812129895	-0.039677498197990727	0.6598024274593051	0.9487730039236952	-0.6409030767889087	-0.6080537639959341	-1.6068456724420461	-1.08314289941826	-2.4878161918880686	-1.0807048719756356	-0.6339333681676939	0.9258788695224621	0.20233724831546157	-0.6460166996453637	0.16295637921190734	0.11024814975156376	1.571061008385192	-0.2635178948248509	2.7964731516507264	-0.2413097862677616	0.469051702408639	0.7254024925264517	2.5921733810538563	-1.1532843504945456	-0.21725685603686337	0.8237421913722526	-0.2921450629109785	-2.7123259222353835	-0.4194388184484042	-0.44045582769189556	0.19383201478370607	-0.207588580940214	-0.27728664381631873	1.0281286363983688	-2.12007165991561	-0.5593916899982628	-0.7677734397581044	-0.25752552438681003	-0.05778115342646024	0.7241520730836057	-0.3431096771837183	1.6535603005176882	0.9084498092456691	-1.5634807213551052	0.4233435497145177	2.247722439664522
-0.948477440922227	0.8737670316389916	-0.3745708668207536	-1.1076737538230768	0.7719326146522579	-0.8724834782695085	-1.3597903351976115	-1.2086490469659368	1.7023996953866278	1.1665491474785115	1.673168608900034	-1.727553208628823	-1.669714377800659	0.999061543911801	0.54955319454402	-0.1544052902653877	-0.0815531411260013	1.3035419990488901	-0.9548156273642837	-1.7017964360058802	1.0657236279917472	0.35824035856171205	-0.6538196649682047	-1.4576887129526412	0.9288706409831707	0.4050367371691508	-1.0550697782373162	-1.4189102689297695	-1.082530700408005	-0.3968458205014706	-0.07504696928880783	-0.1257466833828042	0.3293029879452099	-0.7095714146870311	1.2178305730615224	0.7782324351627424	0.22641932872392964	-1.5663556452425038	-0.3193014197833625	2.416492312444696	0.649213998822188	-0.09492379133876558	0.9072811705806869	-0.7769816696454269	0.5528031421661396	-1.0697612287087654	-0.6489946136731086	-1.391414514258171	-0.630508168422672	-0.9901195602300704	0.3302012326418946	2.275053900958222	-0.06625550719003302	1.032851571277723	0.5809613623249514	-1.4498507327548757	0.12494267120343905	-3.035889055276265	-1.0528414749088808	-0.5906515165283898	-0.7414694267245577	-1.4733633607825936	1.1474067374656713	-0.5106310839239353
-0.14953571583940697	-3.0333300547134097	-0.30227031564970175	-0.46604640780791456	-0.13046898215873304	-0.16153146901011126	0.7737239398536865	-0.9455416871657788	-0.04659572739382409	-1.6414820843277438	0.4035248404545062	0.41916180637134254	-0.5457785514268092	2.0474526014491707	-0.46780140175731494	-1.080317966748336	0.43556107296232915	0.4317073262266301	0.025988747172432533	0.599330922834578	0.410927629069015	0.11313011097024774	-1.2193196048308623	0.9711970780515337	-0.6799143425540544	0.9712462491505679	0.614805834440291	-2.822279731262777	0.569425660542071	-0.028049601747700773	-1.023815321090251	0.898759015248776	-1.7182568079727352	0.915463838918576	0.7604321308506194	0.03345831713436365	1.1153073114735452	0.7690614133731133	0.27929529014490634	-1.3388389718162348	-1.3537756553625422	-0.9749568440458755	0.041595576511533824	-1.6547356212855209	0.7189757068826996	0.28534542557312603	-0.5582129415289856	0.39394505407129676	-0.7714710428549482	0.1273224017315473	1.4887873493260613	1.0816956324040066	-0.5909050057477644	0.5155625592019224	0.08166003875870166	-0.010192800861180568	-0.7404795130967883	-1.5366052903346759	-0.7979201501395797	0.008615405327599726	1.1758389722424103	0.5967433251092694	0.038305067224504816	-0.7499783668412661
1.139669158565579	-0.06646240218386423	-0.14371830130353097	-0.2638498101787848	-0.5726395145172144	-0.23267892996266368	0.9444810198254348	1.2288476858278161	-0.1561483829583547	0.025111252151833824	1.0326353131077695	0.5227481841011812	1.2494768014420032	-0.5936782279604383	0.11303930146479838	-0.4733816090039639	0.8829180382443611	-0.8435116442264197	0.08729930752002689	-0.07162843325338558	0.31926482683699886	-0.45606039985533664	0.2498280212139759	0.08149417101676049	0.2975072620274761	-1.108872264234534	1.0630082922057353	0.028448356887355676	0.11272479342608611	0.7533538056798564	-1.0578043079103407	0.2975995641279975	0.411604007789313	-2.224597939618407	-0.23538377874606012	0.15387402179779058	-1.2097426352846672	-0.9909868200074048	-0.46518157525491294	-0.09181055617137351	0.1254555263536683	0.7170806524935991	1.175746177678437	1.427318567044227	-2.515189456919294	-1.0701983735737293	-0.8464928495646964	-0.5892303360093207	0.9876826511914157	0.45538276536688815	0.86219471014243	-1.4851523041850778	-0.7715694465688219	0.9205005962813559	1.3659235092553137	0.05714850258507346	0.9264241601626306	0.07892312920226444	-0.05872603560168687	1.5357721196618959	-0.9372214784185893	-0.444079890961236	0.21266653674232552	0.009539460253829159
0.4328314827466563	-0.6765558631175054	0.20037436472681625	-0.6759515626955416	-0.943502930996589	0.34923893651898097	-0.6342736189454192	-0.7391769037596305	0.2799551937977771	1.1004310789139822	0.6792122060863719	0.6430683971489942	-1.4520623428786843	0.29622002745042963	0.47351821975963787	0.5807422320657455	1.0648443044183546	0.032626943895126215	-0.5903588822728149	-0.03853970539897043	0.9681114674659463	0.17414971346585784	1.4203613122913283	0.9882146238878865	0.583666862936432	-1.71477765309864	-0.461854981320324	-0.2185541578180868	1.1869774969371805	0.28457870272967695	-0.633576238844292	0.8312064946896986	0.3335469753837338	-1.4400226298876393	-2.0244234269545833	0.7397353906314913	0.40147839717195904	1.5620637663904349	-0.4333777564407535	0.558059364697276	-0.21677576043768532	0.6077621502674013	0.2938970625419872	-0.7519654916823989	0.4352963406107861	0.5526126646090419	-0.6308856058866301	-0.3510659901707172	0.1702616691492766	-0.902221534944712	-0.7490988450367225	-0.6022589405746288	-1.0401008246469605	-0.9209243956058656	-0.935796136054859	0.6016063978890103	-1.125327450708002	-1.068745912135362	-0.7217057919686076	0.16640673924208843	0.4059595987010792	0.6099133888061462	-0.3636135092579639	-0.25027720063615366
